SVM-light Version V6.02
0 # kernel type
3 # kernel parameter -d 
1 # kernel parameter -g 
1 # kernel parameter -s 
1 # kernel parameter -r 
empty# kernel parameter -u 
26425 # highest feature index 
5960 # number of training documents 
1636 # number of support vectors plus 1 
1.4765954 # threshold b, each following line is a SV (starting with alpha*y)
-0.43618228188937752110021506268822 322:0.25730923 1449:0.24659891 1720:0.22453521 1952:0.15169919 1963:0.14543767 1975:0.13461927 4376:0.27356943 6175:0.25150573 6594:0.23221169 9384:0.087809414 9478:0.03912694 9480:0.092046596 9483:0.057218403 12477:0.11129934 12944:0.16259457 12954:0.090762772 12963:0.13656589 12975:0.055589233 12978:0.075814746 13964:0.15641436 18211:0.21318182 18260:0.1962913 18306:0.18156543 18389:0.1435972 18441:0.12039185 18465:0.081250414 18553:0.26441216 19537:0.23524553 19738:0.22944202 20458:0.13153642 22416:0.089627013 24868:0.16712466 24913:0.11862998 25333:0.19033213 26418:0.036325939 26421:0.036325939 26423:0.052418478 26424:0.052418478 #
-1.2681707365957839428460829367395 1944:0.12437719 1948:0.1235279 1958:0.12206399 1961:0.12206399 1962:0.11978924 1978:0.10752725 1979:0.10448911 1989:0.042968299 1993:0.16028541 1997:0.068643928 1999:0.058545683 2000:0.041324802 6464:0.20051381 6746:0.18350095 6756:0.17541485 6815:0.17660394 6856:0.16921408 6976:0.12949705 6994:0.11180447 6995:0.10827295 7000:0.066260904 9389:0.16343006 9478:0.032881457 9482:0.048781566 14938:0.13306905 14939:0.13190073 14955:0.11324479 14959:0.10448911 14967:0.047251426 14969:0.075046293 17614:0.20366454 17695:0.20051381 17822:0.18512267 17863:0.17660394 18376:0.12787533 18378:0.12238245 18437:0.10274218 18452:0.089262582 18456:0.088574879 18461:0.081741735 18463:0.074054927 18465:0.068281136 18466:0.061305247 18467:0.062067226 20142:0.16269714 20357:0.1612889 20409:0.13429074 20414:0.13259558 20416:0.1270999 20438:0.12455033 20453:0.12386439 20459:0.10583532 20467:0.079749309 22413:0.091640875 25705:0.19067708 25809:0.15687297 25869:0.13144733 25875:0.13013147 26087:0.18197194 26104:0.18350095 26418:0.030527554 26421:0.030527554 26422:0.046583828 26425:0.046583828 #
-0.41656395947401081425454094642191 1418:0.22311108 1727:0.090744331 1798:0.17981632 1860:0.16068503 1950:0.13153733 1975:0.11672746 1976:0.10705899 1978:0.11094536 1984:0.10042632 1989:0.088668384 1996:0.076819137 2000:0.085276902 3974:0.23721018 5294:0.22926998 6043:0.21013869 6370:0.20397979 6441:0.20134918 6539:0.20397979 6962:0.15406992 6990:0.11672746 9384:0.076138951 9478:0.033926703 9480:0.079812981 9482:0.050332252 12474:0.10530345 14946:0.12034626 14967:0.04875347 14968:0.054862592 17964:0.12227909 17965:0.12157315 18277:0.16786902 18283:0.16713294 18391:0.12868939 18436:0.11280899 18460:0.085036173 18462:0.079386473 18463:0.076409012 18465:0.14090335 18466:0.063254043 19218:0.21382424 19474:0.21013869 19895:0.19469295 20143:0.17459314 20243:0.16571723 20358:0.15406992 20425:0.14126773 20451:0.13214397 20457:0.11448226 22416:0.077714972 25914:0.078087382 26418:0.031497978 26421:0.031497978 26422:0.048064649 26425:0.048064649 #
-0.86705188555242929115962624564418 1969:0.21296602 1990:0.15723509 1996:0.14029466 6989:0.2300117 9465:0.1965861 14614:0.39827713 14967:0.089038387 14968:0.10019547 16397:0.43321657 18382:0.24811859 18416:0.21447726 18453:0.17316431 18458:0.1644917 19926:0.33278424 20187:0.31389707 20462:0.19537142 25914:0.14261085 26418:0.057524703 26421:0.057524703 26422:0.087780394 26425:0.087780394 #
-0.18765976971644721116305731811735 1205:0.1933974 1434:0.18215266 1594:0.17453372 1957:0.10847354 1972:0.10243036 1986:0.085634284 1989:0.076859623 1990:0.074628927 1993:0.14335541 1994:0.070693962 1995:0.069451198 1996:0.066588446 2523:0.21531947 3077:0.21531947 4163:0.2056188 5377:0.19873606 6385:0.18215266 6894:0.14753543 6929:0.13602825 6937:0.13475761 6945:0.13830853 6992:0.10341147 9046:0.1890354 9418:0.13691446 9444:0.12320548 9468:0.062656082 9478:0.029408382 9483:0.043006193 12930:0.13475761 12975:0.12534505 12978:0.056983478 13869:0.16145778 18350:0.12125135 18355:0.12033105 18393:0.11350481 18421:0.09849944 18436:0.097785212 18443:0.090553202 18452:0.079834305 18457:0.082419731 18460:0.073711149 18465:0.061069004 19859:0.16145778 20024:0.15489192 20100:0.15906329 20126:0.15218057 20291:0.15052992 20358:0.13355106 20366:0.12829097 20375:0.12618302 20456:0.10386077 22385:0.1123456 22394:0.10431867 22418:0.063417628 24028:0.16876397 24373:0.12033105 24920:0.070665635 24922:0.11436862 25420:0.14305642 26418:0.027303111 26421:0.027303111 26423:0.039398499 26424:0.039398499 #
4.120381669880274877471038053045 1897:0.091350704 1948:0.075121425 1976:0.063100278 1997:0.041744657 1999:0.035603579 2000:0.025130987 6558:0.11066319 6915:0.09028358 6990:0.068798847 7000:0.040295459 9452:0.073570944 9478:0.019996308 9482:0.029665692 12438:0.087231778 12607:0.12602744 12824:0.10978363 12833:0.1147515 12855:0.10978363 12893:0.10130332 12917:0.096122801 12932:0.090808392 12936:0.085798472 12954:0.18554175 12957:0.072325811 12961:0.068593353 12966:0.13055894 12967:0.064361975 12968:0.13123211 12973:0.058119643 12975:0.19886696 12976:0.054425374 12978:0.2324764 13004:0.13981104 13107:0.14640704 13129:0.13150106 13369:0.15801531 13567:0.12602744 13635:0.12385518 13637:0.12385518 13728:0.11867466 13737:0.12022514 13761:0.11725918 13906:0.10080273 13921:0.09850771 13934:0.095757224 13945:0.088803679 13957:0.085032791 13959:0.082605444 18342:0.083773889 18380:0.085220866 18461:0.049709868 18465:0.04152403 18467:0.037745144 19950:0.10739873 20298:0.11159302 20308:0.090543874 20463:0.062387712 22417:0.044361591 24502:0.13150106 24541:0.13981104 24670:0.12193912 24716:0.11595707 24772:0.10739873 24834:0.096122801 24852:0.091350704 24862:0.08660198 24867:0.084301539 24871:0.085032791 24880:0.079267941 24884:0.08952681 24898:0.07267195 24899:0.071410254 24904:0.13787459 24905:0.067731723 24907:0.065959752 24915:0.058119643 24918:0.079937495 24919:0.051824354 24920:0.048049282 24921:0.067796409 24941:0.12602744 24994:0.12022514 25017:0.1147515 25020:0.11595707 25061:0.11725918 25071:0.11867466 25252:0.10406719 25295:0.10894921 25309:0.1003171 25313:0.1081555 25335:0.11257925 25343:0.095757224 25356:0.10531917 25362:0.1018198 25380:0.087447248 25416:0.097271591 25418:0.073944934 26418:0.018564822 26421:0.018564822 26423:0.026789112 26424:0.026789112 #
0.8313946555783436886954973488173 1924:0.17280388 1972:0.14541256 1986:0.12156846 1987:0.11471871 1989:0.054555874 2646:0.30567265 5759:0.26835912 6362:0.24777222 9452:0.15360345 9478:0.2087442 9482:0.061936848 12218:0.26312354 12417:0.14466277 12438:0.18212491 12472:0.18257478 14924:0.17563587 14967:0.059994064 14968:0.067511708 17928:0.19249696 18241:0.20392497 18360:0.16776291 18389:0.15321967 18456:0.11246151 18467:0.07880535 19828:0.22920929 19947:0.21258219 20423:0.15925977 20464:0.12684166 22412:0.16041906 22413:0.11635434 24322:0.20392497 24411:0.17714565 25911:0.1184134 26418:0.038760144 26421:0.038760144 26422:0.05914643 26425:0.05914643 #
4.0251388611584060228665293834638 1669:0.15585887 1907:0.12441712 1969:0.09679994 1990:0.071468428 1992:0.067031302 1996:0.063768461 1998:0.062805742 3021:0.20620079 3129:0.20620079 6035:0.17173998 6935:0.13338652 6940:0.1311162 9458:0.10162432 9467:0.091322921 9469:0.090796195 9478:0.056325905 9481:0.060275853 9483:0.082369804 12412:0.14062321 12448:0.1216827 12456:0.11611641 12457:0.11480682 12469:0.10348807 12498:0.18102983 12938:0.12056483 12948:0.11127499 12953:0.10414461 12954:0.065329604 12970:0.085743211 12973:0.081856146 12975:0.040012248 12976:0.076653115 12978:0.054570254 13901:0.14493179 13918:0.13814387 13942:0.1329141 18037:0.177498 18357:0.1192401 18382:0.11277792 18417:0.096227124 18434:0.098925717 18449:0.096039318 18464:0.058922678 19809:0.16161689 20002:0.16514874 20054:0.16514874 20408:0.11567152 20432:0.12609024 22370:0.1192401 22391:0.10138689 22396:0.096511744 22407:0.089565262 22408:0.088130683 24241:0.14743371 24332:0.12865902 24367:0.1189841 24392:0.1066773 24503:0.18520711 24837:0.13245122 24862:0.12197089 24908:0.095760472 24911:0.091862045 24919:0.072989814 24922:0.10952516 25031:0.18520711 25043:0.16932601 25376:0.14062321 25408:0.10969425 26418:0.026146837 26421:0.026146837 26423:0.03772999 26424:0.03772999 #
1.3498805179846284918454557555378 1727:0.061842058 1897:0.10562536 1976:0.072960466 1997:0.048267767 2000:0.029058009 6558:0.12795566 6915:0.10439149 6990:0.079549499 9456:0.084129222 9478:0.023120973 9482:0.034301318 12461:0.088199832 12466:0.085067302 12500:0.14862028 12610:0.14572075 12611:0.2914415 12886:0.11834715 12907:0.11247146 12920:0.10351646 12933:0.10295493 12936:0.099205531 12943:0.094079733 12954:0.10726745 12958:0.081041805 12961:0.0793119 12967:0.14883864 12968:0.15173873 12971:0.073822133 12973:0.06720154 12975:0.13139562 12977:0.044700358 12978:0.089601219 13155:0.15204971 13545:0.14320906 13726:0.13558236 13835:0.13268282 13855:0.12505612 13865:0.12418109 13906:0.11655439 13920:0.10873865 13930:0.11072045 13959:0.095513552 13967:0.088972948 18304:0.10469245 18342:0.096864574 18465:0.096025325 19954:0.11834715 20281:0.10562536 20308:0.10469245 22418:0.049859159 24472:0.16928491 24649:0.13901179 24655:0.14320906 24769:0.12597385 24779:0.12597385 24787:0.12254442 24788:0.12103884 24814:0.11599286 24817:0.11440236 24835:0.10873865 24850:0.10499831 24851:0.1018798 24861:0.10136443 24862:0.1001346 24899:0.082568973 24910:0.093401834 24912:0.15083219 24919:0.059922539 24920:0.11111513 24921:0.078390419 25067:0.13558236 25145:0.12693867 25217:0.12177657 25256:0.11834715 25339:0.10439149 25352:0.10729103 25382:0.13268282 25418:0.085499726 26418:0.021465801 26421:0.021465801 26423:0.030975237 26424:0.030975237 #
2.9193275791502899529916703613708 1842:0.15220755 1943:0.12270705 1976:0.09619198 1992:0.072553247 1993:0.14859366 1997:0.063636817 1999:0.10855034 2000:0.038310435 5114:0.19594282 6915:0.13763103 6963:0.13139868 6982:0.12336256 6990:0.10487904 7000:0.061427616 9477:0.083054699 9478:0.15241487 9482:0.045223277 12417:0.10562573 12437:0.17493066 12464:0.11818565 12472:0.13330723 14954:0.10247726 14967:0.21902376 14968:0.049293771 17908:0.18327484 17945:0.10191148 17966:0.10719015 17967:0.12314212 18301:0.1396817 18304:0.13802782 18342:0.12770745 18372:0.12227947 18385:0.15864317 18438:0.096044362 18442:0.094476089 18448:0.10055105 18452:0.082751475 18465:0.12660098 18466:0.056833442 19420:0.20599794 19431:0.18327484 19711:0.17321971 19954:0.15603034 20035:0.15774129 20281:0.13925777 20283:0.14952396 20377:0.17321971 20401:0.12770745 20425:0.12692836 20465:0.10405233 22415:0.078165591 22420:0.10849255 24293:0.1673575 24421:0.14055192 25895:0.10487904 25900:0.13537501 26338:0.15366673 26402:0.15016814 26418:0.028300775 26421:0.028300775 26422:0.043185852 26425:0.043185852 #
-1.9899999999999999911182158029987 1897:0.16035658 1976:0.11076593 1997:0.073278368 2000:0.044114809 6558:0.19425762 6915:0.15848336 6990:0.12076916 9452:0.12914608 9478:0.1755071 9482:0.05207501 12218:0.22122793 12417:0.12162898 12438:0.15312624 12472:0.15350448 12808:0.20583619 12966:0.11459126 12967:0.1129807 12968:0.23036422 12970:0.10686765 12975:0.049870014 12977:0.067862459 13157:0.23083633 13919:0.17291994 13945:0.15588555 18304:0.15894027 18342:0.14705628 18465:0.072891079 18467:0.066257641 19954:0.17967033 20281:0.16035658 22412:0.13487649 22413:0.097827926 24322:0.1714552 24411:0.14893979 24751:0.18985565 24874:0.14645506 24880:0.13914657 24898:0.12756798 24899:0.1253532 24908:0.11935285 24963:0.20583619 25116:0.19946404 25281:0.18267904 25312:0.17291994 26418:0.032588597 26421:0.032588597 26423:0.047025476 26424:0.047025476 #
-0.44952243968459376644020153435122 1758:0.20454186 1976:0.11756442 1997:0.077775978 2000:0.046822451 6452:0.2239958 6915:0.16821061 6990:0.12818162 9452:0.1370727 9478:0.18627921 9482:0.055271223 12218:0.23480627 12417:0.12909421 12438:0.16252469 12472:0.16292614 12935:0.16333297 12952:0.14151609 12954:0.086422384 12970:0.11342687 12975:0.15879267 12978:0.072189197 13882:0.20298721 13893:0.12399027 13976:0.12976332 18304:0.16869557 18342:0.15608217 18376:0.14488722 18465:0.15472984 19954:0.19069798 20281:0.1701988 20308:0.16869557 20414:0.15023544 22412:0.14315481 22413:0.10383232 24322:0.18197863 24411:0.15808128 24854:0.17071691 24866:0.16292614 24893:0.13848266 24908:0.12667838 25200:0.23075905 25327:0.18434156 26418:0.034588791 26421:0.034588791 26423:0.049911764 26424:0.049911764 #
-0.26766803486015700030975494883023 1309:0.18184167 1712:0.1571281 1986:0.08051753 1988:0.07373713 1990:0.070169762 1992:0.065813258 1993:0.13478975 1996:0.06260971 2000:0.034751508 2059:0.20245387 3727:0.19333282 4348:0.19333282 6460:0.16861926 6743:0.15431252 6946:0.13563363 6965:0.11975453 6989:0.102648 9445:0.11272064 9453:0.10402008 9467:0.089663476 9478:0.027651196 9483:0.040436521 12129:0.16624914 12390:0.14475466 12864:0.15302673 12966:0.090269439 12967:0.089000717 12975:0.039285179 12978:0.053578645 13407:0.17774031 13825:0.16034719 13945:0.12279907 18247:0.13939156 18323:0.13192011 18398:0.10251528 18416:0.095715396 18423:0.13563363 18439:0.095136084 18444:0.085203752 18458:0.073408194 18465:0.057420056 18466:0.051553782 19040:0.17427264 19140:0.18686134 19756:0.15431252 19864:0.16214778 19869:0.15302673 20114:0.14851259 20229:0.18184167 20451:0.10770097 22238:0.15181048 22369:0.11422806 22417:0.061343879 22939:0.19333282 24123:0.15302673 24874:0.1153702 24880:0.10961291 24905:0.093660459 24963:0.16214778 25385:0.12033137 26418:0.025671717 26421:0.025671717 26423:0.037044391 26424:0.037044391 #
-1.9899999999999999911182158029987 1758:0.29207757 1976:0.16787726 1997:0.11106097 2000:0.066860579 6452:0.319857 6915:0.24019799 6990:0.18303819 9384:0.1193921 9478:0.053199846 9480:0.12515327 9482:0.078925088 12474:0.16512442 14721:0.17502522 14954:0.17884654 14967:0.076449431 14968:0.086029038 17966:0.18707162 18304:0.24089049 18342:0.22287905 18376:0.20689315 18465:0.220948 19954:0.27230904 20281:0.24303703 20308:0.24089049 20414:0.21453018 22416:0.12186343 25896:0.17721313 26418:0.049391404 26421:0.049391404 26422:0.075369306 26425:0.075369306 #
2.7696259919731134324649701738963 1328:0.26148778 1938:0.17854984 1956:0.16242468 1964:0.1573723 1989:0.11206894 1990:0.10881637 1994:0.20615759 6433:0.28977686 6688:0.25448745 6836:0.22584778 6992:0.15078415 9384:0.096232854 9478:0.042880334 9480:0.10087651 9482:0.063615486 12474:0.13309419 12945:0.17679648 12975:0.060921833 12978:0.083087556 13887:0.22875652 18359:0.1958936 18421:0.14362194 18443:0.26407108 18460:0.10747816 18463:0.096574195 19991:0.24607459 20024:0.22584778 20256:0.21723613 20319:0.21411003 20413:0.18116276 22416:0.098224811 24915:0.1246325 26418:0.039810639 26421:0.039810639 26423:0.057446916 26424:0.057446916 #
3.7374179686879100970031686301809 915:0.10190164 959:0.11291522 1490:0.099568143 1614:0.099568143 1729:0.095022485 1862:0.085733756 1925:0.073841371 1983:0.050215662 1989:0.022437274 1991:0.043867901 1998:0.038290776 1999:0.030571505 2000:0.02157907 6032:0.10470472 6040:0.10634997 6956:0.077973887 6980:0.070255376 7000:0.034600254 8766:0.11291522 9162:0.10470472 9223:0.099568143 9302:0.097569242 9314:0.095820896 9329:0.096667737 9401:0.08191625 9411:0.081615843 9422:0.079420194 9426:0.077973887 9439:0.073176078 9445:0.069994271 9453:0.064591631 9455:0.064417027 9459:0.12480155 9468:0.073163606 9470:0.16279672 9471:0.054734793 9472:0.052643646 9473:0.22034487 9474:0.049631633 9475:0.049752574 9478:0.017170107 9481:0.073496759 9482:0.025472859 9764:0.12571444 10212:0.1160322 10233:0.1160322 10239:0.1160322 10240:0.1160322 11677:0.11036846 11697:0.11036846 11879:0.10821521 12073:0.10470472 12379:0.091598488 12413:0.084957525 12421:0.084585011 12431:0.081615843 12459:0.13612904 12471:0.063172713 12963:0.059929319 12975:0.024394268 12977:0.033195399 13960:0.071785793 18392:0.072854944 18395:0.064074218 18413:0.065975785 18433:0.056787189 18435:0.058438726 18444:0.052907567 18458:0.045583073 18462:0.040177029 18463:0.038670156 18466:0.0320125 18467:0.032410394 19525:0.1160322 19841:0.096667737 20180:0.093550749 20226:0.085340247 20393:0.079937607 20420:0.069865532 20430:0.068876199 20449:0.066171154 20457:0.057938807 20467:0.041643661 22148:0.10470472 22267:0.088850737 22281:0.089885913 22286:0.087428987 22294:0.087428987 22332:0.079676509 22345:0.077086702 22352:0.075465344 22357:0.075853385 22369:0.14186063 22376:0.070124216 22383:0.065687761 22386:0.065037951 22388:0.064768448 22389:0.071209691 22390:0.062627912 22395:0.061527461 22397:0.058438726 22401:0.059495673 22402:0.056538191 22409:0.10886876 22410:0.053450853 22414:0.095653474 22418:0.037026428 22419:0.074770182 22617:0.12571444 22664:0.1160322 22667:0.1160322 22679:0.1160322 23145:0.11291522 23574:0.10821521 23578:0.10821521 23579:0.10821521 23781:0.10323299 23991:0.098532967 24099:0.095022485 24126:0.095820896 24138:0.094267242 24209:0.093550749 24210:0.089885913 24275:0.084585011 24276:0.085340247 24287:0.082223266 24290:0.082223266 24292:0.084585011 24333:0.077973887 24360:0.081321761 24374:0.070124216 24380:0.068406619 24395:0.063989818 24398:0.065593064 24399:0.06357529 24913:0.052058492 26418:0.015940942 26421:0.015940942 26423:0.023002842 26424:0.023002842 #
3.3440222989383694418563663930399 335:0.31891888 1178:0.30335188 1808:0.25012791 1978:0.15432709 1981:0.1394255 1989:0.1233394 2314:0.34553087 6631:0.27366683 9384:0.10591072 9478:0.047192689 9480:0.11102137 9483:0.069013581 12477:0.13424294 12891:0.23908295 12975:0.067048572 12977:0.091238804 18360:0.18963839 18396:0.17657864 18457:0.1322619 18462:0.11042809 19949:0.25346854 20047:0.26117289 20196:0.2324851 22416:0.108103 24914:0.14308473 24920:0.11339968 25405:0.17951456 26418:0.043814283 26421:0.043814283 26423:0.063224189 26424:0.063224189 #
3.5498598318034906284879070881288 1176:0.18958464 1332:0.1826819 1845:0.14941874 1919:0.1293036 1940:0.12045538 1942:0.1197919 1959:0.11095183 1963:0.1096307 1974:0.10262109 1993:0.14377195 1998:0.065773711 2000:0.037067298 2821:0.21594508 2999:0.21594508 3251:0.21594508 3545:0.19931349 5728:0.18958464 5760:0.18958464 6051:0.18588591 6689:0.16459568 6794:0.15952547 6924:0.14071107 9465:0.093577318 12800:0.09409494 12969:0.094020307 12975:0.041903082 12977:0.05702116 13971:0.10851449 18224:0.15262273 18257:0.14593519 18275:0.1509673 18276:0.14232928 18333:0.12684049 18386:0.11417738 18442:0.091410421 18452:0.080066264 18453:0.082428269 18455:0.091277122 18458:0.078299999 18895:0.19395933 19331:0.17985579 19665:0.16925432 19666:0.16925432 19789:0.16605033 20130:0.14868039 20307:0.16759889 20367:0.14071107 20462:0.092999116 24909:0.095009118 26418:0.027382441 26421:0.027382441 26423:0.039512973 26424:0.039512973 #
2.6730032431961583405666260659928 942:0.13284621 1169:0.12731658 1189:0.12984991 1948:0.075889856 1960:0.073065646 1963:0.075088032 1975:0.0695026 1989:0.15838645 1991:0.051611152 1994:0.048560243 1998:0.090099178 1999:0.035967771 3518:0.13651338 5169:0.13284621 5742:0.12984991 5764:0.12984991 6374:0.12318645 6720:0.11479148 6807:0.10395734 6980:0.082656354 6987:0.079176292 7087:0.14790465 7242:0.14124118 7266:0.12984991 7378:0.11714321 7461:0.099088475 7466:0.097870573 7478:0.18528329 7489:0.079051316 7491:0.071420856 7492:0.072979376 7493:0.051012643 7496:0.062792771 7529:0.14790465 7541:0.14790465 7870:0.13284621 12954:0.04685992 12961:0.069295004 12971:0.064498581 12975:0.086100511 12978:0.039142404 13842:0.11179517 13893:0.067229971 13976:0.070360221 17993:0.14124118 18136:0.11714321 18205:0.11006366 18306:0.093740441 18410:0.071034156 18415:0.07222268 18424:0.072059155 18453:0.056456596 18456:0.054416325 18458:0.053629071 18460:0.050632775 18462:0.047268793 18463:0.090991877 18466:0.037663121 18467:0.038131244 18783:0.12984991 18791:0.12984991 19333:0.12318645 20129:0.10183386 20197:0.10575194 20265:0.10395734 20407:0.085345462 20430:0.081033736 20439:0.076411612 20457:0.068165749 20462:0.063696757 20464:0.061374392 20467:0.048994303 20774:0.12145494 20870:0.1034002 20872:0.1004039 20884:0.099953629 20897:0.092008926 20907:0.089712061 20920:0.16292123 20921:0.078440316 20923:0.07717108 20925:0.070507616 20926:0.074701324 21120:0.13284621 21126:0.13651338 21648:0.12512212 21782:0.12512212 21829:0.11714321 21868:0.10513171 21875:0.10513171 21883:0.11006366 21891:0.1077668 21907:0.10233957 21922:0.090195455 24895:0.072140716 24911:0.065891229 24914:0.061247487 25330:0.098672397 25340:0.095337242 25400:0.082197696 26419:0.049730282 26420:0.049730282 26423:0.027063143 26424:0.027063143 #
-0.81427728569785107204381802148419 959:0.10094234 1154:0.10372882 1929:0.066320002 1938:0.063913882 1980:0.048215117 1984:0.045435969 1989:0.020058157 1992:0.036533676 1997:0.032043871 1999:0.027329881 2000:0.01929095 5797:0.10094234 6077:0.098665625 6693:0.087223567 6928:0.073785417 7000:0.030931445 9358:0.082441002 9374:0.079429522 9422:0.070998937 9463:0.053518638 9464:0.052191768 9468:0.032702882 9471:0.048931032 9475:0.044477098 9478:0.015349488 9482:0.022771863 11600:0.10372882 11903:0.098665625 11918:0.098665625 12421:0.075616106 12423:0.073785417 12425:0.073785417 12431:0.07296177 12514:0.10094234 12676:0.095073231 12745:0.095073231 12794:0.091096587 12868:0.083631173 12876:0.081354454 12917:0.073785417 12922:0.14592354 12925:0.070552915 12937:0.066477083 12939:0.06729354 12948:0.060647551 12951:0.059786011 12954:0.24924347 12956:0.054033063 12958:0.053801812 12961:0.1579601 12962:0.05307851 12965:0.052141517 12971:0.049008835 12972:0.046732116 12973:0.089227147 12975:0.13084584 12976:0.12533338 12978:0.14871052 13369:0.060647551 13416:0.098665625 13496:0.10094234 13626:0.092286758 13790:0.091096587 13821:0.088085108 13856:0.10094234 13866:0.083631173 13876:0.085660607 13930:0.073504791 13936:0.14700958 13942:0.072441392 13944:0.068167135 13947:0.080354936 13952:0.062805906 13957:0.065272547 13958:0.060948465 13970:0.057129711 18216:0.082441002 18377:0.065710746 18391:0.058223054 18427:0.051553767 18444:0.047297556 18448:0.050631773 18454:0.045792773 18462:0.035916891 18466:0.028618081 18827:0.10094234 19355:0.095073231 20093:0.089010522 20195:0.077377804 20202:0.084946848 20391:0.065860294 20427:0.062343355 20465:0.052394819 22347:0.069106482 22381:0.061256811 22386:0.058141701 22406:0.04944564 22410:0.047783237 22414:0.04275547 22419:0.033420991 24142:0.084946848 24196:0.081885912 24333:0.069705985 24334:0.070122272 24380:0.061153181 24398:0.058637954 24766:0.088085108 24769:0.083631173 24779:0.083631173 24788:0.080354936 24802:0.080354936 24852:0.070122272 24858:0.069303133 24861:0.06729354 24867:0.064711221 24869:0.064439744 24872:0.065129831 24878:0.062457394 24881:0.060948465 24886:0.058223054 24891:0.077005021 24893:0.057055157 24894:0.055987213 24895:0.054815661 24896:0.054328289 24904:0.05291738 24906:0.059786011 24908:0.052191768 24911:0.10013406 24912:0.10013406 24914:0.046538509 24915:0.044613574 24919:0.079562418 24920:0.073766805 24921:0.052041616 24922:0.059693854 24968:0.091096587 24970:0.091096587 24997:0.093602434 25071:0.091096587 25161:0.087223567 25184:0.084271692 25201:0.084946848 25242:0.0808447 25256:0.078567982 25271:0.10732121 25283:0.098665625 25285:0.10372882 25296:0.081354454 25313:0.083021909 25326:0.075949125 25343:0.073504791 25355:0.10372882 25367:0.072189115 25369:0.069303133 25372:0.069303133 25376:0.076643042 25378:0.067463435 25386:0.066477083 25388:0.067125916 25410:0.059154745 25411:0.0552583 25418:0.056761324 26418:0.014250657 26421:0.014250657 26423:0.020563755 26424:0.020563755 #
-0.73764772171062542582831156323664 1882:0.091440909 1924:0.077486068 1949:0.073607937 1960:0.067710817 1979:0.059488706 1989:0.02446311 1992:0.0445568 1994:0.09000273 1999:0.03333177 2000:0.023527417 4940:0.13706504 5399:0.12650861 6374:0.11415838 6849:0.099868804 6982:0.075760104 6995:0.061642956 7000:0.037724268 9459:0.068034865 9481:0.040066347 12459:0.074209981 12608:0.11798582 12640:0.12311019 12681:0.11798582 12687:0.12033349 12837:0.10360195 12845:0.10539575 12893:0.09483932 12907:0.091064848 12929:0.082918122 12948:0.073966302 12953:0.069226623 12954:0.13027696 12956:0.065899216 12957:0.067710817 12965:0.1907768 12971:0.059771616 12972:0.056994915 12975:0.15958078 12976:0.10190515 12978:0.18136871 13075:0.13088992 13201:0.12650861 13476:0.12311019 13584:0.12033349 13723:0.10855804 13774:0.11255377 13901:0.096338533 13942:0.088350177 13949:0.091440909 13950:0.11595218 13952:0.076598644 13957:0.079606988 13958:0.074333303 13959:0.077334523 13970:0.069675907 13976:0.065203674 18051:0.12033349 18274:0.090339482 18327:0.087155074 18406:0.068534248 18424:0.066778094 18448:0.061750967 18460:0.046922009 18461:0.046537962 18466:0.034902871 18467:0.035336688 19275:0.12033349 19714:0.10637865 20019:0.10277852 20265:0.096338533 20453:0.070519619 20465:0.063901193 20467:0.045403615 22419:0.040760547 24502:0.12311019 24648:0.11255377 24696:0.11798582 24746:0.10360195 24831:0.17997871 24848:0.089312375 24852:0.085521758 24860:0.093916021 24862:0.081076048 24864:0.081466578 24881:0.074333303 24884:0.083814241 24887:0.081270061 24896:0.066259272 24897:0.068365961 24898:0.068034865 24900:0.067472227 24903:0.063901193 24905:0.063409872 24911:0.061062202 24914:0.17027637 24915:0.054411121 24918:0.074836805 24919:0.048517521 24921:0.063470431 24950:0.13706504 24981:0.11255377 25110:0.10539575 25151:0.10447245 25176:0.11255377 25236:0.099220634 25341:0.087445177 25356:0.098598927 25361:0.088042498 25363:0.10637865 25395:0.097426832 25396:0.077184476 25400:0.076173604 25411:0.067393519 25418:0.069226623 26418:0.01738023 26421:0.01738023 26423:0.025079742 26424:0.025079742 #
-1.9899999999999999911182158029987 1997:0.044936769 9443:0.089811198 9454:0.079296522 9468:0.045860931 9478:0.021525376 12502:0.13836388 12770:0.12941846 12809:0.12774943 12916:0.098939978 12920:0.096372709 12921:0.10650736 12942:0.089629725 12948:0.085049182 12953:0.079599321 12954:0.19972968 12966:0.070271239 12968:0.14126712 12971:0.13745521 12973:0.062563911 12974:0.059925057 12975:0.24465582 12977:0.041615549 12978:0.29196218 13322:0.14546426 13369:0.085049182 13595:0.13836388 13799:0.12352628 13820:0.11408754 13845:0.12231809 13866:0.1172803 13901:0.11077359 13920:0.1012345 13921:0.10604035 13922:0.10604035 13928:0.10604035 13932:0.10428773 13940:0.1012345 13944:0.095594279 22392:0.077948801 24717:0.12622571 24782:0.11202496 24797:0.11337268 24800:0.11202496 24819:0.1079881 24851:0.09484899 24860:0.1079881 24862:0.093224227 24872:0.091334909 24887:0.093447305 24889:0.079907455 24895:0.076870821 24899:0.076870821 24901:0.075130641 24904:0.074208759 24906:0.083840996 24907:0.14200707 24910:0.086956099 24911:0.070211567 24912:0.070211567 24914:0.065263346 24918:0.086050116 24920:0.10344699 24922:0.083711758 24970:0.12774943 24972:0.12774943 24974:0.12774943 25018:0.12352628 25251:0.11642589 25295:0.1172803 25301:0.10960571 25308:0.13126351 25339:0.097187348 25342:0.11017992 25358:0.10021412 25365:0.11017992 25380:0.09413413 25382:0.12352628 25393:0.087748617 25403:0.11817852 25405:0.081879601 25410:0.08295574 26418:0.019984428 26421:0.019984428 26423:0.028837612 26424:0.028837612 #
-1.9899999999999999911182158029987 1943:0.058596574 1959:0.054759987 1985:0.0424399 1992:0.034646515 1994:0.034992199 1999:0.025918145 4561:0.10177749 6139:0.093569018 6715:0.081235774 6845:0.077152058 6875:0.073027298 8581:0.10177749 9198:0.091743514 9451:0.057144675 9468:0.062027201 9474:0.042077087 9478:0.014556604 9483:0.021287268 11504:0.098370664 12198:0.087519653 12433:0.067331463 12776:0.088767365 12837:0.080558889 12845:0.081953712 12868:0.07931117 12884:0.074509524 12904:0.07268402 12916:0.066908479 12920:0.065172352 12931:0.065723255 12933:0.12963764 12934:0.064994268 12940:0.061239112 12942:0.060612388 12950:0.1156003 12951:0.056697741 12953:0.10765859 12954:0.16883479 12956:0.051241968 12965:0.049448129 12966:0.14256343 12968:0.095532335 12971:0.092954531 12973:0.084618084 12975:0.14476812 12976:0.11885925 12978:0.19744036 13021:0.10177749 13252:0.098370664 13412:0.093569018 13459:0.095728129 13490:0.095728129 13584:0.093569018 13639:0.090162188 13736:0.087519653 13760:0.085360534 13820:0.077152058 13874:0.080558889 13875:0.085360534 13885:0.16247155 13891:0.076668635 13901:0.074910998 13907:0.076204166 13920:0.068460159 13921:0.14342025 13922:0.071710125 13928:0.071710125 13944:0.064645939 18374:0.060251679 18438:0.045864284 18444:0.04485438 18454:0.043427333 18461:0.036187027 20162:0.073380828 20346:0.069192909 20391:0.062458254 20421:0.064645939 22269:0.077152058 22340:0.067118078 22371:0.060370699 22405:0.0479743 22407:0.046293657 23592:0.093569018 23739:0.091743514 23751:0.091743514 24347:0.063346848 24653:0.090162188 24684:0.093569018 24702:0.084412649 24724:0.081953712 24726:0.081953712 24746:0.080558889 24782:0.075757235 24797:0.076668635 24826:0.06970787 24827:0.15151447 24840:0.070524909 24846:0.070524909 24848:0.069447592 24851:0.064141929 24856:0.065172352 24857:0.066500083 24862:0.063043177 24863:0.063658506 24872:0.061765525 24882:0.062316429 24888:0.055933457 24889:0.10807534 24892:0.055293173 24894:0.053095169 24895:0.051984139 24899:0.051984139 24903:0.049688343 24904:0.050183911 24907:0.14404911 24910:0.058804337 24911:0.094961599 24912:0.047480799 24914:0.088269092 24918:0.058191668 24919:0.11317889 24922:0.056610346 24984:0.087519653 25010:0.10177749 25018:0.083535038 25035:0.086390957 25091:0.084412649 25101:0.085360534 25102:0.093569018 25110:0.081953712 25183:0.079918608 25192:0.077656068 25197:0.084412649 25227:0.078733385 25241:0.076668635 25272:0.074509524 25295:0.07931117 25339:0.065723255 25340:0.068699405 25347:0.06799569 25365:0.074509524 25371:0.06553676 25372:0.065723255 25374:0.065172352 25376:0.07268402 25380:0.063658506 25383:0.070524909 25388:0.063658506 25400:0.059231136 26418:0.013514534 26421:0.013514534 26423:0.019501526 26424:0.019501526 #
-1.0732015966161481124174770229729 1979:0.043062087 1987:0.037236165 1989:0.01770811 1996:0.030683355 1998:0.030220125 1999:0.024127867 2000:0.017030792 6923:0.065653451 6941:0.06373132 6978:0.054840464 6995:0.044621482 7000:0.027307466 9097:0.087105803 9238:0.081474289 9278:0.079464316 9304:0.077764913 9388:0.067663424 9415:0.063513011 9422:0.12536117 9428:0.06135986 9433:0.059409317 9447:0.054079864 9453:0.05097748 9459:0.049248397 9462:0.047149874 9468:0.23097086 9470:0.042827874 9471:0.086396381 9472:0.041547801 9474:0.039170641 9475:0.078532182 9476:0.079562448 9478:0.054204468 9481:0.029002825 9483:0.079267457 10233:0.091575779 10475:0.094747283 10756:0.094747283 11020:0.094747283 11587:0.091575779 11664:0.049427658 11768:0.089115776 11770:0.089115776 11855:0.091575779 11946:0.087105803 12115:0.077764913 12121:0.081474289 12185:0.081474289 12343:0.074398279 12359:0.074398279 12388:0.070123427 12391:0.07094042 12418:0.07229203 12421:0.1335136 12431:0.1288269 12443:0.06373132 12444:0.060504831 12459:0.053718377 12628:0.089115776 12761:0.080423564 12873:0.074994341 12881:0.07094042 12900:0.068312101 12933:0.060341507 12938:0.058011964 12954:0.18860717 12961:0.046484411 12971:0.12980063 12972:0.041256908 12973:0.039386574 12975:0.096263111 12976:0.036883041 12978:0.078772418 13188:0.091575779 13473:0.089115776 13627:0.081474289 13630:0.08263582 13663:0.085406393 13807:0.078581899 13842:0.074994341 13893:0.045099147 13928:0.0667568 13932:0.065653451 13970:0.050436299 13976:0.047198981 18340:0.075624473 18387:0.049983624 18433:0.044818003 18456:0.036503509 18463:0.030519543 18466:0.02526514 18467:0.025579168 19777:0.094747283 20420:0.055139784 20431:0.051047035 20438:0.051329724 20464:0.041171115 20467:0.032866314 22314:0.070524357 22327:0.065140598 22335:0.063513011 22342:0.06228682 22357:0.05986556 22362:0.058828957 22369:0.055980142 22370:0.057374544 22373:0.055763971 22375:0.065653451 22386:0.051329724 22392:0.049072005 22400:0.044977777 22401:0.046955608 22402:0.044621482 22403:0.049072005 22405:0.044660509 22408:0.042405684 22410:0.12655462 22411:0.082686745 22414:0.11323851 22417:0.030063007 22419:0.05901067 22420:0.048230045 23341:0.094747283 23631:0.087105803 23643:0.087105803 23675:0.089115776 23797:0.0839343 23856:0.089115776 23921:0.081474289 23992:0.085406393 24004:0.079464316 24107:0.07629282 24110:0.07629282 24123:0.074994341 24131:0.075624473 24212:0.0713728 24230:0.06973657 24268:0.067663424 24276:0.067352854 24290:0.064892851 24301:0.064650543 24315:0.063088946 24333:0.061539121 24335:0.064892851 24372:0.06228682 24380:0.053988375 24390:0.058971208 24398:0.15530351 24403:0.048338659 24413:0.044352114 24711:0.081474289 24837:0.06373132 24856:0.060670614 24860:0.067982987 24864:0.058971208 24865:0.059559312 24883:0.053112969 24889:0.050305057 24892:0.051473837 24895:0.048393369 24897:0.049488068 24900:0.048841119 24901:0.047297854 24911:0.088402189 24912:0.13260329 24914:0.041085985 24920:0.032562084 24922:0.052700024 25030:0.089115776 25043:0.081474289 25045:0.081474289 25086:0.077764913 25113:0.077004313 25182:0.074398279 25218:0.089115776 25270:0.071822837 25306:0.068312101 25330:0.066191323 25336:0.065653451 25340:0.06395404 25349:0.064650543 25357:0.063298933 25360:0.063513011 25365:0.069362827 25371:0.06100985 25376:0.067663424 25404:0.053029131 25405:0.051546603 25410:0.052224081 26418:0.012581026 26421:0.012581026 26423:0.018154472 26424:0.018154472 #
2.7503078748789242524708242854103 1897:0.18604836 1976:0.12851246 1997:0.085018776 2000:0.051182736 6558:0.22538091 6915:0.18387502 6990:0.14011838 7139:0.27521321 7404:0.23881458 7474:0.17474048 7493:0.10284233 7496:0.12659127 14721:0.13398434 14954:0.1369096 14967:0.058523141 14968:0.065856464 17966:0.14320603 18304:0.18440513 18342:0.17061713 18465:0.16913888 19954:0.2084565 20281:0.18604836 20308:0.18440513 20538:0.2981782 20706:0.25667232 20772:0.24169739 20852:0.21449709 21114:0.26782015 25896:0.1356592 26419:0.10025707 26420:0.10025707 26422:0.05769629 26425:0.05769629 #
0.041331291111544904426366997540754 1960:0.19196291 1976:0.16747704 1989:0.069353901 1992:0.12632033 1997:0.11079621 2000:0.066701181 6620:0.29880121 6915:0.23962536 6986:0.20576958 6990:0.18260184 9384:0.11910747 9478:0.053073019 9480:0.12485492 9483:0.077612855 12477:0.15096995 14721:0.17460798 14900:0.24708816 14967:0.076267175 14968:0.085823946 17916:0.26145336 18304:0.2403162 18346:0.21882111 18455:0.16424969 18465:0.11021063 19165:0.37107822 20281:0.24245764 20460:0.19311436 22416:0.12157292 25896:0.17679065 26418:0.049273655 26421:0.049273655 26422:0.075189628 26425:0.075189628 #
-0.052838120248627884478764826781116 1726:0.12129735 1877:0.10175133 1898:0.095848657 1966:0.07715366 1987:0.057476953 2000:0.026288368 6493:0.12755489 6560:0.1295592 6640:0.12265943 6910:0.099427238 9380:0.10706699 9478:0.020917216 9482:0.031031916 12290:0.11886222 14250:0.14624989 14686:0.1318315 14750:0.1241401 14759:0.12129735 14840:0.11234487 14859:0.10824104 14869:0.10764389 14881:0.10444382 14930:0.088562123 14937:0.085427739 14944:0.080975346 14950:0.074034818 14952:0.13723013 14956:0.073553175 14958:0.066732742 14959:0.066469721 14960:0.12994334 14962:0.062158361 14963:0.060647335 14964:0.056145672 14966:0.05344139 14967:0.090175599 14968:0.033825058 14969:0.095479928 15235:0.15314966 15405:0.15314966 16202:0.14624989 16824:0.13755721 16921:0.14135443 17180:0.13445467 17321:0.13755721 17495:0.11483961 17571:0.1318315 17756:0.1241401 17774:0.12265943 17792:0.12129735 17809:0.12003627 17906:0.10824104 17935:0.096445806 17957:0.086242102 17958:0.084499314 17961:0.07956624 17962:0.078160875 18381:0.07979314 18389:0.076766893 18403:0.08333531 18467:0.039483458 20157:0.11158844 20423:0.07979314 22413:0.058296442 25744:0.11673233 25760:0.1131365 25799:0.1049371 25807:0.10396444 25809:0.099793211 25853:0.09170296 25871:0.084053427 25873:0.083907358 25876:0.082646273 25883:0.080492564 25886:0.078581065 25887:0.077649817 25888:0.07556738 25890:0.075656705 25901:0.070649654 25902:0.069930986 25907:0.060573351 25909:0.064269356 25910:0.062609985 25914:0.048144102 25915:0.050793964 25916:0.068756938 26050:0.12129735 26121:0.11776397 26140:0.1241401 26187:0.1131365 26237:0.10764389 26261:0.10706699 26262:0.10706699 26274:0.10596874 26298:0.10304438 26306:0.10175133 26320:0.099793211 26377:0.08954604 26393:0.085748821 26411:0.072112128 26412:0.097382754 26416:0.075390115 26418:0.019419806 26421:0.019419806 26422:0.029633846 26425:0.029633846 #
1.8030710407814984908014821485267 1897:0.12092708 1976:0.083530091 1997:0.055260215 2000:0.03326758 6558:0.14649232 6915:0.11951447 6990:0.091073669 9200:0.15709764 9313:0.145328 9316:0.14902873 9374:0.13697758 9440:0.11256364 9468:0.11279337 9471:0.084382415 9478:0.07941138 9481:0.056653492 9483:0.1161295 10209:0.17407683 10231:0.17888215 11275:0.17407683 11664:0.096550919 11698:0.17015059 11790:0.17407683 11869:0.16395545 12122:0.15915012 12682:0.166831 12824:0.145328 12954:0.12280706 12975:0.11282297 12978:0.051290777 18304:0.11985902 18342:0.11089714 18465:0.10993631 19954:0.13549185 20281:0.12092708 20308:0.11985902 22289:0.13697758 22365:0.1120742 22392:0.09585619 22400:0.087858617 22406:0.085269868 22411:0.08075925 22419:0.057635084 22420:0.094211526 23536:0.17888215 23996:0.15350018 24158:0.14649232 24201:0.15041855 24222:0.14649232 24255:0.13217226 24260:0.13156562 24407:0.090444215 24778:0.14217094 24858:0.11951447 24901:0.092390604 24911:0.086341463 24920:0.063606068 24922:0.10294309 24926:0.16141902 25028:0.15522388 25054:0.15041855 25376:0.13217226 25393:0.10790734 26418:0.024575505 26421:0.024575505 26423:0.035462555 26424:0.035462555 #
4.0684763643983981040719299926423 1976:0.18308321 1992:0.13809136 1997:0.12112062 1999:0.206605 2000:0.14583331 6973:0.23829518 6990:0.19961739 6993:0.20960298 6994:0.1972764 7000:0.23383166 9465:0.18407993 14721:0.19087861 14954:0.19504605 14967:0.083374046 14968:0.093821354 17966:0.20401615 18437:0.1812862 18440:0.24062078 18461:0.14423141 18465:0.12048049 18466:0.10817169 18467:0.10951619 20357:0.28459054 20411:0.28109261 20453:0.21855585 20459:0.18674397 20467:0.14071582 25896:0.19326469 26418:0.053865165 26421:0.053865165 26422:0.082196087 26425:0.082196087 #
-1.0393632669992893813315504303318 1622:0.27097461 1978:0.15111202 1989:0.06038494 1992:0.10998438 1997:0.096467853 1999:0.16455282 2000:0.058075272 5342:0.31227487 6973:0.18979281 6993:0.1669406 6994:0.15712295 7000:0.093118899 9478:0.046209525 9481:0.098900095 9482:0.068554536 14721:0.15202737 14954:0.15534657 14967:0.066404179 14968:0.074725047 17966:0.1624909 18437:0.14438738 18440:0.19164506 18456:0.12447755 18463:0.10407213 18464:0.096679814 18466:0.086154535 18467:0.08722537 20411:0.22387931 20438:0.17503518 20459:0.14873429 20464:0.14039415 20466:0.13136977 20467:0.11207466 22229:0.26258594 22406:0.14885575 22419:0.10061366 23791:0.2862173 24010:0.27097461 25896:0.15392779 26418:0.042901501 26421:0.042901501 26422:0.065465972 26425:0.065465972 #
-1.9899999999999999911182158029987 1897:0.17376325 1912:0.15743631 1976:0.12002655 1992:0.090530582 2000:0.047803044 6431:0.2230452 6986:0.14746983 6990:0.13086611 9384:0.085361302 9478:0.038036086 9480:0.089480355 9483:0.055623163 12477:0.10819633 14950:0.13462569 14953:0.13193324 14955:0.13099749 14966:0.097178385 14967:0.27329376 14968:0.061507843 17901:0.19574077 17924:0.17827211 17945:0.12716323 17949:0.20291358 17951:0.15935096 17956:0.15153781 17967:0.15365444 18304:0.17222853 18342:0.15935096 18455:0.11771359 18465:0.15797032 19954:0.19469173 20281:0.17376325 20308:0.17222853 20460:0.13840017 22416:0.087128222 25869:0.15205355 25891:0.13403906 25893:0.13086611 25915:0.092364281 25916:0.12502834 26018:0.22573766 26256:0.19269468 26385:0.1586995 26405:0.13725093 26416:0.13709018 26418:0.035313178 26421:0.035313178 26422:0.053886496 26425:0.053886496 #
-0.17027499078524574449566841849446 1946:0.25627765 1986:0.18979166 1992:0.15513153 6852:0.33920687 9384:0.14627355 9478:0.065177932 9480:0.15333188 9482:0.096695282 12474:0.20230263 14721:0.21443263 14954:0.2191143 14967:0.093662225 14968:0.1053987 17966:0.2291913 18154:0.36695191 18455:0.20171182 18465:0.13534752 19517:0.38681987 20460:0.23715995 22416:0.14930132 25896:0.21711314 26418:0.06051201 26421:0.06051201 26422:0.092338905 26425:0.092338905 #
-1.9899999999999999911182158029987 1579:0.18663897 1620:0.1794759 1727:0.081862859 1790:0.16022405 1824:0.16221705 1924:0.12668294 1972:0.1066023 1976:0.19316149 1987:0.084100567 1989:0.039995044 1998:0.068254337 2000:0.11539581 2103:0.22408935 5338:0.20683052 5614:0.20683052 6115:0.19673474 6362:0.18164241 6837:0.1542878 6890:0.14888306 6936:0.14601792 6990:0.21060584 9384:0.068686955 9478:0.030606175 9480:0.072001398 9482:0.045406055 12474:0.094997026 14946:0.10856754 14967:0.043981794 14968:0.049492996 17964:0.1103112 17965:0.10967435 18213:0.15282272 18241:0.14949788 18276:0.14769715 18389:0.11232571 18396:0.11451767 18455:0.094719596 18459:0.17758758 18463:0.068930589 18464:0.064034402 18465:0.12711264 18467:0.057772394 19830:0.16938013 19908:0.16938013 19947:0.15584451 19998:0.1542878 20190:0.15143907 20398:0.14888306 20423:0.11675372 20433:0.16675672 20455:0.11018252 20460:0.11136529 20466:0.087010771 22416:0.070108734 25914:0.070444688 26418:0.028415157 26421:0.028415157 26422:0.04336039 26425:0.04336039 #
-0.58111053557889935650138113487628 1979:0.19276972 1981:0.17921993 1989:0.079271294 1992:0.14438374 1994:0.14582433 1997:0.12663971 1999:0.10800967 2000:0.076239243 6882:0.30732134 6942:0.28242099 6973:0.24915354 6994:0.20626566 6995:0.19975044 7000:0.12224331 9465:0.19246787 12960:0.21787864 18437:0.18954684 18440:0.25158513 18456:0.16340989 18460:0.15204805 18466:0.11310074 18467:0.1145065 20411:0.29390115 20434:0.23664558 20459:0.19525331 20464:0.18430467 20467:0.14712779 26418:0.056319632 26421:0.056319632 26423:0.081269458 26424:0.081269458 #
3.0634339581512883832203897327418 1615:0.07499928 1912:0.053532649 1970:0.045189004 6545:0.077759802 9465:0.041034494 12514:0.0850529 12593:0.17480151 12671:0.076756977 12684:0.081512637 12805:0.074219532 12808:0.075841464 12856:0.071006395 12889:0.066926435 12900:0.065197684 12907:0.18874139 12921:0.063993894 12928:0.060015988 12929:0.057285484 12935:0.056700792 12951:0.050375033 12954:0.15000699 12956:0.18211065 12958:0.045332812 12961:0.044365145 12965:0.087867729 12966:0.042221773 12967:0.041628353 12968:0.084878944 12971:0.041294303 12973:0.037590906 12975:0.23887341 12976:0.14080603 12978:0.27566406 13126:0.0850529 13137:0.0850529 13157:0.0850529 13369:0.10220191 13417:0.083134569 13543:0.080107659 13886:0.068996169 13903:0.066926435 13906:0.065197684 13908:0.068118848 13910:0.069953345 13930:0.061934322 13945:0.057436876 13952:0.21167824 13957:0.16499378 13958:0.20541802 13959:0.10685591 18408:0.044632658 24486:0.094693854 24499:0.0850529 24607:0.083134569 24669:0.078868374 24686:0.076756977 24703:0.075841464 24746:0.071575277 24747:0.072814554 24751:0.069953345 24775:0.068548366 24792:0.06620051 24793:0.066557214 24805:0.064578585 24820:0.0631736 24831:0.062170774 24842:0.061934322 24862:0.056012854 24864:0.056282654 24865:0.056843948 24880:0.051269308 24882:0.055367146 24883:0.0506915 24884:0.11580917 24886:0.049058102 24890:0.057904586 24894:0.047174204 24895:0.046187069 24896:0.18310566 24905:0.043807857 24911:0.042185925 24912:0.08437185 24913:0.039212834 24914:0.078425668 24918:0.051702362 24919:0.13407683 24920:0.031077549 24921:0.17539877 24994:0.077759802 25050:0.078868374 25073:0.094693854 25112:0.078868374 25176:0.077759802 25178:0.068996169 25182:0.071006395 25194:0.070466705 25207:0.069463879 25231:0.074219532 25236:0.068548366 25243:0.068548366 25246:0.065855511 25252:0.067309089 25264:0.067309089 25265:0.067309089 25266:0.073493615 25296:0.068548366 25306:0.065197684 25348:0.061703067 25368:0.069953345 25388:0.056559559 25391:0.07217668 25400:0.052625909 25405:0.049196545 25410:0.049843136 25411:0.18624012 25412:0.0631736 25418:0.14347939 26418:0.012007446 26421:0.012007446 26423:0.017326793 26424:0.017326793 #
4.1308295443501217292237015499268 1708:0.19942953 9384:0.084443696 9478:0.037627209 9480:0.088518471 9482:0.055822168 12474:0.11678927 12899:0.1870178 12904:0.18788014 12935:0.16496108 12954:0.08728385 12956:0.13245481 12965:0.12781793 12975:0.21383403 12976:0.10241266 12977:0.072745629 12978:0.21872634 13435:0.24186555 13731:0.22331105 13912:0.19159512 13952:0.15396024 13958:0.14940698 22416:0.086191624 24860:0.18876748 24870:0.15796539 24895:0.13437323 24896:0.1331785 24907:0.12411699 24911:0.1227326 24913:0.11408292 24914:0.11408292 24916:0.16622792 24919:0.097518295 24921:0.12757304 25198:0.21819735 25264:0.19582407 25316:0.18788014 25340:0.17758036 25373:0.20073234 25400:0.15310593 25411:0.13545831 25417:0.17758036 26418:0.034933574 26421:0.034933574 26423:0.050409287 26424:0.050409287 #
2.6036472283603377952942992124008 321:0.14043286 364:0.14430946 1669:0.11817963 1860:0.10114002 1936:0.090413526 1948:0.080223814 1978:0.069832362 1989:0.083715841 1992:0.05082633 1998:0.047622304 1999:0.038021836 3474:0.14430946 5124:0.13726544 5261:0.14430946 5723:0.13458744 6035:0.13022144 6807:0.10989419 9452:0.078568019 9478:0.021354493 9482:0.03168064 12438:0.093156725 12494:0.13726544 12905:0.10474727 12915:0.098154522 12943:0.08689189 12950:0.084792636 12954:0.29721612 12961:0.073252343 12966:0.069713369 12967:0.068733558 12971:0.136364 12972:0.065014593 12975:0.091017589 12978:0.12413331 13112:0.13458744 13120:0.13726544 13133:0.14043286 13389:0.13226765 13858:0.11724034 13910:0.11550163 13930:0.10226122 13932:0.10345981 13945:0.094835386 13949:0.10430743 18384:0.081695989 18429:0.070814826 18430:0.075749569 18450:0.059614316 18457:0.059847955 18459:0.061953064 18462:0.099936493 18464:0.044677984 18466:0.039814007 18467:0.040308863 20185:0.10662723 20245:0.10226122 20284:0.10265164 20410:0.094096012 20447:0.084373996 20450:0.075499602 20452:0.072750829 20454:0.071392894 20455:0.076876372 20467:0.051792298 22417:0.04737471 24564:0.13726544 24648:0.12839106 24651:0.13226765 24777:0.1139212 24842:0.10226122 24856:0.095607631 24880:0.084651969 24883:0.083697937 24887:0.092705458 24890:0.095607631 24895:0.076260567 24897:0.077985644 24900:0.076966152 24901:0.0745342 24903:0.072892644 24911:0.069654182 24912:0.13930836 24921:0.072401263 25113:0.12134705 25150:0.11917263 25194:0.11634924 25296:0.11318183 25336:0.10345981 25349:0.1018794 25357:0.099749468 25368:0.11550163 25388:0.093386829 25395:0.11113562 25396:0.088045001 25404:0.083565824 26418:0.019825779 26421:0.019825779 26423:0.028608678 26424:0.028608678 #
3.3281387806427593645253182330634 1897:0.08825846 1976:0.06096432 1997:0.040331591 2000:0.024280297 6558:0.10691721 6915:0.087227464 6990:0.06646999 9384:0.043357022 9478:0.019319426 9480:0.045449186 9482:0.028661501 12474:0.059964634 12711:0.11781145 12786:0.11203189 12853:0.10449442 12859:0.10781557 12915:0.088800482 12927:0.087478943 12929:0.085571505 12942:0.080444351 12950:0.2301359 12951:0.07524886 12954:0.22407639 12966:0.063069746 12968:0.12678987 12970:0.058818754 12971:0.06168431 12972:0.058818754 12973:0.11230455 12974:0.053783856 12975:0.19213526 12978:0.1871725 13120:0.12418417 13217:0.13055688 13369:0.076333225 13537:0.11615549 13552:0.12176137 13698:0.11781145 13885:0.21563114 13893:0.064296521 13921:0.095173195 13922:0.095173195 13944:0.085797653 13954:0.089944042 13956:0.081447907 13976:0.067290194 18304:0.087478943 18342:0.080938123 18465:0.08023686 19954:0.098888531 20281:0.08825846 20308:0.087478943 22416:0.044254486 24558:0.12176137 24610:0.12418417 24648:0.11615549 24717:0.11328993 24746:0.10691721 24762:0.10691721 24765:0.10449442 24801:0.09436702 24821:0.095592342 24827:0.20108898 24852:0.08825846 24872:0.08197479 24875:0.08162158 24883:0.075721592 24892:0.073384725 24895:0.068992995 24899:0.068992995 24901:0.067431152 24907:0.127454 24908:0.13138093 24910:0.07804472 24912:0.063016199 24914:0.058575071 24915:0.056152277 24919:0.050070085 24920:0.046422802 24952:0.12418417 24971:0.11465749 24973:0.11465749 25130:0.10876841 25134:0.10978277 25148:0.11465749 25186:0.10691721 25204:0.10876841 25212:0.10606743 25246:0.098373175 25291:0.10376326 25328:0.093230352 25338:0.092869021 25372:0.087227464 25383:0.093600184 25408:0.07524886 26418:0.017936397 26421:0.017936397 26423:0.025882294 26424:0.025882294 #
2.1465905333924082398766586265992 1986:0.040406514 1988:0.037003871 1989:0.018133096 6965:0.060097013 7113:0.09125451 7407:0.082353689 7415:0.076183803 7475:0.061789673 7476:0.062832467 7478:0.042424835 7481:0.0578968 7485:0.052488547 7487:0.05316383 7631:0.10159843 7891:0.093773551 8426:0.082353689 12513:0.09125451 12521:0.18250902 12717:0.085948683 12760:0.082353689 12803:0.079631232 12827:0.07743942 12837:0.076794162 12871:0.074528813 12886:0.071027502 12887:0.068969287 12908:0.068065695 12911:0.0672291 12928:0.06439203 12935:0.12167022 12937:0.060097013 12938:0.059404224 12943:0.056463111 12945:0.057212416 12950:0.110198 12954:0.19313365 12956:0.048847299 12958:0.04863824 12961:0.14280005 12965:0.04713729 12967:0.044663671 12971:0.044305261 12972:0.042247053 12973:0.080663666 12974:0.077261396 12975:0.21686143 12976:0.037768215 12977:0.053654943 12978:0.16132583 13032:0.09702117 13110:0.087456107 13114:0.089196295 13164:0.09125451 13369:0.10965393 13388:0.084619038 13391:0.085948683 13395:0.087456107 13405:0.17839259 13538:0.085948683 13558:0.087456107 13624:0.09702117 13801:0.080467828 13885:0.07743942 13913:0.079631232 13947:0.072642952 13952:0.056778174 13957:0.059008081 13958:0.055098999 13959:0.057323635 13967:0.053398211 18460:0.034780584 18465:0.028815392 20456:0.049006674 20830:0.075053975 20882:0.066450246 20885:0.0672291 20896:0.062126681 20916:0.056672171 20918:0.058255207 20923:0.053010236 21119:0.09125451 21690:0.082353689 21762:0.081371419 21822:0.078123808 21839:0.078123808 21857:0.07743942 24562:0.089196295 24565:0.089196295 24572:0.09125451 24604:0.087456107 24609:0.089196295 24633:0.084619038 24700:0.080467828 24755:0.076183803 24761:0.081371419 24764:0.074528813 24767:0.075604759 24785:0.075053975 24789:0.070298932 24795:0.072216906 24805:0.069287308 24817:0.068659984 24820:0.067779884 24826:0.066450246 24827:0.14443381 24831:0.066703938 24835:0.065260835 24847:0.065959342 24856:0.12425336 24861:0.060835112 24865:0.060988706 24866:0.060683582 24875:0.05862537 24876:0.13857462 24885:0.052783698 24891:0.069614545 24893:0.051579349 24895:0.049554788 24896:0.098228373 24900:0.050013281 24903:0.04736628 24904:0.047838688 24905:0.047002092 24912:0.045261897 24914:0.084144056 24915:0.040331833 24919:0.14385299 24920:0.033343557 24921:0.047046978 24960:0.09125451 24961:0.081371419 25029:0.081371419 25050:0.084619038 25090:0.080467828 25171:0.093773551 25178:0.074027002 25192:0.074027002 25216:0.07308571 25222:0.074528813 25279:0.083429635 25283:0.089196295 25318:0.068659984 25327:0.068659984 25362:0.070657343 25374:0.062126681 25386:0.060097013 25396:0.057212416 25405:0.052783698 25410:0.053477433 25411:0.099909879 25418:0.051313717 26419:0.034160648 26420:0.034160648 26423:0.018590171 26424:0.018590171 #
-1.0694262401846339471944702381734 1220:0.17761657 1897:0.12338606 2000:0.033944055 6896:0.13682891 9067:0.17361049 9145:0.1702234 9478:0.027008718 9483:0.039496973 12542:0.1825196 12812:0.16029212 12882:0.14139128 12948:0.10671448 12954:0.12530427 12956:0.095075734 12968:0.17725329 12973:0.078501351 12974:0.075190276 12975:0.19186193 12976:0.14702311 12978:0.15700123 13328:0.1825196 13369:0.10671448 13706:0.16728938 13745:0.16470137 13866:0.1471561 13893:0.089887068 13944:0.11994582 13952:0.11051229 13957:0.11485255 13958:0.10724396 13976:0.094072245 18312:0.1241438 18465:0.056085899 20235:0.13424091 22333:0.12702283 22418:0.058242876 24249:0.13615277 24833:0.12933788 24883:0.10585941 24895:0.09645278 24896:0.19119041 24899:0.09645278 24904:0.093112595 24919:0.20999518 24921:0.091571614 25078:0.14947115 25178:0.14408517 25223:0.1450619 25296:0.14315003 25315:0.13424091 25325:0.13424091 25328:0.13033681 25362:0.13752651 25386:0.11697203 25411:0.19446327 25418:0.099876337 26418:0.025075233 26421:0.025075233 26423:0.036183663 26424:0.036183663 #
-1.6767111118221138532646818930516 1981:0.092164464 1989:0.040765535 1997:0.065124907 2000:0.039206292 6971:0.133248 6975:0.13179739 9384:0.070010185 9478:0.031195793 9480:0.07338848 9483:0.045620065 12477:0.088738635 12913:0.14995904 12914:0.14995904 12956:0.10981502 12967:0.10040969 12970:0.094976813 12973:0.090671159 12974:0.086846784 12975:0.17728452 12976:0.084907815 12977:0.060311608 12978:0.18134062 13290:0.21081503 13762:0.20515189 13906:0.15726011 13918:0.15302046 13926:0.15237792 13952:0.12764464 13954:0.14523597 13958:0.12386965 13967:0.12004606 13973:0.13265777 18346:0.12862088 18460:0.078191236 20273:0.14775079 22416:0.071459353 24778:0.16755037 24818:0.16996925 24862:0.13510582 24864:0.1357566 24885:0.11866455 24893:0.11595702 24896:0.22083004 24908:0.10607283 24910:0.1260217 24919:0.16170004 24921:0.10576767 25026:0.18293343 25229:0.17727029 25305:0.15650247 25314:0.18756056 25406:0.16053936 25408:0.12150712 25411:0.22461028 25418:0.11535984 26418:0.028962566 26421:0.028962566 26423:0.041793097 26424:0.041793097 #
-0.0040021188877940733208404822107696 805:0.18560149 1695:0.15393494 1981:0.078425489 1989:0.034688611 1995:0.062690012 2000:0.033361804 6161:0.1706325 6284:0.16730352 6997:0.086439595 9293:0.15393494 9443:0.11075657 9464:0.090260528 9468:0.056556415 9474:0.076731794 9478:0.053090859 9479:0.067273386 9481:0.056813948 9483:0.077638946 10651:0.18560149 12299:0.14945082 12433:0.12278569 12455:0.11075657 12480:0.069685988 12481:0.083895989 14065:0.18560149 14819:0.14690723 14864:0.13660772 14938:0.10742758 14942:0.10215077 14966:0.13564183 14967:0.11443923 14968:0.042926397 15115:0.19435778 17679:0.1618762 17754:0.15754259 17828:0.15084457 17893:0.13896596 17949:0.14161363 18360:0.10666976 18402:0.097301647 18414:0.093955435 18447:0.081504241 18843:0.17456986 19798:0.15084457 20344:0.12054966 22344:0.1201985 22368:0.11121123 22405:0.087485954 22407:0.084421135 22417:0.058890749 22419:0.057798322 22424:0.071690604 24025:0.15084457 24173:0.14257361 24347:0.11551934 24358:0.11338469 24419:0.080874912 24422:0.083068952 25561:0.17456986 25731:0.14945082 25790:0.13448185 25801:0.13134654 25837:0.12126958 25915:0.12892228 25916:0.08725743 26109:0.14945082 26342:0.12318195 26416:0.095675401 26418:0.024645109 26421:0.024645109 26422:0.03760745 26425:0.03760745 #
-1.5844218083670327246181841474026 109:0.1267511 1406:0.11127857 1613:0.095806047 1768:0.093635038 1989:0.022622295 1990:0.087862916 1996:0.039198305 1998:0.077213049 5821:0.11384633 6034:0.10556812 6209:0.1003892 6297:0.10910755 6989:0.064265236 9458:0.062468201 9467:0.056135964 9469:0.055812184 9478:0.034623384 9481:0.037051409 9482:0.025682909 9483:0.025316251 12412:0.086440727 12428:0.080596782 12448:0.074798033 12457:0.070571452 12469:0.063613847 12699:0.11127857 12758:0.22769266 12845:0.097464867 12854:0.094322182 12891:0.087702796 12898:0.089089192 12937:0.074975193 12941:0.073455714 12946:0.071655348 12952:0.065758362 12954:0.12047382 12955:0.063935779 12956:0.060940392 12961:0.05938432 12967:0.05572103 12968:0.11361349 12973:0.050316762 12975:0.17216799 12976:0.04711847 12977:0.033469129 12978:0.20126516 13141:0.11384633 13450:0.11384633 13603:0.11127857 13756:0.099345483 13830:0.10408425 13831:0.097464867 13867:0.094322182 13889:0.11127857 13911:0.088149935 13944:0.076881297 13952:0.070834711 13957:0.073616676 13958:0.068739824 18089:0.10556812 18339:0.074975193 18360:0.06956505 18382:0.069324292 18410:0.060874734 18434:0.060809381 18464:0.072439231 18801:0.11384633 19876:0.096611053 20210:0.084916681 20266:0.083217792 20360:0.081138529 22370:0.073296577 22391:0.062322255 22396:0.059325516 22407:0.055055533 22408:0.054173704 24241:0.090627126 24332:0.079086371 24367:0.073139213 24392:0.065574259 24667:0.10408425 24815:0.085282512 24821:0.085658096 24822:0.099345483 24832:0.082591742 24845:0.083872966 24849:0.087269418 24861:0.075896025 24865:0.076087639 24870:0.072677411 24886:0.13133202 24887:0.075154603 24893:0.064348817 24895:0.061823033 24896:0.12254671 24898:0.06291534 24899:0.061823033 24907:0.057104297 24910:0.069934078 24911:0.056467358 24914:0.10497554 24919:0.044866648 24920:0.041598402 24921:0.11738874 24922:0.067324832 24945:0.10910755 24962:0.10151649 25012:0.10722694 25060:0.11127857 25082:0.10722694 25154:0.10408425 25181:0.093635038 25186:0.095806047 25229:0.098373808 25239:0.10151649 25264:0.090095602 25296:0.091754422 25301:0.088149935 25312:0.085282512 25316:0.086440727 25340:0.081701949 25355:0.11698902 25373:0.092353821 25400:0.070441648 25405:0.065851323 25411:0.062322255 25418:0.064017422 26418:0.016072392 26421:0.016072392 26423:0.023192527 26424:0.023192527 #
-0.049529311542511500476848596008494 1981:0.037821565 1989:0.033457935 1997:0.026725331 2000:0.0160891 6971:0.054681029 6975:0.054085739 7442:0.070847638 7457:0.067851499 7476:0.057967059 7478:0.039139684 7493:0.1293124 7494:0.041828152 7495:0.042044383 7496:0.079586968 7801:0.093731195 8247:0.086512238 8291:0.086512238 8477:0.069750331 8484:0.067851499 8492:0.06453488 12599:0.17901675 12680:0.16136795 12805:0.073465019 12827:0.071442932 12834:0.074236833 12841:0.072746471 12859:0.071442932 12861:0.072074324 12884:0.065527514 12897:0.13485269 12898:0.065880589 12900:0.12906976 12908:0.062795058 12913:0.061538745 12914:0.061538745 12937:0.055443425 12944:0.05319884 12949:0.05091745 12952:0.048627667 12954:0.089089215 12955:0.094559766 12956:0.045064826 12959:0.090129651 12965:0.043487232 12966:0.083585091 12970:0.038975667 12973:0.074417509 12974:0.071278691 12975:0.18188077 12976:0.03484365 12977:0.074250288 12978:0.17363924 13088:0.18746239 13110:0.080683976 13145:0.084188253 13146:0.084188253 13193:0.086512238 13320:0.086512238 13326:0.086512238 13375:0.17901675 13653:0.080683976 13720:0.080683976 13747:0.078066595 13779:0.079293281 13831:0.072074324 13834:0.072746471 13877:0.14288586 13897:0.067851499 13925:0.12725736 13926:0.062531374 13935:0.093731195 13952:0.052381579 13956:0.053970657 13958:0.050832432 13973:0.054438815 18346:0.052782193 18460:0.032087367 20273:0.060632542 20832:0.072746471 20868:0.066246063 20887:0.065186016 20892:0.059798919 20909:0.056124371 20919:0.050664447 20922:0.049709756 21139:0.086512238 21512:0.086512238 21779:0.078066595 21828:0.079293281 21908:0.064223975 24459:0.093731195 24480:0.093731195 24617:0.084188253 24652:0.079293281 24707:0.075070456 24727:0.072746471 24728:0.073465019 24737:0.072074324 24741:0.073465019 24777:0.068294749 24778:0.068757705 24783:0.073465019 24826:0.061304696 24827:0.13324964 24834:0.061538745 24843:0.12126508 24846:0.12404648 24847:0.060851809 24849:0.06453488 24857:0.058483601 24858:0.05780042 24864:0.055710483 24865:0.11253214 24871:0.054438815 24873:0.052782193 24875:0.10817148 24876:0.063922077 24895:0.04571753 24896:0.090622097 24897:0.046751697 24902:0.089178368 24904:0.044134319 24905:0.043362502 24907:0.1266842 24908:0.043529142 24915:0.037208755 24919:0.099535346 24921:0.086807825 24926:0.078066595 24937:0.079293281 25029:0.075070456 25057:0.074236833 25079:0.078066595 25087:0.073465019 25090:0.074236833 25101:0.075070456 25182:0.070284545 25196:0.069750331 25197:0.074236833 25303:0.075976662 25307:0.12971072 25309:0.064223975 25318:0.063343324 25345:0.060417797 25380:0.055984572 25408:0.049862918 25411:0.092173405 25418:0.094680518 26419:0.031515431 26420:0.031515431 26423:0.017150648 26424:0.017150648 #
3.1464765196156876392308276990661 1924:0.137657 1955:0.12760392 1987:0.091385871 1994:0.079946674 6239:0.20599355 6362:0.1973774 9228:0.19995613 9453:0.12511013 9454:0.12251595 9474:0.096133515 9478:0.033257473 9584:0.24350135 11675:0.20599355 14931:0.13991299 14950:0.11771217 14953:0.11535797 14955:0.11453979 14966:0.084969506 14967:0.19116707 14968:0.053780384 14969:0.075904481 17901:0.17114913 17924:0.15587513 17943:0.14769657 17945:0.11118725 17951:0.13933112 17954:0.14437942 17956:0.13249955 17967:0.13435026 18241:0.16244832 18389:0.12205605 18467:0.062776998 19947:0.16934472 20423:0.12686765 22075:0.20960639 22258:0.17308255 22285:0.16848573 25869:0.1329505 25891:0.11719924 25893:0.11442491 25911:0.094329096 25915:0.080760211 25916:0.10932057 26018:0.1973774 26256:0.16848573 26385:0.13876149 26396:0.15534975 26405:0.12000758 26416:0.11986703 26418:0.030876653 26421:0.030876653 26422:0.047116537 26425:0.047116537 #
1.6064497843371745577911724467413 1727:0.24662107 1976:0.29096037 2000:0.11588097 6990:0.3172369 9384:0.2069272 9478:0.092204548 9480:0.21691231 9482:0.13679084 12474:0.28618923 14946:0.32707193 14967:0.13250011 14968:0.14910322 17964:0.33232489 17965:0.33040634 18465:0.19147058 22416:0.21121044 25914:0.21222256 26418:0.085603856 26421:0.085603856 26422:0.13062806 26425:0.13062806 #
3.0113762537507242633694204414496 938:0.13678814 943:0.12883484 1181:0.13370293 1338:0.13109443 1541:0.12197366 1554:0.12344604 1699:0.10888991 1924:0.08609502 1971:0.14312989 1976:0.065637261 1980:0.065336868 1984:0.12314162 1989:0.19026728 1994:0.050001167 1996:0.094194755 1997:0.043423023 1999:0.074070081 2000:0.078424178 2483:0.15229341 2685:0.15229341 2912:0.15229341 3502:0.14056413 3563:0.14056413 5514:0.14056413 5722:0.13109443 5750:0.13370293 5873:0.077621013 6031:0.12505886 6253:0.13109443 6693:0.11819766 6760:0.11419755 6761:0.11419755 6771:0.10955359 6890:0.10118245 6979:0.090738982 6990:0.071564943 6993:0.075144887 9403:0.099607192 9478:0.02080027 9482:0.030858418 12353:0.11250396 14924:0.087505989 14967:0.029890478 14968:0.033635944 17928:0.095906585 18151:0.12197366 18271:0.099235274 18278:0.10077468 18310:0.092621118 18331:0.089871012 18370:0.084950119 18377:0.08904539 18389:0.076337695 18406:0.076148629 18410:0.073141947 18424:0.074197359 18444:0.064093463 18453:0.058131825 18456:0.11206203 18458:0.055220403 18459:0.1810355 18460:0.052135196 18462:0.048671398 18463:0.1405378 18464:0.043518435 18465:0.043193527 18466:0.038780693 18467:0.039262708 18780:0.13370293 19668:0.12061919 19805:0.11819766 19868:0.11511246 19952:0.11819766 19988:0.11332957 20103:0.1043504 20145:0.10385988 20149:0.10825127 20151:0.10485557 20181:0.10646839 20197:0.10888991 20315:0.096838295 20317:0.097489208 20359:0.091653898 20398:0.10118245 20410:0.091653898 20419:0.090517782 20423:0.079347022 20438:0.15757699 20451:0.081016719 20455:0.074881166 20462:0.065586828 20464:0.063195549 20466:0.059133407 22417:0.046145171 25911:0.058996387 26418:0.019311231 26421:0.019311231 26422:0.029468164 26425:0.029468164 #
2.311477849145098240057905059075 1727:0.13821144 1949:0.20317782 1969:0.17760824 1976:0.16306008 1992:0.12298883 1997:0.10787412 1999:0.092004701 6439:0.30667219 6964:0.22711234 6973:0.21223374 6994:0.17570102 9465:0.16394781 14946:0.18329772 14967:0.074255742 14968:0.083560467 17964:0.1862416 17965:0.18516639 18397:0.23009501 18437:0.16145961 18440:0.214305 18441:0.15899642 18465:0.10730398 18466:0.096341364 19610:0.33981743 20411:0.25035059 20425:0.21516295 20458:0.17371459 20459:0.16632049 25914:0.11893382 26418:0.047974136 26421:0.047974136 26422:0.073206611 26425:0.073206611 #
-0.7453975957165209775823200288869 1727:0.19983824 1893:0.35778528 1997:0.15597387 1999:0.13302846 2000:0.0938989 6867:0.38883451 6994:0.25404397 7000:0.15055911 9465:0.23705012 14946:0.26502794 14967:0.10736547 14968:0.12081905 17964:0.26928446 17965:0.26772982 18437:0.23345247 18466:0.1392988 18467:0.14103018 20459:0.24048075 20467:0.1812077 25914:0.17196494 26418:0.069365211 26421:0.069365211 26422:0.10584854 26425:0.10584854 #
-1.0117374416977751305779520407668 1727:0.11418118 1836:0.2221676 1976:0.26941898 1981:0.12612006 1989:0.055784535 2000:0.10730165 6370:0.25666237 6838:0.22773616 6990:0.29375011 9384:0.095803611 9466:0.13889082 9478:0.04268907 9482:0.063331731 12462:0.16627325 14946:0.15142849 14967:0.061345197 14968:0.069032148 17964:0.15386052 17965:0.15297227 18304:0.19329737 18342:0.1788445 18376:0.16601694 18396:0.15972766 18465:0.26594242 18466:0.079590879 19954:0.21850853 20084:0.22090459 20281:0.19501983 20308:0.19329737 20414:0.17214511 20425:0.17775343 20451:0.16627325 22416:0.097786687 25914:0.098255277 26418:0.039633065 26421:0.039633065 26422:0.060478471 26425:0.060478471 #
-1.9899999999999999911182158029987 940:0.22305259 1727:0.090720534 1744:0.1877073 1844:0.17098197 1894:0.14239269 1919:0.14869873 1982:0.10206878 1992:0.080728568 6430:0.19095734 9452:0.12479131 9470:0.10719615 9472:0.10399219 9478:0.033917807 9482:0.050319053 12291:0.17976917 12438:0.14796287 12446:0.142691 14946:0.1203147 14967:0.24370344 14968:0.054848209 17912:0.1966868 17945:0.1133949 17964:0.12224703 17965:0.12154128 17967:0.13701783 18041:0.21376818 18239:0.17551564 18318:0.14984068 18338:0.14299257 18431:0.14520122 18432:0.11120222 18677:0.23714799 19746:0.21802172 20250:0.16007395 22353:0.14391758 22361:0.14066754 22398:0.11277941 24157:0.16858102 24265:0.15739287 25895:0.11669685 25900:0.15062912 26338:0.17098197 26402:0.16708913 26418:0.031489719 26421:0.031489719 26422:0.04805205 26425:0.04805205 #
-0.30325314981533563196691716257192 390:0.28666103 397:0.28666103 1727:0.10966165 1924:0.16970165 1926:0.18256521 1956:0.15529977 1984:0.12136204 1989:0.10715294 1994:0.098557152 2000:0.051527221 4062:0.28666103 5873:0.15299855 6549:0.24650314 6761:0.22509445 6890:0.19944042 6943:0.19151302 9465:0.13008176 14946:0.14543465 14967:0.058917031 14968:0.066299714 17964:0.14777042 17965:0.14691731 18389:0.15046901 18443:0.12624368 18459:0.11894618 18461:0.10192244 18463:0.092337884 18464:0.085779056 18467:0.077390611 19971:0.23775212 20317:0.1921607 20333:0.18787073 20423:0.15640068 20453:0.15444449 20455:0.14759804 20466:0.11655769 25914:0.094366133 26418:0.038064308 26421:0.038064308 26422:0.058084611 26425:0.058084611 #
-0.10520957233162907262791208040653 1227:0.23610756 1307:0.22237951 1967:0.1322616 1995:0.084788896 1999:0.063925512 2000:0.045122188 6958:0.16256972 6999:0.11087032 7000:0.072349697 7452:0.19561614 7483:0.14890063 7491:0.12693629 7493:0.090664767 7494:0.11730785 8222:0.23610756 8478:0.19561614 12942:0.14949673 12966:0.11720799 12975:0.051008809 12978:0.069567792 13891:0.18909848 18433:0.11874294 18450:0.10022861 18466:0.066938661 18467:0.06777066 20326:0.16352746 20454:0.12003175 20467:0.087077573 20817:0.19869354 20818:0.21307799 20873:0.17844784 20886:0.17464921 20925:0.12531318 21584:0.23078224 21654:0.22627975 21687:0.23610756 24719:0.20603403 24888:0.13795644 24905:0.12161097 24985:0.21586184 26419:0.088385627 26420:0.088385627 26423:0.04809932 26424:0.04809932 #
4.5665934970995243347147152235266 1774:0.10961225 1810:0.10775214 1865:0.10406899 1947:0.083278917 1973:0.071194842 1989:0.027361352 1993:0.10206654 1998:0.046694055 5121:0.13458988 6044:0.1296895 6053:0.13196407 6241:0.1296895 6784:0.10961225 9458:0.075554423 9467:0.067895666 9469:0.067504063 9478:0.020938253 9481:0.044813167 9482:0.031063125 12428:0.097480692 12448:0.090467185 12467:0.07813593 12469:0.076940067 12685:0.13196407 12742:0.12768318 12816:0.12015698 12837:0.11587609 12880:0.10834989 12956:0.07370656 12968:0.13741393 12971:0.20055901 12975:0.20823479 12976:0.056989137 12978:0.24342743 13692:0.12768318 13797:0.12015698 13922:0.20629603 13928:0.10314801 13952:0.0856736 13957:0.08903835 13958:0.083139867 13959:0.086496659 18210:0.11325028 18301:0.095945053 18311:0.094004124 18417:0.071541786 18452:0.056840625 18456:0.056402709 18464:0.043807123 19827:0.1149551 20035:0.10834989 20408:0.085998066 20409:0.085513651 22391:0.075377904 22396:0.07175339 22408:0.065522343 22419:0.045589611 24367:0.08846087 24392:0.079311155 24413:0.068529837 24735:0.11684972 24803:0.10717466 24846:0.10144319 24881:0.083139867 24889:0.077727906 24896:0.074109279 24899:0.074774101 24910:0.16916859 24914:0.12696646 24919:0.054265589 24920:0.15093806 24921:0.070990026 24922:0.081428446 24976:0.12426495 25298:0.10504263 25308:0.12768318 25341:0.097805157 25365:0.10717466 25382:0.24031396 25383:0.10144319 25405:0.15929252 25411:0.075377904 25412:0.10227428 25418:0.077428184 25420:0.10185366 26418:0.019439336 26421:0.019439336 26423:0.028051041 26424:0.028051041 #
0.98879665278313155774014830967644 951:0.10269316 1775:0.083306201 1821:0.07834065 1944:0.059067924 1986:0.045471422 1987:0.042909343 1993:0.076121084 6033:0.095225938 6214:0.091571242 6216:0.093887441 6976:0.061499398 7333:0.10037695 7451:0.084461905 7471:0.072001487 7481:0.065154098 7490:0.053097017 7493:0.039433941 7792:0.11433367 8324:0.10037695 12496:0.10037695 12804:0.089612916 12824:0.085733362 12853:0.16892381 12857:0.085733362 12862:0.079514161 12884:0.079930715 12920:0.069914192 12921:0.15453288 12938:0.066850476 12940:0.065694772 12950:0.062005598 12952:0.11863244 12954:0.10867137 12956:0.10994051 12957:0.056481414 12959:0.054970253 12966:0.050978713 12968:0.20496625 12970:0.047542673 12972:0.047542673 12975:0.15530121 12976:0.085004836 12977:0.030190263 12978:0.18154784 13152:0.10269316 13217:0.10552796 13433:0.10037695 13564:0.098418631 13727:0.092676625 13732:0.092676625 13756:0.089612916 13857:0.085733362 13858:0.085733362 13913:0.089612916 13952:0.12779051 13957:0.13280936 13958:0.1240112 13963:0.061400533 18338:0.065833613 18352:0.0646355 18378:0.058120608 18390:0.057097897 18401:0.056548454 18452:0.042391662 19816:0.084461905 19942:0.083306201 20228:0.070708446 20416:0.060360968 20714:0.10037695 20785:0.091571242 20798:0.092676625 20883:0.077972397 20893:0.072463498 21773:0.093887441 24690:0.093887441 24764:0.083870918 24771:0.085733362 24776:0.083306201 24777:0.083306201 24781:0.081269212 24787:0.082765527 24791:0.083870918 24801:0.076276019 24812:0.07726644 24818:0.085081734 24826:0.14955941 24838:0.073697865 24871:0.066404678 24875:0.13194799 24876:0.077972397 24883:0.061205085 24888:0.060003087 24894:0.056958292 24895:0.11153284 24896:0.11054119 24898:0.056751721 24899:0.11153284 24902:0.054390062 24919:0.1214136 24921:0.15883279 24969:0.092676625 24982:0.093887441 24983:0.093887441 25078:0.086420223 25090:0.090554379 25115:0.08873643 25149:0.087146364 25196:0.085081734 25263:0.080807202 25296:0.082765527 25312:0.076927647 25324:0.084461905 25328:0.075357258 25411:0.11243347 25414:0.055829786 25418:0.1732375 26419:0.038442645 26420:0.038442645 26423:0.020920428 26424:0.020920428 #
0.067979483622243680462915449425054 1768:0.2499844 1860:0.21890105 1954:0.17605799 1994:0.11110286 1997:0.096486188 6921:0.21890105 9452:0.17004764 9478:0.04621831 9482:0.068567574 12438:0.2016225 12956:0.16269709 12975:0.13132846 12976:0.12579568 12978:0.17911084 13952:0.18911268 13957:0.19653989 13958:0.18351981 18421:0.15480204 18427:0.15523176 18434:0.16234732 18467:0.087241955 19793:0.26020917 20248:0.22217271 20386:0.21114275 22417:0.10253482 24896:0.16358602 24901:0.16131711 24919:0.11978382 24920:0.11105834 24921:0.15670072 25393:0.18840985 25411:0.16638635 25412:0.22575639 25418:0.17091206 26418:0.042909659 26421:0.042909659 26423:0.06191881 26424:0.06191881 #
1.9554615007802409465398341126274 1336:0.16986233 1586:0.15583774 1906:0.12853467 1942:0.11138558 1944:0.10373431 1977:0.09046112 1993:0.13368285 1997:0.057251096 3027:0.20079128 3497:0.18532681 5118:0.17628068 5119:0.17628068 6976:0.10800443 9384:0.06154573 9478:0.027424121 9480:0.064515576 9483:0.040104449 12477:0.078009851 12784:0.15903039 12916:0.12605317 12920:0.12278237 12927:0.12417723 12956:0.09653803 12967:0.08826983 12968:0.1799795 12975:0.15585025 12976:0.074642189 12978:0.1062773 13820:0.14535172 13893:0.09126956 13920:0.12897648 13952:0.11221199 13957:0.11661901 13958:0.10889341 13976:0.095519103 18285:0.13035695 18373:0.11373623 18378:0.10207064 18401:0.099309638 18408:0.09464024 18416:0.094929367 18424:0.097825527 18452:0.074447669 19492:0.15439786 19493:0.15583774 19648:0.15583774 20061:0.16275747 20092:0.14444096 20329:0.12605317 20416:0.10600513 22416:0.062819682 24801:0.13395493 24851:0.1208411 24859:0.11963484 24880:0.10871276 24896:0.097065486 24898:0.099666618 24899:0.09793625 24919:0.071074992 24921:0.092980012 25215:0.14356592 25223:0.14729299 25312:0.13509931 25324:0.14833087 25339:0.12382026 25411:0.098727092 25418:0.10141247 26418:0.025460897 26421:0.025460897 26423:0.036740176 26424:0.036740176 #
2.3806286629453454750660057470668 1997:0.076837793 7458:0.19046353 7493:0.092946261 7496:0.11440994 12616:0.23658966 12880:0.19046353 12920:0.16478857 12956:0.12956554 12966:0.12015742 12967:0.11846863 12968:0.24155393 12975:0.1045848 12976:0.1001787 12978:0.14263681 13633:0.22444867 13722:0.2112187 13920:0.1731018 13921:0.18131937 13952:0.15060186 13957:0.15651661 13958:0.14614792 20680:0.24204898 24789:0.18646514 24835:0.1731018 24851:0.16218315 24892:0.13980903 24896:0.13027345 24899:0.13144211 24907:0.1214096 24919:0.095391102 24921:0.12479025 25219:0.1963537 25303:0.21843991 25338:0.17692956 25339:0.16618153 25411:0.13250351 25418:0.13610761 26419:0.090609767 26420:0.090609767 26423:0.049309693 26424:0.049309693 #
-1.9899999999999999911182158029987 1503:0.084364474 1957:0.051029228 1965:0.10394662 1994:0.033256575 6567:0.080225751 6899:0.069741115 9384:0.031047851 9478:0.013834592 9480:0.032546043 9482:0.020524427 12474:0.04294052 12509:0.090979978 12666:0.090979978 12676:0.085690111 12756:0.17438601 12840:0.078615159 12872:0.074304603 12893:0.070087448 12915:0.12717958 12916:0.063589789 12919:0.13352403 12920:0.06193978 12929:0.061277531 12954:0.064184211 12955:0.051094096 12956:0.097400695 12959:0.048700348 12965:0.046995483 12966:0.090328164 12968:0.1815878 12971:0.088343948 12972:0.042119958 12973:0.0402105 12975:0.19655366 12976:0.075309187 12977:0.026746763 12978:0.24126075 13159:0.090979978 13369:0.10932405 13389:0.17138022 13602:0.088927962 13640:0.085690111 13667:0.087193005 13686:0.083178647 13793:0.15723032 13847:0.075954616 13867:0.075377308 13871:0.076563135 13920:0.065064505 13921:0.068153277 13922:0.13630655 13952:0.11321472 13957:0.11766113 13958:0.10986648 18276:0.066762015 18310:0.061603785 18412:0.049129158 18446:0.043390777 18832:0.090979978 20006:0.073804297 22416:0.031690523 24484:0.10129278 24567:0.088927962 24607:0.088927962 24682:0.087193005 24801:0.067575976 24828:0.066762015 24844:0.06552396 24845:0.20108053 24848:0.066002965 24851:0.060960472 24859:0.060351945 24867:0.058324635 24877:0.056930494 24878:0.1125865 24893:0.10284836 24894:0.050461631 24895:0.09881141 24896:0.097932868 24898:0.10055724 24899:0.049405705 24907:0.045634739 24910:0.16766286 24914:0.12583637 24918:0.055305339 24919:0.071710117 24920:0.033243246 24921:0.093810886 24922:0.053802449 24935:0.085690111 25085:0.079391666 25093:0.080225751 25110:0.077888779 25154:0.083178647 25178:0.073804297 25204:0.15577756 25229:0.078615159 25234:0.15312627 25246:0.14088956 25295:0.075377308 25312:0.068153277 25314:0.083178647 25323:0.074304603 25324:0.074828178 25339:0.062463358 25351:0.087193005 25370:0.062111612 25377:0.060652096 25383:0.20108053 25405:0.052624904 25411:0.099609315 25418:0.10231869 26418:0.012844208 26421:0.012844208 26423:0.018534243 26424:0.018534243 #
-1.292748405800282718303151341388 1965:0.10314703 1995:0.064841233 1997:0.057318363 2000:0.034506623 6873:0.14207928 6961:0.12326766 6999:0.084786676 9384:0.061618041 9478:0.027456343 9480:0.064591378 9483:0.04015157 12477:0.078101508 12636:0.18056026 12886:0.1405382 12903:0.13709497 12909:0.13525805 12954:0.063690484 12956:0.19330291 12957:0.099308454 12971:0.087664381 12973:0.079802379 12975:0.11702503 12976:0.14945978 12978:0.15960327 13036:0.19197044 13549:0.17304458 13750:0.16743103 13952:0.22468768 13957:0.23351207 13958:0.10902136 13966:0.1059707 18271:0.13099049 18389:0.10076571 18467:0.051826753 20103:0.13774246 20423:0.10473802 22416:0.062893495 24611:0.17648779 24671:0.16743103 24712:0.16507761 24872:0.11650076 24879:0.12037108 24896:0.097179532 24897:0.10026933 24901:0.09583167 24915:0.15960476 24919:0.142317 24921:0.18617852 24938:0.17006192 25364:0.14289162 25372:0.12396574 25394:0.25240254 25404:0.10744399 25411:0.09884309 25418:0.20306323 26418:0.025490813 26421:0.025490813 26423:0.036783345 26424:0.036783345 #
-1.9899999999999999911182158029987 1941:0.12700619 1944:0.12119 1961:0.11893609 1986:0.09329398 1993:0.15617807 5153:0.21069615 6661:0.18385933 6851:0.1657926 6976:0.12617867 9384:0.071902223 9478:0.032038864 9480:0.075371817 9483:0.04685295 12477:0.091136813 12709:0.19262941 12802:0.18206105 12916:0.14726454 12920:0.14344335 12966:0.10459331 12967:0.10312327 12968:0.21026522 12971:0.10229575 12975:0.045518916 12977:0.061941538 13820:0.1698105 13920:0.15067975 13945:0.14228472 18309:0.14549676 18378:0.11924639 18441:0.098582149 18465:0.06653142 19831:0.17730887 19834:0.17879871 20458:0.10770782 22416:0.073390551 24801:0.15649594 24842:0.15342596 24851:0.14117542 24859:0.13976616 24880:0.12700619 24881:0.12721725 24882:0.27431503 24899:0.11441629 24913:0.097139463 25215:0.16772421 25243:0.1698105 25288:0.17730887 25298:0.16073197 25339:0.14465588 25348:0.15285309 26418:0.029745283 26421:0.029745283 26423:0.04292256 26424:0.04292256 #
-1.9899999999999999911182158029987 1897:0.10582801 1976:0.073100448 1997:0.04836037 1999:0.041246049 2000:0.029113758 6558:0.12820114 6915:0.10459177 6990:0.079702124 7000:0.046681505 9384:0.051988076 9478:0.023165332 9480:0.054496724 9483:0.03387649 12477:0.065895423 12809:0.13748229 12826:0.12927835 12837:0.12820114 12859:0.12927835 12873:0.12820114 12915:0.10647793 12917:0.11135639 12920:0.10371506 12935:0.1015589 12952:0.087993376 12954:0.10747325 12956:0.081546299 12958:0.081197292 12966:0.075624995 12967:0.074562095 12968:0.15202984 12975:0.13164772 12976:0.063050739 12977:0.044786118 12978:0.13465969 13164:0.15234143 13326:0.15654676 13329:0.15654676 13401:0.14600033 13415:0.14890543 13456:0.15234143 13557:0.14600033 13564:0.14600033 13591:0.14890543 13604:0.14890543 13722:0.13293737 13855:0.12529604 13947:0.12127106 13952:0.094786197 13957:0.098508835 13958:0.091982968 18342:0.097050421 18380:0.098726705 18461:0.057587914 18465:0.048104778 18467:0.043727014 19950:0.12441934 20298:0.12927835 20308:0.10489331 20463:0.072274946 22416:0.053064194 24549:0.16196837 24640:0.14890543 24652:0.14348382 24690:0.13927849 24755:0.1271822 24788:0.12127106 24789:0.11735792 24832:0.11051866 24835:0.10894727 24877:0.095327266 24878:0.094260231 24891:0.1162154 24892:0.087993376 24895:0.082727388 24896:0.081991844 24899:0.082727388 24904:0.079862513 24919:0.060037501 24921:0.078540817 25056:0.13433401 25228:0.12529604 25279:0.13927849 25377:0.1015589 25411:0.083395407 25418:0.085663766 26418:0.021506984 26421:0.021506984 26423:0.031034665 26424:0.031034665 #
-1.9899999999999999911182158029987 1243:0.094399802 1928:0.063415229 1992:0.034165759 1993:0.069973655 7463:0.072013974 7471:0.066186748 7478:0.043887101 7481:0.059892345 7490:0.048808977 7493:0.03624931 7827:0.10510025 8324:0.09227065 12558:0.097005673 12561:0.097005673 12687:0.09227065 12826:0.080108546 12834:0.083241336 12846:0.080816522 12855:0.078809656 12873:0.079441048 12881:0.075146757 12882:0.075146757 12887:0.071346477 12890:0.074706025 12892:0.074706025 12911:0.069546305 12931:0.064811282 12942:0.059771329 12946:0.059415627 12952:0.21810371 12954:0.19979045 12956:0.10106187 12959:0.10106187 12966:0.046861742 12967:0.046203107 12968:0.28262019 12970:0.043703195 12972:0.043703195 12973:0.16688785 12974:0.039962191 12975:0.061182562 12976:0.039069984 12978:0.083443142 13118:0.09227065 13353:0.097005673 13366:0.097005673 13369:0.056716703 13456:0.094399802 13483:0.094399802 13514:0.094399802 13588:0.09227065 13604:0.09227065 13671:0.090470478 13685:0.085192196 13841:0.078809656 13859:0.079441048 13891:0.075604782 13951:0.063090824 13952:0.058735162 13954:0.066829741 13956:0.060516987 13957:0.061041929 13958:0.056998115 13961:0.058625508 13963:0.056441914 13967:0.055238701 18355:0.058735162 18429:0.047602147 18430:0.050919309 18452:0.038968168 20284:0.069003038 20366:0.062620498 20798:0.085192196 20867:0.076081499 20893:0.066611454 20903:0.062317159 21517:0.097005673 21723:0.090470478 21773:0.086305223 24523:0.10036523 24575:0.094399802 24675:0.088911101 24713:0.081570201 24719:0.082375899 24782:0.074706025 24813:0.072013974 24826:0.068740606 24837:0.067510203 24838:0.067746133 24844:0.06798692 24855:0.064092405 24856:0.064268015 24864:0.062467847 24877:0.059070438 24878:0.058409244 24883:0.056262247 24885:0.054603007 24888:0.22062929 24890:0.064268015 24894:0.052358422 24896:0.050807022 24898:0.052168529 24899:0.051262807 24901:0.050102334 24902:0.049997598 24904:0.19795024 24908:0.048808977 24911:0.046821956 24912:0.046821956 24915:0.041721962 24919:0.074405611 24921:0.04866856 24957:0.083241336 24985:0.086305223 24987:0.086305223 25018:0.082375899 25122:0.083241336 25132:0.080816522 25147:0.078809656 25158:0.080816522 25178:0.076578513 25255:0.083241336 25263:0.074281327 25265:0.074706025 25269:0.22681433 25306:0.072362594 25324:0.077640876 25349:0.068483934 25358:0.066829741 25362:0.073092707 25377:0.062931933 25402:0.057286475 25408:0.055911005 25411:0.051676754 25414:0.051321048 25418:0.053082362 26419:0.03533807 26420:0.03533807 26423:0.019230923 26424:0.019230923 #
2.3113460819335442941735436761519 940:0.22305259 1727:0.090720534 1744:0.1877073 1844:0.17098197 1894:0.14239269 1919:0.14869873 1982:0.10206878 1992:0.080728568 6430:0.19095734 9452:0.12479131 9470:0.10719615 9472:0.10399219 9478:0.033917807 9482:0.050319053 12291:0.17976917 12438:0.14796287 12446:0.142691 14946:0.1203147 14967:0.24370344 14968:0.054848209 17912:0.1966868 17945:0.1133949 17964:0.12224703 17965:0.12154128 17967:0.13701783 18041:0.21376818 18239:0.17551564 18318:0.14984068 18338:0.14299257 18431:0.14520122 18432:0.11120222 18677:0.23714799 19746:0.21802172 20250:0.16007395 22353:0.14391758 22361:0.14066754 22398:0.11277941 24157:0.16858102 24265:0.15739287 25895:0.11669685 25900:0.15062912 26338:0.17098197 26402:0.16708913 26418:0.031489719 26421:0.031489719 26422:0.04805205 26425:0.04805205 #
0.718266765535760853822466742713 1642:0.20849162 1727:0.19810157 1839:0.18955348 1894:0.15546763 1905:0.17184518 1978:0.12110095 1980:0.11632402 1989:0.1451772 1992:0.088141322 1995:0.087455802 3555:0.25025663 5731:0.23804115 6234:0.22937413 6430:0.20849162 9456:0.13474753 9478:0.037032247 9482:0.054939505 12461:0.14126733 12466:0.13625003 14946:0.13136236 14967:0.053216211 14968:0.059884544 17964:0.13347213 17965:0.13270158 18156:0.21043599 18231:0.18856561 18246:0.19272768 18312:0.17021629 18384:0.14167446 18387:0.13659434 18431:0.15853405 18462:0.086653262 18463:0.083403252 18464:0.077479064 19613:0.21978004 19776:0.20331427 20185:0.18490937 20270:0.20176896 20466:0.10527954 22418:0.079858087 25914:0.085235253 26418:0.0343812 26421:0.0343812 26422:0.052464336 26425:0.052464336 #
4.7126601387586051217226668086369 1727:0.10641928 1929:0.17190683 1980:0.1249775 1990:0.10096679 1994:0.095643103 6928:0.19125779 6992:0.1399072 9315:0.22203925 9442:0.16738299 9443:0.1660054 9468:0.084768519 9474:0.115008 9478:0.039787117 9481:0.085154518 9483:0.058183834 11991:0.24643753 12299:0.22400156 12433:0.18403502 12442:0.18121861 12447:0.16101581 14946:0.14113458 14967:0.057175025 14968:0.064339422 17964:0.14340128 17965:0.1425734 18207:0.21087736 18379:0.20955601 18391:0.15091889 18421:0.13326162 20009:0.23612975 22344:0.18015726 22368:0.16668686 22405:0.13112667 22407:0.12653303 22419:0.086629927 24025:0.22609057 24173:0.21369377 24347:0.17314398 24358:0.16994452 25914:0.091576003 26418:0.036938861 26421:0.036938861 26422:0.056367218 26425:0.056367218 #
6.079475791611381296775107330177 1339:0.36623007 1727:0.15542346 1990:0.14746019 1994:0.13968505 1998:0.12958653 6754:0.33020121 6992:0.20433195 9384:0.13040791 9478:0.058108374 9480:0.13670066 9482:0.086207174 12474:0.18035977 14946:0.20612451 14967:0.083503105 14968:0.093966573 17964:0.20943499 17965:0.20822589 18404:0.21829951 18421:0.19462621 18453:0.16239914 18458:0.15426569 20034:0.30069539 20091:0.3060528 20462:0.18322569 22416:0.13310727 25914:0.13374512 26418:0.053948544 26421:0.053948544 26422:0.082323313 26425:0.082323313 #
-1.2402322824675888757184338828665 1727:0.17374957 1990:0.16484734 1994:0.15615542 6992:0.22842489 9384:0.14578442 9478:0.12991996 9479:0.16462637 9480:0.15281914 9482:0.096371934 9483:0.094996095 12474:0.20162614 12479:0.31863931 12480:0.1705303 14946:0.23042883 14967:0.093349025 14968:0.10504626 17964:0.23412965 17965:0.23277798 18421:0.21757476 22416:0.14880206 22417:0.14411302 22422:0.28200832 24382:0.33077168 24424:0.28338107 25914:0.14951511 26418:0.06030966 26421:0.06030966 26422:0.092030123 26425:0.092030123 #
-1.0055307574461604946947090866161 445:0.27636915 1727:0.21144904 1728:0.22921622 1992:0.094080016 1994:0.0950187 4168:0.27636915 6892:0.2012706 9456:0.14382643 9478:0.039527368 9482:0.058641165 12461:0.15078549 12466:0.14543015 14946:0.14021318 14967:0.2840088 14968:0.06391938 17912:0.22921622 17945:0.13214892 17964:0.14246507 17965:0.1416426 17967:0.15967877 18382:0.15828648 18416:0.1368251 18424:0.14099944 18455:0.12232878 18464:0.082699366 19926:0.21229866 20266:0.19000916 20301:0.19736801 20329:0.18168496 22418:0.085238688 25895:0.13599697 25900:0.17554119 26338:0.19926013 26402:0.19472347 26418:0.036697704 26421:0.036697704 26422:0.055999227 26425:0.055999227 #
-0.11468675761697583181941695329442 1686:0.35449544 1727:0.32701752 1831:0.32197404 3967:0.42742002 9456:0.22243543 9478:0.061131239 9482:0.090691775 12461:0.23319802 12466:0.22491568 14946:0.21684735 14967:0.087847032 14968:0.098854825 17964:0.22033004 17965:0.21905804 18313:0.30816671 22418:0.1318263 25914:0.14070268 26418:0.056755006 26421:0.056755006 26422:0.086605869 26425:0.086605869 #
-0.1488260086497341094791124760377 1073:0.16229045 1923:0.10693712 1989:0.06276457 1998:0.053556055 3982:0.16791098 6309:0.15135707 6987:0.094126716 9466:0.07813476 9478:0.12007634 9482:0.035628054 12392:0.14644706 12417:0.083214656 12462:0.093539082 12472:0.10502285 14512:0.15793082 14833:0.12811582 14872:0.12166378 14887:0.11589121 14912:0.10781865 14913:0.10752036 14915:0.10781865 14932:0.10103137 14939:0.09633489 14952:0.10503687 14957:0.075899489 14962:0.071364641 14966:0.0613566 14967:0.13804202 14968:0.038834892 14969:0.1644322 15238:0.17583267 15263:0.17583267 15770:0.15793082 16429:0.16791098 16944:0.088468939 17506:0.16229045 17591:0.092689499 17658:0.15135707 17834:0.135206 17871:0.13084638 17913:0.12106258 17947:0.10502285 18393:0.092689499 18463:0.054086685 18464:0.050244868 20211:0.11830629 20466:0.068273373 22412:0.092278175 22413:0.066930734 24322:0.11730416 24411:0.10189983 25465:0.16791098 25630:0.14874823 25699:0.13646692 25761:0.12648676 25772:0.12427262 25815:0.11415341 25853:0.10528509 25862:0.10167907 25882:0.092551433 25883:0.092414327 25887:0.089150541 25899:0.081578776 25915:0.058317062 25916:0.078940533 25917:0.087595619 25954:0.14874823 26028:0.14644706 26090:0.13646692 26353:0.10812156 26358:0.10665189 26368:0.135206 26390:0.12811582 26393:0.098449089 26418:0.022296075 26421:0.022296075 26422:0.034022916 26425:0.034022916 #
5.0952217905868248948308973922394 1995:0.074106142 2000:0.039437138 6997:0.10218063 9202:0.18866491 9395:0.15142888 9468:0.066855595 9475:0.090926029 9478:0.094138421 9482:0.046553284 12220:0.18401055 12804:0.18007533 12909:0.15458454 12929:0.13898905 12944:0.13039947 12948:0.12398382 12953:0.11603907 12959:0.11046161 12972:0.095536038 12974:0.087358132 12975:0.044582091 12977:0.060666721 13130:0.20635982 13422:0.20170544 13629:0.19135459 13636:0.1943614 13641:0.1943614 13961:0.12815651 13963:0.12338313 18461:0.078007877 22385:0.11987554 22411:0.095736258 22414:0.087406434 22418:0.067668177 22423:0.10873216 24288:0.15264475 24320:0.16238043 24403:0.1119348 24404:0.10998885 24726:0.1766665 24743:0.18007533 24859:0.13688964 24873:0.12937818 24875:0.26514679 24882:0.13433467 24894:0.11445653 24898:0.11404143 24902:0.10929573 24919:0.08132606 24925:0.19135459 24958:0.18196718 25370:0.1408809 25402:0.12522936 25414:0.11218882 26418:0.029133094 26421:0.029133094 26423:0.042039175 26424:0.042039175 #
3.7592854829771518154757359297946 1897:0.10716656 1976:0.07402505 1997:0.048972052 1999:0.041767746 2000:0.029482 6558:0.12982269 6915:0.10591468 6990:0.080710225 7000:0.047271948 9465:0.074428044 12710:0.14305085 12741:0.13922121 12783:0.13461882 12828:0.13207048 12897:0.12355344 12915:0.1078247 12919:0.11320361 12921:0.11607163 12931:0.10591468 12948:0.092686519 12952:0.089106344 12954:0.054416306 12956:0.08257772 12959:0.08257772 12966:0.07658153 12968:0.15395278 12971:0.074899286 12973:0.068182088 12974:0.065306276 12975:0.033328209 12976:0.063848227 12978:0.045454305 13159:0.15426829 13550:0.14784698 13557:0.14784698 13703:0.14305085 13841:0.12879086 13910:0.12688084 13931:0.11071082 13952:0.095985085 18342:0.098277949 18380:0.099975437 18461:0.058316305 18465:0.048713226 18467:0.044280089 19950:0.12599304 20298:0.1309135 20308:0.10622004 20463:0.07318911 24701:0.13603312 24707:0.13756067 24768:0.12781195 24792:0.12007397 24821:0.11607163 24824:0.11458379 24838:0.11071082 24861:0.10284346 24863:0.10258729 24872:0.099536702 24873:0.096719183 24877:0.096532993 24888:0.090138175 24894:0.17112842 24901:0.081877306 24903:0.08007402 24904:0.08087264 24914:0.071123935 24919:0.12159376 24920:0.056368217 24921:0.079534233 24956:0.13603312 24965:0.13756067 24973:0.13922121 25062:0.13756067 25091:0.13603312 25188:0.12982269 25207:0.12599304 25241:0.12355344 25263:0.12139065 25269:0.12355344 25317:0.11713213 25329:0.12982269 25372:0.10591468 25374:0.10502689 25405:0.089232311 25412:0.11458379 26418:0.021779012 26421:0.021779012 26423:0.031427201 26424:0.031427201 #
2.6058454272987732203148425469408 133:0.14443736 917:0.12680587 1168:0.1221889 1779:0.10748348 1912:0.081653811 1944:0.074620321 1960:0.071352787 1961:0.073232517 1963:0.073327757 1971:0.067873269 1989:0.051557817 1993:0.19232704 2000:0.024792889 3454:0.12973194 5116:0.12680587 5158:0.12973194 6056:0.12433193 6756:0.10524045 6924:0.094116226 6976:0.077691987 6977:0.07997895 6983:0.079550959 9452:0.072581165 9461:0.13858889 9478:0.019727288 9482:0.029266588 11984:0.12029862 12463:0.076601461 12765:0.1186077 12841:0.11210044 12922:0.09377107 12935:0.086486213 12939:0.086486213 12954:0.18304558 12956:0.06944374 12961:0.13534108 12965:0.13402541 12970:0.060060505 12973:0.057337735 12975:0.11210945 12976:0.053693168 12978:0.076449595 13140:0.12973194 13568:0.12433193 13696:0.12029862 13768:0.11707808 13821:0.11320771 13834:0.11210044 13878:0.10455742 13893:0.065653913 13936:0.094468959 13952:0.080718666 13957:0.083888814 13958:0.07833147 13976:0.068710789 18108:0.11320771 18376:0.076719031 18378:0.073423572 18408:0.068078585 18411:0.077320181 18422:0.069146529 18440:0.081815109 18452:0.10710649 18456:0.053140655 18460:0.049445804 18465:0.040965389 19310:0.11439705 19572:0.13793011 20072:0.10390227 20142:0.097610436 20258:0.095962957 20274:0.10524045 20409:0.080567971 20414:0.079550959 20416:0.076253816 20456:0.06967032 22185:0.1186077 22333:0.092778042 22418:0.042540856 24249:0.099446595 24671:0.12029862 24760:0.10830668 24858:0.089068964 24870:0.082818493 24886:0.074828751 24896:0.069823161 24897:0.072043166 24901:0.068854727 24911:0.25738624 24912:0.064346559 24914:0.059811678 24919:0.051127139 24921:0.066884317 25054:0.11210044 25223:0.10595385 25304:0.098967493 25349:0.094116226 25369:0.089068964 25388:0.086270787 25400:0.08027076 25404:0.07719814 25410:0.076026171 25411:0.07101842 25418:0.072950125 26418:0.018315062 26421:0.018315062 26423:0.026428709 26424:0.026428709 #
2.4082732295616700035623125586426 1894:0.0689134 7328:0.1034568 7378:0.095189974 7424:0.095189974 7478:0.05018675 7481:0.068489417 7482:0.069958404 7486:0.064035878 7490:0.055815123 7491:0.058036227 7493:0.041452613 7931:0.11093008 8372:0.10167359 8388:0.098693661 8434:0.096258886 12853:0.088785619 12858:0.18024433 12870:0.087002397 12899:0.081587702 12916:0.15090194 12933:0.073094524 12947:0.066793427 12952:0.062352691 12954:0.19039066 12961:0.056308769 12965:0.16728415 12968:0.21545874 12971:0.052411217 12973:0.047710821 12974:0.13709535 12975:0.069964841 12977:0.031735741 12978:0.063613832 13217:0.11093008 13559:0.20691361 13646:0.10167359 13756:0.094200313 13794:0.18840063 13820:0.17400479 13823:0.095189974 13879:0.088785619 13912:0.083584592 13930:0.078607775 13973:0.06980402 20846:0.081963904 20897:0.074765988 20900:0.073904119 20920:0.066194482 20924:0.057414982 20925:0.05729413 20926:0.060701914 21783:0.094200313 21835:0.086457253 21868:0.08542949 21875:0.08542949 21892:0.08542949 21906:0.082749672 24574:0.10795015 24833:0.15721555 24872:0.069651395 24881:0.13035949 24886:0.062265124 24896:0.05809997 24899:0.11724236 24903:0.05603227 24904:0.056591108 24911:0.16062863 24912:0.053542878 24914:0.19907758 24919:0.1701719 24920:0.078887984 24921:0.1113091 25264:0.08542949 25298:0.16470201 25315:0.1631754 25317:0.081963904 25325:0.1631754 25341:0.15335399 25358:0.076422624 25372:0.074114427 25374:0.073493183 25386:0.071092173 25388:0.071786061 25400:0.13358685 25405:0.12488168 25410:0.063261501 25412:0.080180682 25418:0.12140383 26419:0.040410575 26420:0.040410575 26423:0.02199137 26424:0.02199137 #
3.4118579806061273274053746717982 1758:0.10542396 1976:0.060594477 1997:0.040086914 2000:0.024132999 6452:0.11545082 6915:0.086698286 6990:0.066066742 7283:0.12627897 7329:0.1234308 7450:0.099934533 7455:0.19266671 7456:0.098288618 7464:0.096799709 7478:0.2935397 7481:0.080118217 7482:0.081836618 7484:0.14889802 7489:0.075143419 7490:0.065291949 7493:0.096981674 7496:0.059688617 8209:0.1234308 8369:0.11709674 8400:0.11396191 8459:0.10626859 8470:0.099366404 12762:0.11396191 12900:0.096799709 12920:0.085971564 12929:0.085052378 12936:0.082391292 12952:0.07293953 12954:0.044543404 12968:0.1260207 12971:0.061310098 12975:0.054562759 12978:0.074414805 13554:0.12102269 13640:0.11893671 13682:0.11260265 13817:0.10626859 13920:0.090308651 18304:0.086948238 18342:0.080447108 18376:0.074677065 18465:0.079750098 19954:0.098288618 20281:0.087723032 20308:0.086948238 20414:0.077433616 20805:0.11135224 20812:0.10911676 20857:0.09728042 20862:0.099366404 20887:0.097776383 20894:0.087460473 20895:0.087460473 20897:0.087460473 20911:0.079637505 20920:0.15486723 20922:0.14912525 20924:0.067163453 20925:0.067022078 20926:0.14201695 21116:0.12627897 21413:0.1234308 21594:0.12627897 21656:0.12102269 21807:0.10810857 21836:0.1071615 21868:0.099934533 21874:0.099366404 21901:0.098288618 21906:0.096799709 21909:0.091611214 21920:0.084184282 21921:0.17242014 24801:0.093794532 24825:0.094190039 24851:0.084612302 24896:0.06796474 24899:0.068574443 24911:0.062633902 24912:0.062633902 24914:0.058219723 24918:0.076763056 24919:0.049766332 24920:0.046141174 25064:0.11260265 25065:0.11260265 25266:0.10911676 25339:0.086698286 25388:0.083974592 25405:0.073042646 25410:0.074002646 25411:0.069128186 26419:0.04727187 26420:0.04727187 26423:0.025725277 26424:0.025725277 #
-0.85931539506590415289366546858218 1969:0.076476388 1981:0.065735191 1989:0.058151051 1997:0.046449553 2000:0.027963415 6612:0.13377531 6971:0.095037527 6975:0.094002888 8940:0.15556866 9457:0.081058249 9478:0.044500045 9481:0.047620688 9483:0.065075919 12389:0.11579625 12470:0.081556931 12625:0.14302187 12732:0.14023155 12760:0.13205008 12899:0.11058886 12913:0.10695647 12922:0.10576256 12951:0.086663485 12954:0.15484014 12955:0.082174078 12956:0.078324236 12959:0.078324236 12961:0.15264855 12965:0.15116464 12966:0.072636895 12972:0.067741066 12974:0.061942417 12975:0.094834536 12977:0.043016527 12978:0.086226001 13241:0.15036127 13259:0.15036127 13448:0.1463221 13480:0.1463221 13763:0.13205008 13879:0.12034535 13895:0.11950327 13912:0.11329556 13936:0.10654969 13951:0.09779238 13958:0.08834853 13961:0.090871036 13963:0.087486409 13973:0.094616547 18346:0.091737285 18443:0.068511449 18460:0.055768955 20256:0.11272087 20273:0.10538147 22382:0.09209574 22398:0.073983096 22400:0.073850483 22419:0.048445776 24149:0.1241703 24251:0.1164794 24407:0.076023832 24574:0.1463221 24752:0.13781448 24811:0.11272087 24856:0.099617071 24858:0.10045914 24863:0.09730313 24880:0.088201962 24894:0.081156887 24897:0.081256077 24898:0.080862552 24901:0.077659898 24902:0.077497549 24911:0.14515045 24912:0.072575226 24914:0.067460418 24919:0.0576653 24920:0.1069295 24921:0.075437509 24922:0.086529896 25054:0.12643589 25068:0.13047506 25092:0.12902619 25113:0.12643589 25150:0.1241703 25351:0.14023155 25370:0.099893428 25393:0.090702653 25400:0.09053582 25402:0.088795498 25404:0.087070271 25410:0.085748427 25412:0.10868171 25414:0.07954894 25418:0.082279012 25420:0.10823474 26418:0.020657199 26421:0.020657199 26423:0.029808423 26424:0.029808423 #
-1.8250579308955769963773718700395 963:0.10559313 1471:0.098479405 1771:0.085134275 1941:0.061940961 1976:0.049307346 1987:0.042935841 1989:0.040837321 1990:0.039652098 1994:0.037561361 1998:0.03484587 1999:0.027821079 3690:0.10925009 5131:0.10275657 5818:0.10275657 6006:0.10925009 6391:0.096781977 6410:0.096781977 6837:0.078768514 6865:0.087970831 6987:0.061242882 7409:0.085786305 7415:0.085786305 7424:0.090610303 7433:0.090610303 7456:0.079980075 7467:0.075111553 7469:0.071168929 7471:0.072045952 7478:0.14331667 7482:0.13318528 7484:0.1211623 7486:0.060955055 7487:0.059864804 7489:0.061146211 7490:0.053129807 7491:0.055244051 7492:0.056449562 7493:0.15783317 7495:0.051317573 7496:0.14571066 7898:0.10559313 8012:0.10925009 8121:0.10925009 8202:0.10043894 8206:0.10043894 8340:0.10275657 8372:0.096781977 8424:0.09273386 8432:0.088791229 8434:0.091627784 8451:0.091627784 8490:0.079159677 8491:0.075403795 12610:0.098479405 12899:0.077662446 12929:0.069209397 12948:0.061737567 12954:0.036246158 12961:0.0535997 12965:0.053078655 12970:0.047572032 12972:0.047572032 12974:0.043499857 12975:0.066598766 12978:0.030276658 12989:0.10925009 13022:0.10925009 13691:0.095284745 13879:0.084514059 13893:0.052002396 13912:0.07956326 13956:0.065874271 13961:0.063815348 13976:0.054423649 18373:0.064803168 18401:0.056583371 18409:0.064675413 18410:0.054944936 18415:0.055864263 18424:0.055737775 18441:0.048078544 18444:0.04814763 18451:0.05049995 18463:0.035191119 18465:0.032447394 19492:0.087970831 20020:0.085786305 20092:0.082297713 20129:0.078768514 20197:0.08179915 20311:0.080411032 20397:0.06689176 20407:0.066014737 20437:0.059436757 20458:0.052529138 20678:0.10275657 20743:0.096781977 20828:0.086473592 20858:0.082297713 20866:0.082816638 20887:0.07956326 20890:0.071599878 20893:0.072508253 20894:0.071168929 20895:0.071168929 20896:0.069957361 20898:0.070752107 20900:0.070348524 20907:0.069392301 20910:0.078020543 20911:0.064803168 20920:0.063009806 20922:0.060673602 20924:0.054652698 20925:0.054537658 20926:0.11556298 20927:0.070548713 21152:0.10559313 21388:0.11440428 21428:0.10275657 21626:0.10559313 21637:0.10925009 21695:0.095284745 21713:0.098479405 21766:0.09273386 21768:0.10275657 21777:0.095284745 21807:0.087970831 21808:0.089668252 21816:0.09273386 21831:0.10559313 21870:0.082297713 21906:0.078768514 21907:0.079159677 21911:0.072274998 21920:0.068503 21921:0.070151441 21928:0.076009236 24866:0.068332374 24881:0.06204389 24893:0.058080606 24894:0.056993466 24902:0.054423649 24908:0.053129807 24911:0.050966881 24914:0.047374945 24919:0.040496193 25200:0.096781977 25244:0.082816638 25293:0.079159677 25327:0.077314153 25341:0.072987996 25400:0.063579939 25402:0.062357776 25408:0.060860541 25414:0.055864263 26419:0.038466386 26420:0.038466386 26423:0.020933347 26424:0.020933347 #
