SVM-light Version V6.02
0 # kernel type
3 # kernel parameter -d 
1 # kernel parameter -g 
1 # kernel parameter -s 
1 # kernel parameter -r 
empty# kernel parameter -u 
77247 # highest feature index 
5960 # number of training documents 
2335 # number of support vectors plus 1 
1.0538655 # threshold b, each following line is a SV (starting with alpha*y)
-0.43736379788108037391936022686423 207:0.042689666 324:0.05641181 685:0.040641014 751:0.10943373 797:0.064784124 817:0.09544491 1210:0.11459658 1571:0.071078084 1802:0.052617434 1895:0.057878617 1910:0.019350601 2333:0.094103336 2494:0.04140887 3317:0.089818977 3375:0.049815349 3524:0.066117555 3574:0.038514853 3632:0.045078747 4478:0.098644935 4859:0.10060777 5942:0.081456088 6098:0.049854711 9081:0.074397959 9185:0.10060777 9755:0.10943373 10184:0.072167054 13279:0.10292929 17185:0.11459658 17561:0.11459658 24593:0.10943373 25187:0.15643571 25422:0.046724956 25546:0.060319152 25700:0.074671797 25808:0.10042908 26363:0.094103336 26374:0.085930496 26500:0.054978207 27222:0.10577062 27560:0.077444106 27856:0.11459658 28627:0.11459658 28826:0.11459658 30536:0.10943373 31811:0.092889734 32517:0.04106823 32931:0.11459658 33249:0.10060777 33845:0.059369117 35572:0.076451413 36296:0.10133722 36947:0.080546193 47208:0.034228183 47466:0.06289427 47874:0.051359389 48122:0.060052942 48612:0.17971365 48830:0.050336778 48873:0.042011861 48877:0.047987983 48911:0.11459658 49030:0.053015377 49891:0.11459658 50104:0.089818977 50273:0.11459658 50841:0.06289427 51245:0.10943373 52226:0.06086887 53025:0.058720153 55170:0.11459658 55692:0.11459658 56915:0.11459658 56957:0.11459658 57690:0.10943373 59006:0.091781802 59181:0.085277371 59685:0.078151688 59945:0.04785252 60077:0.056882218 60086:0.051903237 60123:0.059706442 60157:0.11712591 60181:0.028760873 60336:0.06289427 60339:0.062356923 60377:0.055520125 61636:0.083497763 62115:0.077444106 62302:0.094103336 62471:0.075237811 62712:0.094103336 63043:0.084063776 63273:0.073110685 63440:0.064042173 63834:0.061841339 66552:0.034722965 66587:0.063922614 66600:0.05641181 66607:0.07263013 66644:0.033751909 66657:0.056086134 66679:0.054234032 66753:0.042248264 66811:0.034078855 66914:0.080993012 66917:0.061841339 66930:0.051949624 67070:0.049620349 67075:0.04013449 67331:0.084656119 67490:0.089818977 67673:0.062676601 68065:0.047685198 68195:0.048942093 68267:0.077104539 68431:0.078151688 68554:0.084656119 68688:0.053478453 68817:0.07263013 68884:0.074951656 68914:0.10060777 68922:0.080114514 69759:0.098644935 73518:0.079696998 73565:0.052864689 73576:0.076451413 73621:0.038007364 73651:0.062148176 73675:0.06278497 73713:0.078900918 73748:0.036024563 73800:0.070269354 73804:0.088118695 73812:0.044393152 73829:0.07852079 73952:0.051448435 73974:0.066125698 74010:0.070269354 74199:0.053959008 74574:0.10292929 74776:0.089818977 75171:0.09694466 75402:0.088940479 75667:0.10943373 75712:0.073110685 76096:0.09694466 76107:0.084656119 76164:0.09544491 76217:0.086618945 77050:0.11459658 77181:0.05641181 77215:0.10943373 #
-0.24711580284958298281416944064404 166:0.11113776 677:0.069246434 678:0.054776337 685:0.10618626 865:0.16886376 895:0.14544119 1022:0.059044491 1221:0.16886376 1378:0.053019714 1381:0.071917109 1556:0.071295217 1697:0.073704086 2796:0.10284013 3200:0.079883061 3301:0.19061793 3524:0.057583675 4426:0.10355797 6387:0.13208531 7886:0.074595258 8339:0.19961089 9967:0.19961089 10180:0.19961089 13121:0.18423733 13192:0.15645184 15954:0.19961089 17135:0.15809551 17287:0.10685567 18755:0.19961089 18760:0.19061793 25187:0.054497741 32130:0.075981922 33786:0.086499088 38279:0.077357285 40664:0.09576419 59832:0.13954806 59839:0.084007271 59948:0.081281058 59988:0.084434398 59991:0.057039589 60053:0.14107828 60071:0.097250447 60210:0.061400943 60221:0.18703993 60292:0.065668292 60337:0.16180067 60508:0.17928815 61348:0.11618986 62055:0.14642709 62249:0.16886376 62800:0.16180067 62959:0.14642709 63050:0.19961089 63287:0.14272194 63488:0.19961089 63744:0.12531215 64042:0.077506125 67075:0.069908559 70303:0.065510243 #
-0.4019620644162939515631194353773 281:0.14183125 653:0.11774126 678:0.039346319 685:0.050849676 1022:0.042412173 1302:0.11238071 1378:0.038084518 1579:0.12587956 1802:0.06583447 1857:0.046610385 2248:0.093428701 3698:0.039794128 4825:0.14338224 10252:0.073079161 12309:0.14338224 12918:0.11025334 13573:0.13692252 13793:0.080280021 15243:0.14338224 15544:0.097782709 18615:0.099716187 19780:0.19746175 19840:0.085640572 20065:0.077630252 20466:0.12587956 21087:0.14338224 21298:0.12129631 22920:0.15907776 23102:0.14338224 23270:0.12587956 24249:0.10447167 37503:0.085640572 38279:0.11113282 38442:0.12878424 38498:0.059621759 38567:0.13692252 40824:0.14338224 41353:0.14338224 42003:0.14338224 44059:0.14338224 45434:0.12129631 46771:0.14338224 46783:0.12587956 59794:0.067581266 60061:0.068862177 60151:0.066911772 60210:0.044104829 60214:0.083460182 60273:0.094878025 60358:0.13233927 61528:0.14338224 61774:0.084812768 62072:0.14338224 63422:0.12342368 63432:0.11128154 63591:0.091784805 63928:0.10837687 64356:0.086513758 64562:0.093086071 64578:0.097333901 64601:0.13233927 64623:0.12342368 65008:0.11941983 65165:0.14338224 65714:0.14338224 66156:0.12878424 66261:0.14338224 70091:0.082213499 70172:0.086290933 70265:0.05937475 70338:0.083835065 70437:0.069313101 70513:0.093086071 70612:0.066587284 71312:0.12878424 71362:0.13692252 72091:0.093428701 72120:0.12342368 72468:0.11128154 72924:0.10447167 #
-0.23311383859019524367184317270585 750:0.064607076 959:0.089897096 1227:0.11145872 1910:0.027849674 2108:0.13368829 2494:0.059596263 2650:0.094372191 13738:0.16492911 16391:0.16492911 16787:0.086178049 19579:0.091325797 19780:0.11356773 19879:0.14479619 19880:0.098510273 19940:0.11864319 20065:0.089296199 20189:0.13543493 20244:0.16492911 20286:0.13774012 20489:0.16492911 20828:0.16492911 21141:0.13952421 21261:0.14197126 21603:0.15749866 22482:0.16492911 23016:0.15222666 23316:0.13952421 24332:0.15749866 37593:0.12926881 38279:0.12783338 39097:0.16492911 42935:0.16492911 45281:0.13209374 45457:0.12273247 60068:0.046762753 60086:0.074699916 60146:0.10030584 60479:0.13368829 60552:0.10487291 64324:0.12367246 64337:0.078623347 64347:0.1091359 64356:0.099514678 64397:0.087469131 64496:0.094568193 64555:0.10259955 64594:0.15222666 64659:0.078789189 64902:0.12017122 65168:0.10707465 65215:0.13543493 65245:0.10746877 65581:0.13209374 65711:0.15749866 65986:0.15749866 66089:0.10668883 70165:0.11145872 70340:0.11656635 70377:0.070176013 70437:0.079729177 70563:0.13952421 71669:0.15749866 72799:0.14479619 73343:0.16492911 #
-0.44258691307407599380141505207575 207:0.048248507 524:0.032395892 685:0.068899632 809:0.056707475 1278:0.07322 1334:0.053707875 1571:0.080333531 1910:0.021870343 2282:0.12368365 2291:0.098720625 2494:0.046800934 3200:0.051832631 5963:0.10635702 7004:0.035924911 7081:0.11633225 9081:0.084085695 9229:0.12951879 10671:0.10956832 12620:0.058249146 13570:0.10635702 16018:0.11633225 19596:0.11633225 19704:0.11954356 19710:0.27433929 19960:0.12368365 20007:0.077553272 20065:0.070124283 20069:0.062542617 20338:0.092062905 21884:0.11954356 22498:0.11954356 22797:0.10787328 22919:0.12951879 22963:0.12368365 23273:0.12951879 23863:0.12368365 24378:0.11149 37172:0.10956832 37266:0.11609432 37270:0.082087673 38145:0.10956832 38279:0.050193764 38498:0.053857006 38499:0.061359107 38629:0.061046921 38637:0.087144718 39057:0.12951879 39336:0.12951879 40464:0.10498539 40863:0.12951879 41557:0.12368365 44161:0.11370842 44636:0.11149 44664:0.11370842 45537:0.12951879 59873:0.033391193 59894:0.10498539 59940:0.06123342 59946:0.10373318 59959:0.049577054 60033:0.082630798 60123:0.067481123 60181:0.032505974 60233:0.094370432 60995:0.11633225 61418:0.10787328 61737:0.11633225 61789:0.088745393 62486:0.042903878 63133:0.085704394 63180:0.12951879 63728:0.11370842 64315:0.079642616 64469:0.09711995 64491:0.078560062 64514:0.097898044 64518:0.10258127 64630:0.065415293 64659:0.061873134 64670:0.073364638 64789:0.10151476 64869:0.096381776 65814:0.10635702 65894:0.089617856 65909:0.11633225 66309:0.092062905 66480:0.10498539 70202:0.070240811 70224:0.06460201 70248:0.063172989 70259:0.11370842 70306:0.061742894 70347:0.086406544 70348:0.064289145 70392:0.087528504 70499:0.071979798 71124:0.12368365 71294:0.097898044 72137:0.11633225 72995:0.09711995 73093:0.09711995 73163:0.087144718 73253:0.069224536 73450:0.10498539 #
2.0370756349257499451255171152297 442:0.10011508 524:0.030494625 678:0.06691213 755:0.11642484 793:0.051126305 1817:0.075398594 1910:0.041173611 2718:0.076070465 3375:0.052997775 3574:0.040975355 3698:0.033836838 7004:0.033816531 12008:0.05729086 13502:0.074758478 18811:0.092152551 25187:0.033285905 26755:0.066229068 37123:0.15450618 37124:0.11642484 37163:0.083144367 37266:0.10928091 37427:0.093748115 37547:0.091420129 37795:0.07300178 37849:0.079150833 38081:0.077270068 38121:0.10950488 38279:0.3071118 38313:0.09292686 38472:0.0579978 38629:0.057464167 39297:0.13115741 39508:0.080674529 39718:0.10494682 39800:0.10313792 40355:0.10950488 41245:0.12191753 41458:0.10154236 42801:0.12191753 42960:0.12191753 43643:0.12191753 43922:0.12191753 44522:0.12191753 44602:0.12191753 44985:0.11642484 45490:0.10011508 46229:0.14322233 46324:0.11252772 46545:0.10950488 46558:0.10313792 47050:0.11642484 47054:0.10703504 47076:0.10494682 47102:0.12191753 47188:0.096560925 59873:0.031431515 60068:0.034567576 60214:0.070965968 60292:0.04010861 60308:0.068261884 61631:0.075398594 61833:0.051952116 62743:0.09292686 63799:0.088255435 66552:0.036941227 70095:0.080044337 70104:0.048397969 70110:0.058427889 70140:0.066008791 70241:0.043155693 70248:0.059465457 70255:0.066452987 70299:0.10154236 70303:0.040012076 70327:0.0564561 70329:0.070965968 70348:0.060516112 70375:0.11642484 70390:0.10950488 70405:0.054926664 70455:0.089434147 70471:0.096560925 70486:0.070809357 70498:0.072116069 70535:0.076070465 70548:0.05640224 70588:0.062221363 70600:0.1148123 70653:0.097645238 70665:0.090064332 70709:0.070200413 70817:0.096560925 70947:0.10494682 70987:0.093748115 71012:0.12191753 71418:0.081000969 71892:0.12191753 71925:0.090725273 71995:0.10011508 72298:0.10011508 72539:0.12191753 72654:0.086659871 72681:0.12191753 72689:0.096560925 72741:0.083537057 72848:0.086659871 72871:0.072819948 72923:0.084788397 72970:0.11252772 73023:0.071124405 73104:0.061576162 73223:0.095557019 73360:0.096560925 #
0.72041604233254996625390731423977 129:0.24356329 207:0.095013082 279:0.094370648 685:0.045226727 793:0.21391468 1138:0.12931733 1564:0.24356329 1802:0.11710901 4404:0.20674182 9989:0.24356329 11485:0.25505409 16695:0.21955101 18532:0.25505409 25187:0.2089045 26755:0.13855264 30501:0.3054426 36296:0.22554313 48612:0.099995792 54825:0.15819632 59873:0.065755405 60009:0.12784691 60075:0.17015556 60098:0.0938382 60336:0.13998184 62468:0.1328868 63097:0.19125287 63393:0.17737916 63929:0.10583704 66668:0.097086385 66766:0.13365799 69302:0.17015556 69940:0.14781082 73812:0.098804474 #
2.1843629358613618762774422066286 301:0.077668756 471:0.06041003 677:0.11479019 1022:0.048939183 1378:0.043945529 1857:0.05378348 2261:0.085356779 2658:0.12222169 2933:0.15799418 3574:0.055605553 7438:0.1070245 14483:0.16544802 15461:0.16544802 15676:0.10627405 16496:0.16544802 16786:0.13779792 17280:0.16544802 24743:0.075136587 25187:0.090341188 27733:0.10231957 30449:0.12311862 33798:0.084214583 35798:0.085356779 37123:0.052418102 37213:0.092988238 37441:0.065437563 37521:0.097865015 38017:0.14860345 38215:0.16544802 38279:0.064117789 38498:0.068797238 38629:0.077981673 38946:0.16544802 41295:0.15799418 41351:0.16544802 42164:0.16544802 42848:0.11506199 44585:0.11037619 45817:0.16544802 46779:0.1118094 59785:0.090488911 59868:0.079374403 59991:0.047277413 60036:0.14241794 60099:0.095673919 60151:0.077209145 60361:0.077058464 60526:0.13250934 60973:0.13250934 62511:0.10117023 63119:0.15270559 63711:0.092810616 63897:0.12967552 66634:0.095673919 66659:0.081349157 66801:0.071863912 66851:0.070712857 67050:0.077437513 67928:0.10323133 68158:0.095468521 68973:0.11829546 69684:0.085593991 70110:0.079289488 70138:0.15799418 70241:0.058564376 70345:0.073706768 70350:0.10627405 70498:0.097865015 70578:0.14860345 70612:0.076834723 70808:0.16544802 71287:0.10992226 71537:0.088014677 72710:0.13586104 72811:0.14860345 72926:0.15270559 73306:0.16544802 #
0.96006088641462428157069552980829 1378:0.035107028 1381:0.047619946 1556:0.04720816 1817:0.08174064 1910:0.022318434 1960:0.12621775 3375:0.057455607 3574:0.044421937 3698:0.073365949 7886:0.049393281 12008:0.062109798 13502:0.081046678 18811:0.099903829 25187:0.036085702 33574:0.065765105 37123:0.08375112 37142:0.096303947 37191:0.23207627 37266:0.11847292 37728:0.082222193 37795:0.07914222 38110:0.11871573 38147:0.12199283 38166:0.081979446 38200:0.0586349 38279:0.15366648 38472:0.062876202 38507:0.088548705 38516:0.059599098 38654:0.12199283 39011:0.097639963 39779:0.13217244 40428:0.070867069 41021:0.13217244 41912:0.13217244 42226:0.13217244 42423:0.12621775 42811:0.12199283 43679:0.13217244 43754:0.13217244 44000:0.085499294 44218:0.13217244 44356:0.13217244 44502:0.10585853 44593:0.11871573 44645:0.087114781 44710:0.12621775 45597:0.13217244 46677:0.093415044 47076:0.11377427 59982:0.081505656 60068:0.074950352 60308:0.074003629 61631:0.08174064 62759:0.082222193 63182:0.091920257 66644:0.038928494 70106:0.084899783 70107:0.081979446 70184:0.0983565 70241:0.046785671 70248:0.064467311 70272:0.094503395 70274:0.090563655 70295:0.079544604 70298:0.11776512 70303:0.086755268 70327:0.061204825 70337:0.0983565 70377:0.056238312 70435:0.089321837 70445:0.07292527 70476:0.07914222 70496:0.13217244 70498:0.078182004 70538:0.095678911 70545:0.10853611 70563:0.11181322 70744:0.09240181 70946:0.13217244 70962:0.10359465 71021:0.11377427 71161:0.13217244 71174:0.11008345 71553:0.099109799 71833:0.10713638 71845:0.12199283 71853:0.081505656 71961:0.11377427 71994:0.11008345 72158:0.12621775 72379:0.08376953 72413:0.13217244 72431:0.11603814 72453:0.11181322 72795:0.095079392 72815:0.10585853 73104:0.066755556 73202:0.11871573 #
2.2118762374500313683256536023691 85:0.18630469 166:0.10862296 524:0.097595863 1274:0.054773133 1697:0.072036333 1857:0.06342078 1910:0.032943297 1964:0.12600161 2323:0.18630469 3574:0.065569349 3676:0.10179279 3698:0.054146189 5970:0.17127898 6597:0.19509415 7004:0.05411369 10191:0.19509415 11890:0.11485919 12008:0.091677651 12771:0.19509415 13090:0.19509415 13502:0.11962958 16224:0.11095157 25187:0.15979373 31298:0.12405386 31888:0.11681849 32130:0.074262626 36296:0.17252083 48612:0.2294642 50070:0.17472208 52397:0.091044024 56905:0.16020557 59871:0.087894425 59895:0.10688783 59918:0.07233534 59955:0.13184419 59982:0.12030706 60068:0.11063105 60076:0.082584143 60181:0.048963752 60265:0.12209961 60308:0.10923363 60313:0.08307267 61484:0.15141609 61583:0.17523126 62595:0.16020557 62616:0.12858644 62759:0.12136471 62935:0.15001707 63182:0.1356796 63256:0.11163259 63375:0.090866335 63378:0.11095157 63565:0.137886 66856:0.09473031 67075:0.068326682 68785:0.1228603 68881:0.14629178 73643:0.11833502 73850:0.091677651 75506:0.13126609 76594:0.13432431 #
-0.4799999999999999822364316059975 678:0.06004443 793:0.091757648 1817:0.13531972 1910:0.036947645 2122:0.20195629 3574:0.073539481 3698:0.060727812 12008:0.10282132 13502:0.13417089 18811:0.16538846 25187:0.17921712 26755:0.11886294 30501:0.1310181 36296:0.19349124 37266:0.19612916 37832:0.18510418 38279:0.084797092 38498:0.090985753 38516:0.098664917 41439:0.2188084 41899:0.1628269 44227:0.2188084 44727:0.20195629 45518:0.2188084 46671:0.13611692 59873:0.056410916 59982:0.13493071 60068:0.062039278 60308:0.12251129 62759:0.13611692 63182:0.15217184 63479:0.2188084 66668:0.083289452 66766:0.11466388 69302:0.14597479 69940:0.12680544 70140:0.11846761 70248:0.10672413 70348:0.10860976 70377:0.093101218 70387:0.12468998 70488:0.16164069 70612:0.1016155 71039:0.17524631 71508:0.20895055 72313:0.15553062 72802:0.16982116 73163:0.14722185 #
-0.4799999999999999822364316059975 488:0.15826091 646:0.17379031 793:0.093902253 1910:0.037811209 3574:0.075258292 3698:0.062147178 12008:0.10522452 13502:0.13730681 16083:0.18387857 25187:0.18340588 26755:0.12164108 30501:0.13408034 34964:0.20667653 36296:0.19801362 37123:0.070944294 37708:0.12311125 38279:0.17355804 38498:0.093112327 38562:0.1384825 39541:0.22392251 41442:0.21383426 45022:0.19985375 45994:0.17379031 47112:0.22392251 59891:0.11893819 59982:0.1380844 60068:0.12697859 60308:0.12537469 61631:0.1384825 62759:0.13929832 63182:0.15572849 63261:0.12332855 66668:0.08523614 66766:0.11734387 69302:0.14938658 69940:0.12976921 70182:0.13374636 70315:0.14014181 70334:0.11368067 70377:0.095277227 70612:0.10399051 71292:0.20112455 71759:0.18943053 72289:0.15132633 72403:0.21383426 #
-0.4799999999999999822364316059975 793:0.29031458 1661:0.28057995 1817:0.21407095 3574:0.11633682 3698:0.096069217 12671:0.3194876 13502:0.21225353 18811:0.26163861 25187:0.094505012 26755:0.1880369 30501:0.20726593 48612:0.13570943 54825:0.21469635 59848:0.27130452 60068:0.098143913 60214:0.20148586 60308:0.19380845 61631:0.21407095 63525:0.3194876 63799:0.25057393 66552:0.10488316 73812:0.13409263 #
-0.4799999999999999822364316059975 488:0.27216494 793:0.16148588 1381:0.13874082 1556:0.13754109 1910:0.065024808 3574:0.12942342 3698:0.10687594 7886:0.14390744 12008:0.18095705 13502:0.2361297 16083:0.31622022 25187:0.10513578 26755:0.20918897 33786:0.16687204 48612:0.15097523 51575:0.18912236 59891:0.20454076 59982:0.23746693 60068:0.21836802 60308:0.21560976 61631:0.23815155 62759:0.23955455 63182:0.26780987 63261:0.21209097 66552:0.11668135 73748:0.12105517 73878:0.16546062 #
-0.4799999999999999822364316059975 488:0.27821064 1274:0.22102995 1910:0.066469222 3574:0.13229835 3698:0.10925001 12008:0.1849767 13502:0.24137491 16083:0.32324451 25187:0.10747119 25997:0.1217781 35081:0.12913644 36323:0.15569095 48612:0.1543289 52397:0.18369824 59891:0.20908429 59982:0.24274185 60068:0.22321869 60308:0.22039917 61631:0.24344169 62759:0.24487585 63182:0.27375883 63261:0.21680221 66949:0.12315405 73594:0.17908995 73878:0.16913605 #
3.0667351209916140497568903811043 524:0.026460515 678:0.029030189 685:0.018758753 797:0.05980508 1022:0.031292215 1480:0.083786957 1495:0.079326227 1910:0.017863393 1986:0.075195707 2080:0.082104869 2152:0.046392746 2204:0.063830897 2351:0.078723297 3022:0.036167912 3524:0.030518014 3538:0.091063485 3963:0.10578915 4525:0.089493886 7004:0.029342968 8037:0.10578915 9410:0.059120152 11371:0.10578915 13315:0.10578915 16215:0.066620588 16504:0.10578915 17023:0.10578915 18095:0.088109396 24689:0.069106311 24726:0.086870931 24737:0.082104869 24817:0.09764152 24914:0.095018566 25119:0.1079803 25187:0.043323811 25337:0.046096087 25429:0.082104869 25454:0.089493886 25540:0.084727824 25546:0.055683266 25679:0.04285264 25700:0.068932824 25704:0.068680033 25793:0.06919118 25808:0.18542102 26206:0.10578915 26224:0.065050982 26310:0.061567441 26318:0.05727654 26346:0.047049165 26509:0.069455333 26548:0.15622868 26680:0.061307702 26786:0.092875458 27222:0.09764152 27560:0.071492068 28473:0.10102309 31217:0.071814127 31781:0.055518862 32231:0.051775582 32615:0.10578915 32739:0.09764152 33029:0.10578915 33768:0.10578915 34073:0.088109396 34237:0.09764152 34390:0.091063485 34545:0.10578915 34716:0.10102309 34874:0.10578915 35053:0.10578915 35228:0.10578915 35262:0.1173695 35285:0.081346251 35446:0.10578915 35474:0.10578915 35643:0.10578915 35781:0.09764152 35983:0.10578915 36148:0.070002161 36209:0.10578915 36345:0.10102309 36572:0.10578915 38279:0.040997572 45946:0.051028099 59806:0.061307702 59830:0.053918689 59839:0.044521909 59873:0.027273463 59985:0.049176399 60015:0.033809118 60050:0.047786627 60181:0.026550429 60190:0.055518862 60210:0.032541078 60282:0.03835832 60815:0.057959571 60976:0.081346251 61231:0.048755717 61515:0.09764152 62362:0.078723297 62486:0.035043292 62560:0.071814127 63025:0.06726779 63594:0.055518862 63854:0.058792099 66559:0.073571809 66567:0.075639322 66575:0.049176399 66587:0.059009783 66603:0.054502886 66607:0.067048073 66615:0.11937623 66623:0.059923217 66643:0.073571809 66644:0.031157875 66646:0.047577094 66657:0.051775582 66717:0.064868741 66811:0.062919378 66833:0.050065823 66834:0.044979088 66850:0.05472967 66883:0.052322403 66888:0.08049275 66889:0.072485998 66914:0.074768215 66958:0.063830897 66976:0.063504361 66994:0.088109396 67009:0.055276491 67070:0.091613457 67081:0.052701615 67218:0.079326227 67383:0.071814127 67395:0.079961762 67512:0.080633633 67549:0.053498842 67645:0.09764152 67750:0.086870931 67765:0.10578915 67777:0.06919118 67895:0.095018566 68071:0.068432555 68076:0.078723297 68127:0.053847667 68267:0.071178593 68351:0.091063485 68470:0.075639322 68627:0.059009783 68802:0.057564422 68884:0.06919118 68932:0.055196799 69119:0.09764152 69212:0.10102309 69480:0.08291585 69517:0.09764152 69658:0.064868741 69679:0.091063485 69759:0.091063485 69812:0.071178593 70038:0.065615311 70075:0.10102309 70265:0.04380741 #
2.6730713146970908056232474336866 318:0.1780448 402:0.18477231 411:0.1416072 736:0.10277059 868:0.097552322 959:0.11471637 1022:0.062254712 1274:0.059088152 1910:0.035538562 1964:0.13592799 2870:0.10446768 3150:0.11061571 3498:0.11530844 9969:0.18477231 10733:0.18116747 11699:0.16041766 15979:0.20098174 16754:0.18477231 16808:0.21046364 17052:0.19425422 17933:0.15661712 18743:0.21046364 18870:0.13713934 18954:0.21046364 24623:0.091201998 38279:0.08156316 41305:0.092521891 59832:0.14713521 59875:0.088258259 59883:0.11127916 59918:0.078033902 59930:0.080335952 59938:0.13871646 60053:0.14874862 60076:0.089090101 60101:0.14223084 60203:0.12362084 60282:0.076312475 60508:0.18903595 60563:0.16183539 61294:0.17529042 61434:0.16495804 62244:0.16183539 62934:0.19425422 63569:0.13713934 63610:0.090638474 63829:0.16495804 64269:0.14490636 70479:0.092597447 #
2.6208410293237314192538178758696 141:0.10147447 279:0.040678792 354:0.059824131 685:0.077980541 838:0.053089254 841:0.090281077 869:0.08617074 870:0.10498878 923:0.09874855 1022:0.065041199 1235:0.066336602 1378:0.029202264 1402:0.048450354 1525:0.050574571 1760:0.088053845 1818:0.046641376 1964:0.14201206 2703:0.10994194 2705:0.064138077 2796:0.056642417 3022:0.037587695 3200:0.087996185 3214:0.10147447 3388:0.075331464 4860:0.10147447 5334:0.10994194 5991:0.10994194 7305:0.10994194 8164:0.10994194 8899:0.09874855 9692:0.10994194 10592:0.087076046 11625:0.10994194 11712:0.10147447 11750:0.10994194 13983:0.096521318 14694:0.096521318 14759:0.10147447 15895:0.10994194 16443:0.10994194 16616:0.10994194 17030:0.074977353 17287:0.058854099 17686:0.10994194 18435:0.09874855 18791:0.10994194 19367:0.10994194 24743:0.049929049 25109:0.061326228 25187:0.060032666 25793:0.071907297 27360:0.10994194 28102:0.091568165 29529:0.10994194 31446:0.10994194 34873:0.1521441 36653:0.091568165 37128:0.10994194 37630:0.06650988 37691:0.09874855 38162:0.071907297 38279:0.042606942 38716:0.09874855 40482:0.10994194 43912:0.10994194 45451:0.10498878 45606:0.10994194 45618:0.10994194 59820:0.081217587 59864:0.090281077 59892:0.074977353 59902:0.093006998 59906:0.067415185 59912:0.069455914 59945:0.045908865 59963:0.09874855 59969:0.066336602 59972:0.064878665 59991:0.09424901 60015:0.035136305 60031:0.066336602 60051:0.053685274 60076:0.046538867 60138:0.048530199 60151:0.051306285 60158:0.10498878 60173:0.035461724 60210:0.033818487 60252:0.065032326 60382:0.073655419 60624:0.10994194 60711:0.091568165 60819:0.088053845 60837:0.10498878 60871:0.080106281 60920:0.064282641 61032:0.074977353 61400:0.10994194 61548:0.10498878 61810:0.063995197 62025:0.055456907 62108:0.082440205 62298:0.089116774 63192:0.080649301 63315:0.074298508 63320:0.10994194 63405:0.049273293 63435:0.093006998 63516:0.10498878 63711:0.061673626 63855:0.063439831 63882:0.084539525 63995:0.10994194 66552:0.066625208 66583:0.066685654 66596:0.078147538 66615:0.062031195 66991:0.06990841 67081:0.054770436 67453:0.088053845 67837:0.09874855 67913:0.083100691 68037:0.081813604 68667:0.093006998 69752:0.093006998 70212:0.077703267 70303:0.036081813 70338:0.064282641 70568:0.096521318 70621:0.071907297 71447:0.085327923 72087:0.10994194 72351:0.082440205 73073:0.079586372 #
1.9785122827833154790511116516427 524:0.02988377 635:0.10284457 678:0.032785889 685:0.1271137 687:0.058208391 1022:0.070681117 1402:0.052651629 2130:0.099508308 2708:0.11027362 2816:0.11947533 2870:0.05930388 3022:0.081694067 3048:0.10489096 3049:0.11409268 3375:0.05193615 5846:0.099508308 6396:0.11947533 7171:0.092726961 7344:0.11947533 9410:0.066768661 10152:0.10489096 11539:0.10489096 11670:0.083975308 12263:0.11947533 13240:0.11947533 13498:0.11027362 16510:0.11947533 17287:0.063957512 17378:0.10731133 19203:0.11409268 19520:0.10489096 19654:0.08074116 19701:0.11409268 19780:0.082268931 19868:0.083975308 19881:0.065457933 20069:0.057692781 20149:0.11947533 20286:0.14966927 20329:0.095689252 20419:0.061137863 20429:0.11947533 20558:0.11947533 20582:0.11947533 20612:0.11947533 21467:0.11947533 21813:0.11947533 22170:0.11027362 22293:0.11947533 23120:0.11947533 23330:0.11947533 23559:0.11947533 23579:0.11947533 23980:0.11947533 37123:0.037852794 37415:0.11947533 38200:0.053002153 38279:0.092603035 39193:0.089588843 39654:0.070671469 40547:0.058274273 44332:0.11947533 45022:0.10663328 45815:0.11947533 59869:0.075722232 59872:0.11409268 59873:0.030801892 59930:0.045604859 60015:0.038183078 60051:0.058340482 60061:0.057380408 60065:0.094626665 60071:0.058208391 60098:0.043956753 60100:0.088907905 60173:0.038536713 60181:0.029985318 60210:0.073501982 60282:0.043320823 60815:0.065457933 60903:0.11409268 61191:0.061724246 61231:0.055063352 61425:0.082259983 61800:0.083975308 62114:0.10489096 62486:0.039576922 62526:0.099508308 62925:0.11947533 63610:0.051453359 63855:0.068940885 63929:0.049577385 63958:0.10489096 64076:0.085424952 64294:0.08074116 64317:0.081104882 64337:0.056955077 64454:0.098109618 64491:0.072468162 64503:0.063363001 64605:0.074323542 64608:0.13160552 64630:0.060342699 64658:0.083525255 64725:0.062337734 64737:0.11027362 64754:0.084923938 65196:0.10107191 65299:0.084923938 65397:0.072858639 65670:0.087052532 65673:0.10731133 65712:0.094626665 65805:0.10107191 65894:0.082668483 66521:0.088907905 70207:0.049474873 70345:0.053226024 70754:0.066398166 71407:0.077012107 71953:0.079706199 #
2.4989350956313720608648054621881 685:0.098436624 809:0.12152661 815:0.25618711 1002:0.23117718 1274:0.077926859 1445:0.19303416 3632:0.10918526 3660:0.24368213 5063:0.27756447 6264:0.27756447 9339:0.27756447 11632:0.21983618 25187:0.075780615 25997:0.085868768 35081:0.091057323 38254:0.22230478 38279:0.10756744 42438:0.27756447 46375:0.2650595 59959:0.1062458 60015:0.088706724 60157:0.14184536 60336:0.15233625 60822:0.18675496 61386:0.20979981 63043:0.20361093 66949:0.08683899 70207:0.11493976 70303:0.091093801 71874:0.1442038 #
-0.4799999999999999822364316059975 524:0.023591293 679:0.081189103 685:0.016724667 750:0.036946848 1378:0.025052307 1619:0.055528518 1818:0.040013134 1857:0.030660691 1910:0.015926393 2650:0.053968623 2890:0.067848481 2947:0.08705385 3026:0.053215891 3427:0.10445297 3538:0.081189103 3574:0.031699412 3698:0.026176903 6090:0.082804598 6293:0.084715322 7004:0.02616119 7191:0.09431801 14187:0.09431801 15181:0.09431801 15864:0.061924014 17573:0.09431801 19266:0.07320191 25187:0.025750689 25410:0.048394553 25423:0.046873052 25461:0.070724562 25679:0.038205955 25704:0.061232775 26310:0.027445717 26346:0.041947436 28704:0.063188188 29627:0.08705385 30111:0.06346041 31217:0.064027034 31822:0.082804598 36148:0.062411539 36214:0.09006875 36503:0.076452322 37123:0.20917624 37163:0.064322263 37205:0.076452322 37213:0.053010397 37360:0.081189103 37441:0.11191323 37497:0.057997242 37630:0.057058111 37646:0.052039336 37737:0.084715322 37944:0.09431801 38200:0.041841753 38279:0.23758824 38358:0.12291632 38472:0.13460502 38499:0.044682849 38550:0.09431801 38557:0.047575884 38629:0.04445551 38684:0.043844003 38764:0.061688498 39242:0.077451162 39297:0.050733089 40047:0.09431801 40256:0.09006875 40306:0.0747016 40359:0.075540446 40415:0.049645305 40547:0.046003751 40564:0.077451162 40631:0.053857725 40950:0.09431801 41430:0.09006875 41469:0.08705385 41771:0.048135776 41982:0.09006875 42567:0.084715322 42690:0.09431801 43200:0.09431801 43253:0.079789698 43655:0.09006875 43833:0.09431801 43984:0.09431801 44382:0.12432989 44390:0.09431801 44585:0.062922858 44645:0.062164944 44660:0.076452322 45020:0.09431801 45524:0.09431801 45571:0.051150672 45893:0.09431801 45930:0.09006875 46458:0.067437448 46491:0.076452322 46642:0.09431801 47039:0.053531896 59839:0.03969422 59871:0.042492442 59948:0.038406055 60015:0.030143058 60021:0.048863385 60028:0.069188163 60181:0.023671459 60204:0.055147387 60364:0.043266222 60982:0.0747016 61402:0.084715322 62188:0.079789698 62883:0.0552729 63353:0.071291186 63375:0.043929208 63584:0.052321326 64171:0.06493891 66722:0.041496988 66747:0.057997242 66797:0.051409449 66811:0.028048389 66834:0.040101822 66850:0.048795111 66888:0.035882298 67628:0.071291186 68802:0.051322479 68932:0.049211588 69164:0.068722315 69585:0.058849741 70038:0.058500376 70091:0.05408071 70104:0.037441704 70110:0.090402126 70127:0.050175089 70184:0.07018701 70202:0.051150672 70204:0.054659858 70207:0.039057195 70241:0.066772334 70253:0.058162283 70258:0.073924951 70272:0.067437448 70298:0.084036969 70303:0.061908398 70327:0.043675646 70334:0.047883235 70337:0.07018701 70345:0.084036969 70437:0.045594726 70476:0.05647574 70499:0.052417032 70535:0.058849741 70542:0.048863385 70585:0.064626053 70588:0.048135776 70589:0.067437448 70600:0.044410627 70612:0.043801662 70622:0.046986967 70633:0.04637523 70665:0.069675691 70692:0.058162283 70709:0.054308545 70731:0.09006875 70739:0.071291186 70744:0.065937757 70817:0.0747016 70994:0.056335069 71021:0.081189103 71041:0.078555338 71074:0.076452322 71216:0.076452322 71287:0.062664084 71749:0.082804598 71957:0.060584325 71994:0.078555338 72141:0.09431801 72421:0.055790532 72439:0.056618325 72443:0.081189103 72461:0.049645305 72468:0.07320191 72804:0.058162283 72847:0.08705385 72876:0.08705385 72908:0.09006875 72995:0.070724562 73023:0.055023365 73104:0.047636636 73266:0.08705385 73320:0.067848481 73377:0.068276294 73429:0.058162283 73471:0.08705385 #
-0.4799999999999999822364316059975 568:0.10081298 677:0.04258889 678:0.03368929 1022:0.03631435 1378:0.032608908 2099:0.11331216 3632:0.048292901 3698:0.034072716 9033:0.071460672 25187:0.033517942 26310:0.035724245 30332:0.060363524 30640:0.092794947 37123:0.15558325 37213:0.069000073 37266:0.11004271 37270:0.077808715 37361:0.072447203 37585:0.08296594 37617:0.11723644 37983:0.12276742 38166:0.076146014 38200:0.0544626 38208:0.099512853 38279:0.38061866 38355:0.10225021 38608:0.11723644 38916:0.12276742 38962:0.12276742 39242:0.10081298 39297:0.1320717 39642:0.11331216 40547:0.059879992 40952:0.082602158 41011:0.12276742 41490:0.11331216 41616:0.12276742 42507:0.089451224 43156:0.082247823 43858:0.11723644 43943:0.12276742 44000:0.079415403 45114:0.10778119 45571:0.066579394 45647:0.11331216 45654:0.11331216 45840:0.11723644 46063:0.10778119 46229:0.07211037 46456:0.12276742 46779:0.08296594 46868:0.11723644 46990:0.11026824 47070:0.12276742 70110:0.05883519 70127:0.065309547 70204:0.071147069 70207:0.050838128 70209:0.084119394 70248:0.059879992 70255:0.066916227 70295:0.073884428 70298:0.054692641 70303:0.080582 70306:0.058524448 70332:0.07279256 70340:0.086767882 70345:0.054692641 70358:0.087263979 70405:0.11061912 70421:0.084119394 70445:0.067736112 70498:0.07261879 70600:0.057806332 70603:0.098325923 70613:0.062245436 70617:0.087263979 70696:0.09069217 70730:0.099512853 70962:0.096223146 71155:0.1038569 71205:0.10225021 71216:0.099512853 71468:0.068353459 71663:0.085826747 71674:0.078063697 71853:0.075705938 71874:0.063781679 71925:0.091357723 71932:0.089451224 72144:0.11723644 72419:0.10778119 72445:0.11723644 72461:0.064619958 72528:0.085826747 72609:0.11026824 72871:0.073327579 72890:0.12276742 73069:0.099512853 73146:0.085379459 73276:0.096223146 73446:0.11331216 73458:0.11026824 #
-0.4799999999999999822364316059975 207:0.032299533 524:0.021687143 685:0.015374749 736:0.042338647 1022:0.051294446 1081:0.086705208 1334:0.035954259 1378:0.023030233 1414:0.049612593 1910:0.029281814 2321:0.086705208 2982:0.045706309 3022:0.029643362 3861:0.086705208 4979:0.057374045 6626:0.086705208 7004:0.024049612 12620:0.038994372 12759:0.055694312 13288:0.04792466 24689:0.028319903 24771:0.086705208 24871:0.069443263 25001:0.086705208 25119:0.044250537 25187:0.094688974 25337:0.037780534 25422:0.070705369 25679:0.070244387 25704:0.11258085 25895:0.077877596 25953:0.05287471 26255:0.072214812 26306:0.041914582 26310:0.20184366 26318:0.046944078 26346:0.077123366 26537:0.077877596 26548:0.04268188 26622:0.058088008 27326:0.082798928 27527:0.086705208 28023:0.068672121 28943:0.077877596 28953:0.053778566 29059:0.082798928 29414:0.086705208 29761:0.055316456 30332:0.042632092 30358:0.086705208 31191:0.082798928 31217:0.11771829 32036:0.086705208 32221:0.082798928 32486:0.06729348 32697:0.069443263 32739:0.080027372 33131:0.086705208 33243:0.068672121 33597:0.067958161 33734:0.086705208 33855:0.080027372 35044:0.06729348 35167:0.082798928 35262:0.048098255 35602:0.080027372 35603:0.065016091 35802:0.0862839 36148:0.11474809 36922:0.086705208 37123:0.16482237 37230:0.072214812 37255:0.062372144 37377:0.080027372 37441:0.034293413 37521:0.051287446 37728:0.053937811 37758:0.086705208 38200:0.076929063 38210:0.066087648 38279:0.13440709 38380:0.080027372 38490:0.16559786 38629:0.040867317 38684:0.040305171 38739:0.060942255 38987:0.086705208 39193:0.065016091 39526:0.086705208 39744:0.080027372 40415:0.045638222 40547:0.042290594 40571:0.082798928 40952:0.058338258 41281:0.080027372 41658:0.086705208 42266:0.073349543 43156:0.058088008 43157:0.086705208 43399:0.086705208 43444:0.07463599 43854:0.086705208 43905:0.086705208 43991:0.082798928 44401:0.086705208 45022:0.077385522 45423:0.086705208 46206:0.086705208 46980:0.07119976 59873:0.022353439 60050:0.039166108 60098:0.031900138 60181:0.021760836 60209:0.043680307 60210:0.026670795 60321:0.066087648 60587:0.044250537 61257:0.082798928 62486:0.028721621 63854:0.048186235 63929:0.035979122 64181:0.044856653 66552:0.026271831 66571:0.072259314 66615:0.048920617 66634:0.050139174 66635:0.051410176 66646:0.038994372 66675:0.042883649 66791:0.054431975 66810:0.052048426 66811:0.051568974 66833:0.041034147 66834:0.11059511 66850:0.044856653 66851:0.037058003 66856:0.042100754 66860:0.056925867 66888:0.098958261 66905:0.048731707 66930:0.039305735 66958:0.052316058 66966:0.061630696 67073:0.039028477 67093:0.055503532 67301:0.065536976 67383:0.058859143 67467:0.073349543 67469:0.07119976 67485:0.069443263 67712:0.082798928 67777:0.056709364 67780:0.042242784 67890:0.07463599 68044:0.077877596 68292:0.062372144 68496:0.066671707 68734:0.060942255 68802:0.047180027 68903:0.054431975 68932:0.13571854 69035:0.056709364 69109:0.066671707 69155:0.076121092 69284:0.051534485 69589:0.076121092 69629:0.055132944 69699:0.066087648 69779:0.059130546 69877:0.056497615 69968:0.077877596 70038:0.053778566 70072:0.038758975 70110:0.041552696 70112:0.053019587 70145:0.04498259 70196:0.052048426 70203:0.051534485 70207:0.035904728 70224:0.043247242 70249:0.07119976 70266:0.046415016 70298:0.115881 70303:0.028455757 70306:0.041333232 70345:0.077253997 70350:0.055694312 70421:0.059409812 70480:0.04268188 70613:0.043961205 70682:0.06729348 70725:0.065016091 71011:0.059697419 71287:0.057606202 71342:0.077877596 71407:0.055888947 71564:0.067958161 71874:0.045046184 71953:0.057844095 71958:0.053316042 72461:0.045638222 72528:0.060615644 72710:0.07119976 72992:0.07119976 73000:0.055503532 73187:0.077877596 73253:0.046341754 73256:0.056497615 73293:0.062765427 73333:0.057374045 73388:0.055316456 #
-0.4799999999999999822364316059975 524:0.021798484 677:0.030233076 678:0.095661648 736:0.042556014 1022:0.025778895 1378:0.02314847 1857:0.028330646 1862:0.039830945 2234:0.035464101 3676:0.090943553 4142:0.069024682 13327:0.05943412 13564:0.076511897 14202:0.063499793 15156:0.08715035 25109:0.048612956 25187:0.035690665 25607:0.083224013 26228:0.076511897 26310:0.050719984 28465:0.083224013 30130:0.045603525 31879:0.08715035 33008:0.0715653 35984:0.08715035 36320:0.0715653 37123:0.13805713 37172:0.073726118 37266:0.078117318 37270:0.055234991 37333:0.061947107 37361:0.051428948 37441:0.10340843 37473:0.055415995 37507:0.08715035 37543:0.058637764 37628:0.075019173 37646:0.048084632 37715:0.054882824 37728:0.054214727 37766:0.083224013 38154:0.046877649 38166:0.054054666 38186:0.058141064 38200:0.038662009 38279:0.23641998 38443:0.044656496 38462:0.08715035 38499:0.041287195 38548:0.08715035 38629:0.041077133 38630:0.080438234 38648:0.097225912 38731:0.06642694 38860:0.07064236 39103:0.08715035 39469:0.08715035 39481:0.083224013 39782:0.08715035 40312:0.13285388 40547:0.042507716 40752:0.080438234 41034:0.08715035 41065:0.08715035 41147:0.080438234 41374:0.08715035 41741:0.065349884 41847:0.08715035 41864:0.078277417 42049:0.075019173 42189:0.078277417 42340:0.08715035 42507:0.063499793 42570:0.058896009 42616:0.080438234 42627:0.08715035 42708:0.08715035 43156:0.058386233 43974:0.067638963 44000:0.056375548 44190:0.083224013 44208:0.083224013 44571:0.064853184 44736:0.083224013 44943:0.08715035 45347:0.083224013 45416:0.083224013 45571:0.047263499 45742:0.080438234 46147:0.07064236 46229:0.10237967 46317:0.07258556 46320:0.083224013 46462:0.0715653 46529:0.08715035 46666:0.08715035 46779:0.058896009 47013:0.08715035 59839:0.036677673 59877:0.04926813 59948:0.035487406 59955:0.058896009 60292:0.028670853 60313:0.037109323 61348:0.05072863 62389:0.07258556 62777:0.056375548 62883:0.05107246 63162:0.060003906 66572:0.063087665 66725:0.039614141 66801:0.037854578 66883:0.043103814 67073:0.039228849 67086:0.054882824 67986:0.051799066 68042:0.0715653 68909:0.075019173 69661:0.075019173 69888:0.049076371 70103:0.12389421 70110:0.041766029 70112:0.05329179 70120:0.076511897 70145:0.045213532 70149:0.05205391 70193:0.067014001 70199:0.056787673 70204:0.050506007 70207:0.072178125 70241:0.092546999 70248:0.042507716 70251:0.040630434 70252:0.073726118 70255:0.047502611 70263:0.054377481 70295:0.052449211 70298:0.038825311 70338:0.050956488 70340:0.061594941 70345:0.077650622 70405:0.11778975 70416:0.057668604 70434:0.069024682 70445:0.048084632 70467:0.067014001 70483:0.057668604 70498:0.051550757 70506:0.05700051 70543:0.065873444 70566:0.045737095 70600:0.04103566 70613:0.088373803 70617:0.061947107 70622:0.043416213 70626:0.08715035 70687:0.069024682 70692:0.053742267 70720:0.080438234 70754:0.048433624 70765:0.057668604 70772:0.080438234 70994:0.05205391 71059:0.080438234 71084:0.065349884 71142:0.069024682 71144:0.083224013 71240:0.08715035 71246:0.080438234 71287:0.057901952 71407:0.05617588 71465:0.08715035 71494:0.05329179 71539:0.0715653 71562:0.076511897 71853:0.053742267 71897:0.080438234 71925:0.064853184 71958:0.053589769 71993:0.07064236 72029:0.060926847 72132:0.083224013 72197:0.075019173 72348:0.055600449 72438:0.069799781 72528:0.060926847 72550:0.08715035 72584:0.07258556 72702:0.062692367 72871:0.05205391 72938:0.063499793 72977:0.067014001 73118:0.076511897 73167:0.080438234 73189:0.06438072 73276:0.068307057 73381:0.078277417 73454:0.08715035 #
-0.4799999999999999822364316059975 279:0.037959207 471:0.037459325 677:0.071179621 685:0.018191786 720:0.084245332 864:0.061429899 1022:0.060692865 1378:0.054499887 1986:0.072922975 2770:0.069643609 2951:0.086789005 3200:0.041056596 3258:0.032552473 3403:0.10259176 3574:0.068960287 7773:0.09214671 8660:0.10259176 9169:0.10259176 11336:0.10259176 11337:0.088311166 12723:0.053605806 14933:0.081254564 15778:0.085446365 24743:0.046591036 25187:0.056019176 27733:0.063446783 28473:0.097969748 30449:0.076343954 33798:0.052220162 35677:0.074750766 35798:0.052928422 37123:0.097510964 37172:0.086789005 37266:0.09195824 37291:0.10259176 37330:0.10259176 37441:0.040576823 37630:0.062063355 37755:0.05882477 37767:0.073353186 37821:0.10259176 37841:0.10259176 38254:0.082166992 38279:0.27830917 38316:0.09006837 38344:0.10259176 38472:0.048804276 38516:0.046260599 38744:0.094690382 38920:0.078887627 39649:0.097969748 40034:0.097969748 40200:0.097969748 40547:0.050039284 40631:0.058582224 40662:0.10259176 41332:0.097969748 41344:0.097969748 41560:0.10259176 41771:0.052358337 42278:0.10259176 43577:0.09214671 44052:0.10259176 44472:0.10259176 44592:0.10259176 44659:0.074750766 44724:0.09006837 44844:0.081254564 45298:0.10259176 45522:0.10259176 45571:0.055637706 45592:0.088311166 45686:0.10259176 45809:0.10259176 46499:0.07250841 46727:0.10259176 46928:0.10259176 46999:0.10259176 47039:0.058227815 59785:0.056110773 59868:0.049218841 59991:0.05863199 60061:0.049271736 60258:0.085446365 60336:0.056305636 60359:0.060684584 61067:0.10259176 61236:0.068731174 63696:0.067356102 63961:0.078196548 63977:0.065673158 64121:0.09214671 64160:0.097969748 66634:0.059325919 66659:0.050443351 66801:0.044561703 66851:0.043847952 67050:0.048017807 67928:0.064012147 68158:0.059198551 68973:0.073353186 69684:0.053075511 70110:0.049166188 70196:0.061584994 70207:0.084966734 70241:0.036314864 70248:0.050039284 70303:0.033669561 70327:0.095013916 70332:0.0608298 70334:0.052083641 70345:0.045704428 70348:0.050923392 70392:0.069331281 70405:0.04621996 70426:0.080409788 70437:0.09918876 70445:0.056604326 70452:0.084245332 70458:0.05882477 70476:0.061429899 70515:0.067886397 70516:0.066849388 70529:0.069027282 70542:0.10629954 70574:0.063264392 70633:0.050443351 70637:0.086789005 70747:0.082166992 70754:0.057015155 70788:0.086789005 71294:0.077544987 71407:0.066129193 71643:0.09006837 71695:0.10259176 71808:0.088311166 71838:0.09006837 71871:0.081254564 71874:0.053299766 71927:0.075787775 72058:0.072922975 72224:0.088311166 72622:0.10259176 72876:0.094690382 73031:0.074750766 73033:0.079623319 73099:0.097969748 73104:0.051815413 73146:0.071348161 73163:0.069027282 73341:0.069964737 73351:0.10259176 73377:0.074265614 73455:0.07692866 #
1.2632248230670592992197498460882 106:0.1939144 1274:0.064354829 1817:0.14176041 1910:0.03870621 3573:0.16489342 3574:0.077039674 3698:0.063618213 12008:0.10771521 13502:0.14055689 18811:0.1732603 19780:0.23675911 19840:0.13691217 20061:0.1858035 20708:0.2292228 20781:0.2292228 21311:0.2292228 21953:0.2292228 48612:0.089868449 52397:0.10697074 59982:0.14135288 60068:0.1299842 60181:0.057529189 60308:0.12834235 61307:0.11825902 61631:0.14176041 62759:0.14259554 63182:0.15941462 64326:0.13978502 64502:0.2292228 64519:0.1858035 64570:0.14775378 64623:0.19731539 64937:0.2292228 65353:0.16489342 65954:0.2292228 66409:0.20588522 73594:0.10428724 73878:0.098490916 #
0.81374722273235566838422982982593 1274:0.1910094 1381:0.24512036 1556:0.24300073 1910:0.11488259 3574:0.22865884 7886:0.2542485 12008:0.31970587 25187:0.18574865 25997:0.2104761 33786:0.29482117 35081:0.22319396 48612:0.26673549 51575:0.33413193 60068:0.19290087 66949:0.21285424 73748:0.21387422 73878:0.29232755 #
-0.1198513745709543221185100492221 471:0.095039636 1022:0.038496606 1378:0.034568492 1402:0.057353627 1413:0.12012149 1910:0.021976074 1939:0.062844969 2530:0.10007457 2980:0.078124948 11856:0.11202899 14274:0.13014494 15018:0.12012149 15840:0.082219176 18555:0.13014494 25187:0.035532154 25546:0.068503201 25748:0.080027647 26310:0.037871044 28946:0.10549293 33332:0.1242816 34875:0.11425814 47208:0.077744469 47370:0.096142188 47657:0.067236461 47793:0.048974644 47826:0.11518217 48302:0.096847728 48429:0.090984382 48537:0.12768532 48612:0.10204852 48634:0.11689465 48798:0.060853872 48829:0.13014494 48830:0.057166427 49105:0.10007457 49318:0.13014494 49865:0.13014494 50096:0.13014494 51280:0.074937783 51402:0.13014494 52107:0.13014494 52262:0.13014494 53737:0.13014494 53844:0.096142188 54628:0.13014494 55516:0.13014494 55521:0.10839479 56505:0.1242816 57184:0.13014494 57306:0.1242816 57462:0.093053736 58339:0.13014494 58671:0.12012149 58946:0.13014494 59543:0.073146537 59839:0.054772172 59930:0.049677547 60068:0.036900315 60243:0.049622249 60245:0.05469358 60282:0.047189541 61228:0.06761454 63376:0.080721892 63511:0.059701011 63610:0.056048345 63836:0.075259149 66571:0.054230794 67015:0.067904733 67075:0.045579903 69006:0.086467199 69363:0.079582661 73494:0.11009803 73538:0.073719315 73562:0.080960922 73578:0.080027647 73616:0.099197887 73621:0.086328335 73651:0.070580386 73706:0.088347867 73823:0.059645709 73831:0.099197887 73874:0.061157048 73883:0.058177412 73903:0.081958614 73912:0.086118728 73950:0.073719315 73964:0.062639855 73973:0.066777349 74018:0.10200553 74039:0.096847728 74065:0.09758947 74141:0.11425814 74351:0.11425814 74531:0.10007457 74704:0.1242816 74860:0.1068712 74947:0.12012149 75194:0.10200553 75376:0.1242816 76062:0.075924128 76227:0.13014494 76406:0.096142188 76424:0.074164294 76457:0.1242816 76473:0.1242816 76635:0.08577846 77078:0.064140834 77090:0.11202899 77164:0.13014494 #
1.4927474254969386180391666130163 182:0.15828995 677:0.080140769 1381:0.083231613 1475:0.17608219 1556:0.08251188 1809:0.15348446 1910:0.039008848 2702:0.17929497 3574:0.077642038 3698:0.064115644 5870:0.21322285 6365:0.23101509 7886:0.086331107 10609:0.2206073 12008:0.10855743 12548:0.23101509 13502:0.14165589 13660:0.23101509 25187:0.063071705 33574:0.11494628 48138:0.23101509 48612:0.09057112 48786:0.23101509 51668:0.23101509 58794:0.23101509 59830:0.11774393 59868:0.11083049 59948:0.094068766 59982:0.14245811 60068:0.065500274 60282:0.08376427 60308:0.12934583 61378:0.17461501 61700:0.16832301 62314:0.20749502 62560:0.15682277 62759:0.14371049 63182:0.16066106 66644:0.068040423 73758:0.13387954 73850:0.10855743 73878:0.099261008 74526:0.15348446 #
1.6242211525019847329076583264396 1817:0.10187298 1862:0.075285852 1879:0.13193099 1910:0.027815361 2650:0.094255917 3404:0.12168823 3574:0.055362854 3698:0.045717824 12008:0.077407151 13502:0.1010081 18811:0.12450968 24689:0.053803246 24736:0.13719648 25187:0.13492033 26310:0.095867597 26346:0.073260978 26483:0.12666549 27113:0.1520391 28247:0.1520391 30332:0.080994099 31224:0.1520391 31526:0.13352357 32336:0.1520391 32577:0.1647259 33171:0.1647259 33711:0.1520391 35802:0.081962742 36503:0.13352357 37123:0.10437863 37547:0.12352008 37955:0.1647259 37964:0.1520391 38279:0.15959486 40625:0.1647259 44555:0.1647259 44733:0.1647259 45045:0.1647259 45390:0.1573046 46271:0.1647259 59982:0.10158012 60068:0.093410276 60308:0.092230387 61631:0.10187298 62759:0.10247314 63182:0.11455978 66571:0.068640515 66610:0.095256343 66722:0.072474271 66811:0.048986364 66827:0.11642274 66856:0.079984643 66930:0.074674554 67546:0.1123385 67558:0.13046595 68257:0.11182288 68501:0.1520391 68651:0.12784675 68688:0.076872155 69218:0.12450968 69997:0.12450968 70110:0.078943424 70253:0.10158012 70303:0.054061346 70306:0.078526475 70329:0.095883943 70345:0.073385067 70377:0.070089549 70588:0.084068879 71182:0.11286906 71287:0.10944249 71468:0.09171477 72616:0.12083677 72804:0.10158012 73444:0.12784675 #
-0.2937046099511597674336371710524 221:0.077343374 245:0.064113915 279:0.036132038 331:0.077343374 350:0.079156004 524:0.024425585 685:0.10389674 750:0.038253453 793:0.040951148 797:0.055205807 809:0.042755831 860:0.09325397 864:0.11694594 1022:0.057771411 1274:0.027416445 1278:0.055205807 1402:0.086069919 1429:0.063631587 1692:0.044468716 1697:0.036057465 1725:0.097653501 1818:0.041428175 1910:0.016489619 2261:0.050380711 2494:0.035286579 2705:0.056969229 3022:0.033386439 3200:0.039080337 3258:0.030985558 3271:0.09013246 3375:0.04245016 3682:0.074432552 5206:0.097653501 5550:0.084060304 5598:0.09013246 6079:0.097653501 6323:0.097653501 6635:0.09325397 7004:0.027086364 7724:0.084060304 7999:0.097653501 8229:0.097653501 8435:0.097653501 8492:0.087711222 9370:0.09325397 10511:0.097653501 11451:0.080190174 12156:0.097653501 12657:0.097653501 13007:0.097653501 13570:0.080190174 13620:0.097653501 14492:0.077343374 14789:0.097653501 16018:0.087711222 16787:0.051025487 17387:0.097653501 17592:0.067913815 17902:0.097653501 18294:0.073812351 18860:0.076539263 19157:0.097653501 25187:0.079984039 34377:0.085732929 35081:0.03203604 36296:0.086354531 36323:0.038623657 37123:0.061878178 37213:0.054885074 37283:0.09325397 37441:0.038623657 37444:0.075090371 37634:0.09325397 37981:0.082611412 38279:0.075689353 38557:0.049258374 38661:0.09325397 38667:0.097653501 38684:0.045394521 38797:0.11152474 39308:0.097653501 40076:0.097653501 40415:0.051400978 40931:0.09013246 41236:0.097653501 41632:0.097653501 42111:0.069412827 43156:0.065422796 43385:0.097653501 43713:0.097653501 44585:0.065148085 45772:0.097653501 45892:0.09325397 45980:0.097653501 46376:0.087711222 47164:0.097653501 59814:0.060219157 59816:0.13582763 59830:0.099544212 59839:0.04109798 59843:0.044348374 59894:0.079156004 59903:0.064880155 59952:0.066911511 59959:0.037379693 59991:0.055809736 60015:0.031209048 60050:0.044111624 60068:0.05537587 60110:0.052275855 60157:0.049904432 60173:0.031498093 60181:0.024508584 60210:0.030038526 60217:0.047207151 60233:0.071152635 60245:0.041039009 60274:0.060048278 60335:0.040806279 60336:0.053595364 60344:0.045307014 60361:0.045482736 60434:0.071634963 60611:0.049904432 60822:0.065704651 61312:0.056110546 61671:0.075790651 61737:0.087711222 61743:0.059880048 61746:0.09013246 61748:0.05587719 61802:0.047103811 61866:0.09325397 62039:0.079156004 62274:0.075790651 62400:0.075790651 62458:0.070247896 62996:0.09013246 63022:0.082611412 63043:0.071634963 63224:0.085732929 63246:0.079156004 63405:0.043765914 63511:0.044796307 63567:0.049258374 63624:0.09325397 63728:0.085732929 63879:0.082611412 64042:0.037917495 64063:0.074432552 64178:0.084060304 66668:0.037171822 66766:0.051174127 69302:0.065148085 69940:0.056592871 70095:0.064113915 70110:0.04679957 70196:0.058620598 70203:0.058041763 70251:0.045527115 70298:0.043504443 70334:0.049576595 70355:0.065994017 70393:0.087711222 70476:0.058472969 70480:0.048071336 70508:0.076539263 70515:0.064618684 70534:0.066596977 70613:0.0495122 70620:0.068637453 70725:0.073225692 71018:0.087711222 71387:0.097653501 71871:0.077343374 71958:0.060048278 72452:0.097653501 72497:0.087711222 72528:0.068269603 72673:0.09325397 72744:0.085732929 73293:0.07069084 73320:0.070247896 73345:0.054990936 73399:0.087711222 73439:0.068269603 #
-0.4799999999999999822364316059975 540:0.24686261 678:0.075421765 1381:0.19804595 1556:0.19633338 1857:0.089346044 2243:0.20303676 7886:0.20542106 10855:0.26246265 13011:0.27484509 16104:0.19114295 25187:0.075038165 33574:0.1367548 48612:0.32326499 50070:0.24614526 50558:0.19895886 51575:0.1349816 59785:0.15032172 59875:0.11525672 59991:0.078538053 60013:0.12994024 60071:0.13390455 62975:0.20161609 63145:0.17254283 63572:0.18743673 63696:0.18044816 66644:0.08094959 73643:0.16670822 73850:0.1291538 75506:0.18492526 76594:0.18923365 #
-0.4799999999999999822364316059975 207:0.07590653 685:0.036131907 1022:0.060273055 1138:0.1033124 1274:0.05720729 1317:0.1417093 1381:0.073413521 1556:0.072778687 1802:0.093559101 1910:0.10322196 2186:0.16138506 2379:0.19458421 3121:0.13896158 3521:0.15668394 3574:0.13696659 4404:0.16516732 6862:0.13483366 7679:0.14029378 7886:0.076147392 7957:0.20376427 9885:0.18807083 10634:0.20376427 11050:0.17540064 11891:0.13277398 12008:0.19150373 14039:0.20376427 17874:0.20376427 18980:0.18807083 25187:0.055631693 25997:0.063037567 33786:0.088298909 35081:0.066846557 48612:0.079887249 51575:0.10007247 59873:0.052532397 59875:0.085448869 59938:0.13430092 59991:0.058226433 60009:0.10213768 60068:0.11554757 60075:0.13593832 60157:0.10413083 60196:0.13896158 60210:0.062678538 60222:0.16148026 60856:0.13770343 61457:0.18807083 61549:0.10018888 61979:0.15401722 62430:0.15401722 62468:0.10616407 62533:0.14029378 63393:0.1417093 63425:0.15052712 63576:0.10126437 63669:0.13537925 64042:0.079118825 66949:0.06374982 73748:0.064055301 73878:0.087552063 #
-0.026297298741971054242272387568846 94:0.080603205 471:0.053150043 589:0.084730573 685:0.051623683 747:0.092559747 1022:0.043057747 1862:0.066528484 1895:0.073519513 1910:0.024579834 2234:0.059234668 2455:0.11002652 2671:0.14556472 3305:0.11528995 3498:0.079751737 3574:0.04892296 3676:0.075950198 4732:0.14556472 5510:0.10288026 7057:0.14556472 7348:0.14556472 8856:0.13435367 9987:0.13074452 10280:0.14556472 13648:0.12779562 13855:0.14556472 15619:0.14556472 19165:0.13900667 19451:0.13435367 19654:0.09837231 19780:0.050116852 19905:0.14556472 20248:0.13435367 20260:0.14556472 20286:0.060784005 20299:0.089764163 20356:0.14556472 22117:0.14556472 22496:0.14556472 22518:0.14556472 23128:0.14556472 24321:0.14556472 37621:0.059312616 38217:0.071080081 38279:0.056412213 38498:0.060529288 40243:0.079208024 40599:0.087381311 40729:0.092867836 41771:0.074289858 45031:0.083639763 59875:0.061042797 59883:0.076964937 59920:0.068403028 59945:0.060784005 59948:0.059273593 59991:0.041595686 60015:0.046520978 60031:0.087830625 60076:0.061618134 60082:0.071656324 60138:0.064254686 60173:0.046951834 60313:0.061982635 60325:0.062593058 60339:0.079208024 60580:0.13074452 60977:0.091101632 61148:0.083639763 61229:0.11002652 61279:0.11297541 61468:0.11528995 61761:0.093502194 62498:0.081196822 62767:0.093828954 63153:0.090553306 63162:0.1002228 63405:0.065238558 63870:0.12314261 64254:0.11095101 64326:0.088768519 64402:0.11095101 64438:0.10915203 64539:0.10678085 64570:0.093828954 64588:0.10537351 65053:0.14556472 65057:0.13435367 65285:0.14556472 65353:0.10471325 66222:0.13074452 70201:0.069247089 70241:0.051526196 70348:0.072253853 70612:0.067600846 70622:0.072516851 71321:0.089258678 71537:0.077437207 72157:0.071080081 73275:0.079342246 #
-0.27377326494421644342835975294292 524:0.029018905 678:0.06367407 685:0.041144967 750:0.045447152 1232:0.099868149 1857:0.037714746 1910:0.019590551 1939:0.056023095 3150:0.060976654 3365:0.071749851 5177:0.11601759 7004:0.032180052 7791:0.11079072 9431:0.11601759 12481:0.11601759 15568:0.076170772 16224:0.065980107 25187:0.031675108 25793:0.075881071 26249:0.07772579 26318:0.062814444 26548:0.057111323 27243:0.11601759 30130:0.060709007 30765:0.11079072 31287:0.096628435 34161:0.096628435 37123:0.036757298 37129:0.089211382 37142:0.084533148 37255:0.083458267 37266:0.10399251 37441:0.045886975 37503:0.069295987 37560:0.10420563 37623:0.11601759 37630:0.070185378 37723:0.10420563 37898:0.073061936 38154:0.062405169 38162:0.075881071 38166:0.071959466 38200:0.10293643 38279:0.044961505 38562:0.071749851 38648:0.064715266 38684:0.10786225 38710:0.11079072 38797:0.066248685 39250:0.1070822 39337:0.1070822 40054:0.098146789 40415:0.061067116 41859:0.11601759 43092:0.11601759 43520:0.11601759 44000:0.075049102 44674:0.099868149 44988:0.1070822 45021:0.10420563 45047:0.099868149 45154:0.11601759 45310:0.11601759 45514:0.094041578 45787:0.11601759 46071:0.11601759 46229:0.0681457 46350:0.090932742 46459:0.11079072 46809:0.11601759 46888:0.11601759 47136:0.11601759 59871:0.052268609 59919:0.059448291 59959:0.088818163 60015:0.037078023 60181:0.029117513 60319:0.064715266 63375:0.054035928 63420:0.1070822 63636:0.081997342 63883:0.070559055 64018:0.056023095 64161:0.095270231 66615:0.065459184 66801:0.050393339 66932:0.065717019 66969:0.089211382 67081:0.057797182 67760:0.11079072 68037:0.086334825 68572:0.094041578 69279:0.1070822 70105:0.060274925 70107:0.071959466 70145:0.12037967 70154:0.085705869 70184:0.086334825 70202:0.12583765 70207:0.09608604 70224:0.057867818 70238:0.090932742 70241:0.041067269 70248:0.056587759 70295:0.069822222 70298:0.051685609 70405:0.052268609 70439:0.075597741 70458:0.066522971 70532:0.11601759 70575:0.077399418 70612:0.053879037 70622:0.057797182 71134:0.11601759 71257:0.084533148 71537:0.061718788 71793:0.086996049 71850:0.090043351 71853:0.071543589 72270:0.099868149 72271:0.11601759 72379:0.073530756 72461:0.061067116 72666:0.11601759 72795:0.083458267 72815:0.092919908 72978:0.089211382 72999:0.11079072 73011:0.11079072 73016:0.086996049 73093:0.086996049 73120:0.10185532 73248:0.083984509 73341:0.079120785 73438:0.076170772 #
1.8921167920803909634486217328231 678:0.027963648 1274:0.028609378 1314:0.091527678 1378:0.027066883 1817:0.063020557 1910:0.017207108 2606:0.080708705 3574:0.034248512 3698:0.02828191 12008:0.04788553 13502:0.062485524 18811:0.07702405 25187:0.027821423 25997:0.031525102 35081:0.03342998 37123:0.1614265 37266:0.091340482 37361:0.060134485 37381:0.091527678 37621:0.041521788 37646:0.056224067 37674:0.079869606 37681:0.10190256 37840:0.10190256 37859:0.063020557 37898:0.064173013 38179:0.10190256 38200:0.045206446 38252:0.076411858 38261:0.10190256 38279:0.23694816 38325:0.10190256 38348:0.10190256 38498:0.042373519 38527:0.082600214 38629:0.048030388 38648:0.17052546 38684:0.047369707 38805:0.065231979 39025:0.10190256 39229:0.10190256 39297:0.054812778 39337:0.094054267 39736:0.10190256 39766:0.10190256 40241:0.097311601 40312:0.15534247 40547:0.049703129 40599:0.061171275 40920:0.091527678 41205:0.097311601 41462:0.094054267 41890:0.094054267 41891:0.068563566 42047:0.10190256 42570:0.068865523 42628:0.10190256 42757:0.10190256 43579:0.10190256 43703:0.10190256 43901:0.10190256 44233:0.10190256 44309:0.10190256 44488:0.10190256 45012:0.10190256 45022:0.090949357 45295:0.086205967 45519:0.097311601 45571:0.05526394 45622:0.10190256 46024:0.091527678 46079:0.10190256 46229:0.059854899 46437:0.10190256 59982:0.062839389 60068:0.057785366 60308:0.057055462 61631:0.063020557 62759:0.063391827 63182:0.07086885 66949:0.031881299 70103:0.14486617 70104:0.040452566 70145:0.052866966 70154:0.075278647 70204:0.059055317 70207:0.042197969 70214:0.067982785 70219:0.083679378 70237:0.087717906 70240:0.058800865 70241:0.036070906 70248:0.049703129 70250:0.097311601 70266:0.054550461 70298:0.04539739 70303:0.033443373 70306:0.048577964 70326:0.07702405 70368:0.097311601 70377:0.043358721 70392:0.068865523 70405:0.091818921 70445:0.056224067 70451:0.089463308 70535:0.06358213 70543:0.07702405 70603:0.081615008 70612:0.094647922 70692:0.062839389 70765:0.067430347 70883:0.089463308 70891:0.083679378 71160:0.078357667 71254:0.07086885 71280:0.10190256 71288:0.078357667 71294:0.07702405 71385:0.10190256 71451:0.097311601 71537:0.054209903 71793:0.076411858 71819:0.089463308 71829:0.10190256 71923:0.091527678 72072:0.07908842 72086:0.10190256 72115:0.067163922 72308:0.089463308 72698:0.082600214 72820:0.082600214 72942:0.074751914 73065:0.089463308 73078:0.10190256 73166:0.097311601 73193:0.087717906 73233:0.10190256 73381:0.091527678 73395:0.10190256 73438:0.066903614 73450:0.082600214 #
1.2031692836919554157049105924671 226:0.060447812 380:0.058869999 678:0.021372804 693:0.042671394 750:0.030509535 1692:0.0354666 1964:0.025150964 2091:0.059364647 3574:0.10470547 11710:0.063956715 24623:0.033750489 37123:0.12337936 37199:0.077884816 37266:0.034906071 37441:0.12321918 37585:0.052634381 37588:0.074375913 37635:0.14875183 37737:0.069955222 37832:0.065887801 37859:0.048167035 38140:0.077884816 38195:0.056748703 38200:0.034551591 38279:0.33201864 38359:0.064868502 38387:0.058402099 38472:0.037050851 38499:0.073795356 38507:0.1565364 38557:0.039286654 38562:0.048167035 38629:0.036709949 38703:0.061044879 38705:0.077884816 38709:0.077884816 38739:0.05474269 38786:0.053366143 38832:0.077884816 38926:0.077884816 39247:0.068377405 39297:0.083787546 39317:0.077884816 39524:0.077884816 39539:0.065887801 39644:0.059364647 40290:0.055687703 40345:0.077884816 40547:0.037988435 40631:0.133422 40739:0.077884816 40974:0.077884816 41164:0.077884816 41232:0.069955222 41407:0.077884816 41771:0.15899599 41773:0.077884816 42103:0.068377405 42220:0.077884816 42270:0.077884816 42360:0.077884816 42389:0.077884816 42528:0.061044879 42606:0.077884816 42614:0.05474269 42724:0.077884816 43106:0.077884816 43563:0.074375913 43625:0.077884816 43674:0.065887801 43758:0.077884816 43805:0.077884816 44222:0.077884816 44278:0.077884816 44618:0.077884816 44645:0.051333837 44764:0.074375913 44773:0.054449305 44991:0.077884816 46092:0.077884816 46229:0.045747504 46365:0.074375913 46665:0.077884816 46725:0.077884816 46907:0.077884816 47039:0.17681976 59794:0.036709949 70086:0.053115282 70097:0.062378898 70133:0.077884816 70139:0.063131899 70140:0.042168528 70177:0.069955222 70185:0.064868502 70186:0.074375913 70196:0.046753619 70203:0.046291959 70207:0.064504385 70241:0.11027694 70255:0.042452291 70259:0.068377405 70265:0.032252192 70266:0.041693285 70298:0.069395065 70301:0.054449305 70303:0.025560994 70327:0.14426385 70329:0.09067066 70338:0.045538962 70345:0.034697533 70347:0.051959701 70363:0.056380395 70402:0.047625981 70437:0.1506027 70488:0.057535976 70498:0.04607005 70542:0.04034983 70543:0.058869999 70548:0.036031555 70565:0.077884816 70610:0.059889294 70619:0.051134884 70621:0.050940406 70622:0.038800344 70633:0.15318078 70648:0.056748703 70722:0.077884816 70725:0.058402099 70754:0.043284323 70832:0.057958208 70844:0.077884816 70876:0.077884816 70893:0.077884816 70994:0.046519712 71011:0.053624488 71124:0.074375913 71254:0.054165542 71284:0.077884816 71354:0.064868502 71374:0.077884816 71573:0.077884816 71613:0.060447812 71616:0.069955222 71703:0.074375913 71710:0.057133391 71756:0.063956715 71781:0.069955222 71874:0.040463701 71887:0.074375913 71995:0.063956715 72058:0.055361096 72091:0.0507502 72340:0.071886308 72347:0.059364647 72461:0.040995516 72483:0.061044879 72498:0.077884816 72509:0.056380395 72638:0.077884816 72654:0.055361096 72845:0.063956715 72997:0.051959701 73073:0.056380395 73077:0.06168621 73090:0.074375913 73104:0.11801047 73178:0.057535976 73190:0.077884816 73315:0.055361096 73377:0.056380395 73437:0.065887801 #
1.5897094855487852171904705755878 119:0.058593977 149:0.047987029 279:0.028194293 685:0.013511993 1321:0.059724566 1378:0.020239962 1802:0.034987632 2468:0.072767273 2494:0.027534569 2796:0.039258614 3375:0.033124406 3548:0.035218712 3574:0.02561021 12149:0.076200284 14198:0.046856441 19579:0.042194199 19855:0.05713895 20007:0.045627207 20128:0.068442188 20278:0.043876313 20286:0.031819236 20299:0.04698978 20339:0.047402877 21105:0.076200284 21613:0.070331514 21709:0.061766446 22559:0.076200284 23050:0.076200284 23097:0.076200284 24425:0.076200284 37123:0.14485301 37153:0.054815333 37154:0.076200284 37250:0.076200284 37326:0.076200284 37378:0.076200284 37441:0.030138534 37513:0.051050249 37521:0.045073621 37562:0.060352027 37621:0.062097982 37630:0.046097711 37723:0.068442188 37742:0.14066303 37774:0.061029736 37797:0.076200284 37903:0.051495977 38134:0.076200284 38200:0.03380429 38238:0.058593977 38279:0.26577619 38472:0.10874848 38480:0.055897679 38499:0.036099635 38505:0.076200284 38516:0.034360174 38557:0.038436942 38562:0.047125254 38629:0.035915963 38648:0.085009888 38661:0.072767273 38684:0.035421927 38692:0.064462744 38731:0.058080677 39108:0.076200284 39141:0.076200284 39190:0.076200284 39297:0.081975348 39640:0.076200284 39654:0.045073621 39710:0.070331514 39791:0.056291558 39897:0.076200284 40009:0.076200284 40181:0.076200284 40210:0.065593332 40272:0.068442188 40312:0.11616135 40428:0.040856402 40478:0.072767273 40547:0.0371668 40631:0.043512091 40654:0.059140414 40688:0.076200284 40709:0.076200284 40719:0.058593977 40744:0.064462744 40798:0.064462744 40866:0.076200284 40882:0.076200284 41580:0.12892549 41764:0.076200284 41771:0.038889285 41793:0.076200284 42152:0.068442188 42190:0.076200284 42223:0.072767273 42659:0.076200284 43547:0.070331514 43578:0.064462744 43742:0.076200284 43745:0.065593332 43767:0.064462744 43768:0.076200284 43904:0.076200284 44164:0.076200284 44403:0.076200284 44737:0.076200284 44769:0.076200284 45812:0.076200284 46090:0.076200284 46101:0.070331514 46368:0.076200284 46458:0.054483257 46589:0.076200284 46627:0.076200284 47039:0.043248851 47072:0.076200284 60068:0.021605251 60173:0.024578366 61802:0.036755711 64277:0.043692242 64343:0.056291558 64347:0.050422788 64426:0.046595901 64595:0.042504944 64705:0.049838636 64725:0.03975844 64783:0.058593977 65251:0.061029736 65497:0.058593977 65632:0.068442188 66011:0.058080677 66203:0.061766446 70086:0.051966477 70093:0.10393295 70103:0.10832743 70104:0.030249454 70105:0.03958853 70106:0.048946567 70112:0.093191803 70131:0.056704655 70182:0.045513559 70191:0.066898502 70194:0.068442188 70196:0.045742404 70207:0.063109249 70221:0.05713895 70240:0.04396987 70241:0.10789181 70251:0.035525393 70261:0.056291558 70264:0.049470454 70298:0.033947073 70303:0.025008148 70322:0.066898502 70327:0.035285909 70334:0.038685255 70347:0.050835889 70389:0.054163717 70412:0.060352027 70435:0.051495977 70437:0.073672689 70450:0.066898502 70476:0.045627207 70477:0.061029736 70480:0.037510682 70492:0.052725211 70506:0.049838636 70514:0.065593332 70519:0.055897679 70537:0.063465491 70548:0.035252243 70585:0.05221191 70600:0.035879705 70619:0.050028913 70633:0.074933849 70648:0.055521313 70945:0.076200284 70984:0.070331514 70997:0.076200284 71186:0.065593332 71233:0.068442188 71255:0.066898502 71319:0.055897679 71328:0.068442188 71354:0.063465491 71388:0.066898502 71494:0.046595901 71665:0.072767273 71691:0.051495977 71707:0.072767273 71749:0.066898502 71782:0.070331514 71798:0.068442188 71801:0.068442188 71847:0.061029736 71874:0.03958853 71886:0.060352027 71889:0.064462744 71979:0.072767273 72101:0.068442188 72164:0.076200284 72245:0.076200284 72263:0.065593332 72289:0.051495977 72292:0.068442188 72303:0.068442188 72421:0.045073621 72461:0.040108841 72466:0.064462744 72524:0.066898502 72565:0.062573425 72572:0.072767273 72705:0.054815333 72785:0.068442188 72838:0.072767273 72842:0.068442188 72923:0.05299402 72938:0.055521313 73032:0.076200284 73104:0.038486023 73116:0.076200284 73193:0.065593332 73345:0.042910133 73349:0.076200284 73431:0.061029736 #
2.4302040257059238648196242138511 524:0.030697314 685:0.065287091 1022:0.036302656 1910:0.041447278 2351:0.091328301 3524:0.035404492 3698:0.034061745 6037:0.057050418 7004:0.0340413 7610:0.070667021 14866:0.11327566 18095:0.10221728 19591:0.056669328 19599:0.11327566 19780:0.08450859 20198:0.076576084 20286:0.051247936 20419:0.062802255 20821:0.068846099 21404:0.0994808 21523:0.10078052 21764:0.12272788 23678:0.11719869 37123:0.2332997 37621:0.050007384 37715:0.077287726 37734:0.12272788 37755:0.14074112 37759:0.11327566 38279:0.19024804 38323:0.11327566 38358:0.079970196 38472:0.058383297 38499:0.058141932 38529:0.11023273 38576:0.11719869 38629:0.11569223 38648:0.068458296 38805:0.078563109 39550:0.0994808 40374:0.12272788 40657:0.10774647 41781:0.12272788 41839:0.12272788 41887:0.12272788 41926:0.12272788 42391:0.12272788 42703:0.12272788 42718:0.072087146 43156:0.082221337 43421:0.12272788 43991:0.11719869 44348:0.12272788 44382:0.080889873 44506:0.11719869 44660:0.0994808 45022:0.10953622 45085:0.11719869 45455:0.11719869 46438:0.0994808 59798:0.052375577 59873:0.031640429 60056:0.062552035 60098:0.045153413 60181:0.030801626 61894:0.053141203 62486:0.040654346 63848:0.077046365 63929:0.050927062 64503:0.065087967 64530:0.07276912 64556:0.094371237 64692:0.077046365 64725:0.06403479 64796:0.096192159 65174:0.096192159 65233:0.089422412 65397:0.074842118 70110:0.058816243 70204:0.071124159 70207:0.050821759 70241:0.043442536 70243:0.084092304 70247:0.10564438 70298:0.10935006 70303:0.040278025 70345:0.16402508 70405:0.055291746 70483:0.081210747 70535:0.076576084 70542:0.12716341 70572:0.12272788 70600:0.057787713 70613:0.06222539 70658:0.11719869 70692:0.07568156 70697:0.10382345 70754:0.068205759 70994:0.07330396 71172:0.080889873 71287:0.081539363 71529:0.10382345 71928:0.096192159 71958:0.075466804 72069:0.097202741 72109:0.12272788 72439:0.07367254 72461:0.064599149 72528:0.085799113 72597:0.12272788 72797:0.087750524 72871:0.07330396 73360:0.097202741 73429:0.07568156 #
0.29060894721580343702527216009912 209:0.1160773 301:0.054491919 685:0.020583071 838:0.056051929 1022:0.068670854 1225:0.1160773 1274:0.03258897 1899:0.11084774 1910:0.039201267 3022:0.039685294 3428:0.11084774 3574:0.11703753 3698:0.032215953 7095:0.1160773 9020:0.1160773 9410:0.06486968 12008:0.10909291 13502:0.071177319 15100:0.1160773 15544:0.079161502 16038:0.10425927 16507:0.1160773 25187:0.063382819 25997:0.035910271 35081:0.038080122 35121:0.068661489 36323:0.045910589 37123:0.14710486 37361:0.068499252 37441:0.091821179 38154:0.062437285 38166:0.071996495 38200:0.051494706 38279:0.26990786 38437:0.08114969 38472:0.055219531 38499:0.054991245 38529:0.10425927 38557:0.058551706 38562:0.071786776 38629:0.10942291 38905:0.1160773 39027:0.1160773 39263:0.1160773 39297:0.062437285 39970:0.096678168 40631:0.13256556 40952:0.078100823 40982:0.1160773 41137:0.1160773 41580:0.098197296 41621:0.10425927 41771:0.05924077 43281:0.11084774 44506:0.11084774 44717:0.11084774 44966:0.09991955 44978:0.1160773 45094:0.082508601 45295:0.098197296 45347:0.11084774 45635:0.10190774 45898:0.087738164 46458:0.082995363 47039:0.065881781 59794:0.054711457 59982:0.07158041 59991:0.033169542 60015:0.037097104 60050:0.052433949 60068:0.065823361 60151:0.054169457 60210:0.035705745 60223:0.074055359 60245:0.048781637 60461:0.091935366 61231:0.053497281 61440:0.094089977 61774:0.068661489 62759:0.072209686 63405:0.052023012 63511:0.053247802 63711:0.065115355 63854:0.06450972 64064:0.079535373 66949:0.036316019 68177:0.069160819 70106:0.074561216 70169:0.092967734 70193:0.089257292 70207:0.14420325 70241:0.082176805 70298:0.10342442 70303:0.076190755 70327:0.10750336 70347:0.077439256 70377:0.049389962 70437:0.11222699 70445:0.064044885 70458:0.066557206 70516:0.075636648 70535:0.072426461 70585:0.079535373 70613:0.058853421 70633:0.11414813 70765:0.076809973 70985:0.10425927 71288:0.089257292 71382:0.1160773 71663:0.08114969 71770:0.095319264 71847:0.092967734 71874:0.12061189 71891:0.085149974 72461:0.12219709 72523:0.098197296 72565:0.095319264 72670:0.090089694 72791:0.098197296 72933:0.1071373 72997:0.077439256 73033:0.090089694 73104:0.11725295 #
-0.4799999999999999822364316059975 685:0.033966333 1274:0.053778555 1378:0.050879043 1910:0.032345109 2281:0.10938032 3574:0.064378731 3632:0.075350471 3698:0.053162996 9033:0.1114987 9572:0.11053108 25187:0.052297395 25997:0.059259392 35081:0.062840097 37441:0.075761989 37621:0.078050688 37769:0.19155161 37861:0.18292174 38279:0.33405295 38303:0.12779082 38498:0.079651736 38913:0.19155161 39383:0.1620459 39531:0.1620459 41153:0.19155161 41306:0.19155161 41771:0.097759545 41891:0.12888254 42848:0.13321592 43529:0.17204939 43556:0.11412968 45571:0.10388254 47039:0.10871859 59921:0.10765947 60173:0.061784886 62660:0.12220669 66949:0.059928954 70105:0.099517308 70203:0.11385146 70241:0.13560876 70327:0.08870142 70329:0.1114987 70334:0.097246654 70377:0.081503674 70437:0.18519779 70445:0.10568734 70498:0.11330569 70588:0.097759545 70612:0.08895734 70633:0.18836807 71305:0.15341602 71537:0.10190121 72125:0.14254367 72126:0.18292174 72255:0.13463536 72616:0.1405151 73033:0.14866666 73074:0.15729654 73077:0.1517124 73104:0.096745841 73331:0.13124985 #
-0.4799999999999999822364316059975 471:0.053512651 685:0.02598794 687:0.071402982 719:0.1316365 1442:0.12615722 1910:0.024747526 2796:0.07550703 3200:0.058651548 3574:0.1477702 3676:0.076468356 4612:0.13995503 8171:0.08115311 13491:0.088202074 19084:0.094804868 19290:0.13995503 19661:0.11269519 19780:0.10091753 19840:0.087537311 20069:0.070770495 20461:0.14655782 20564:0.14655782 20992:0.14655782 21151:0.14655782 21906:0.14655782 22647:0.12866749 24217:0.12615722 37231:0.13995503 37441:0.057966162 37621:0.059717268 37756:0.14655782 38279:0.2271883 39492:0.14655782 40631:0.083687842 41771:0.14959338 42679:0.14655782 43556:0.087321624 43599:0.14655782 45357:0.14655782 45697:0.11879689 46709:0.10140765 47039:0.083181553 59839:0.061679613 60053:0.10358214 60068:0.041553896 60076:0.062038515 60098:0.053920805 60173:0.047272157 60245:0.061591111 61228:0.076141566 61434:0.11486968 61810:0.085308634 61837:0.074996501 63042:0.088202074 63511:0.067230038 64315:0.090120114 64497:0.11879689 64508:0.12398273 64562:0.095147707 64660:0.13527028 64886:0.1220647 65068:0.14655782 65624:0.14655782 66316:0.12866749 70104:0.058179501 70172:0.088202074 70241:0.10375545 70265:0.060689762 70327:0.13573247 70338:0.17138363 70377:0.062359177 70437:0.14169645 70633:0.14412206 71362:0.13995503 71766:0.11077716 72058:0.10417438 72091:0.095497929 72120:0.12615722 73104:0.14804219 73359:0.092006378 #
-0.4799999999999999822364316059975 279:0.028193817 634:0.04360095 678:0.041820377 685:0.02702353 1543:0.070330322 1910:0.025733687 1939:0.036795311 2086:0.046096928 2281:0.043511353 2982:0.040167999 3237:0.088318795 3574:0.025609778 3632:0.029974325 3671:0.056290604 3698:0.021148175 9033:0.044354044 9572:0.043969125 19780:0.15740848 20040:0.056290604 20286:0.031818695 20339:0.047402076 20508:0.076198995 20823:0.070330322 20873:0.052724317 21404:0.061765403 21834:0.070330322 23496:0.072766043 23875:0.068441033 24044:0.0541628 37123:0.072425283 37333:0.0541628 37434:0.065592222 37441:0.030138025 37513:0.051049385 37552:0.076198995 37621:0.031048466 37630:0.046096928 37767:0.054482337 37858:0.061028704 38003:0.055520374 38080:0.076198995 38177:0.076198995 38217:0.074416801 38238:0.058592986 38279:0.31006697 38282:0.059139416 38303:0.050835028 38367:0.15239799 38420:0.04266398 38498:0.03168536 38499:0.036099024 38614:0.076198995 38629:0.07183072 38703:0.059723556 38712:0.043248121 38739:0.05355778 38865:0.059139416 38920:0.058592986 39144:0.076198995 39175:0.15239799 39227:0.076198995 39233:0.076198995 39255:0.076198995 39383:0.064461656 39531:0.064461656 39932:0.076198995 40210:0.065592222 40218:0.076198995 40261:0.065592222 40325:0.076198995 40419:0.076198995 40440:0.065592222 40547:0.037166175 40631:0.043511353 40966:0.068441033 41235:0.076198995 41605:0.076198995 41751:0.076198995 41771:0.038888626 41969:0.076198995 42083:0.072766043 42441:0.076198995 42529:0.065592222 42675:0.076198995 42805:0.072766043 43096:0.11944711 43170:0.076198995 43506:0.076198995 43556:0.045400646 43794:0.070330322 44180:0.076198995 44491:0.068441033 44511:0.072766043 44814:0.076198995 45011:0.076198995 45044:0.062572367 45539:0.059139416 45700:0.076198995 45796:0.076198995 46229:0.089514591 46374:0.076198995 46379:0.076198995 46498:0.068441033 46826:0.076198995 47039:0.043248121 59921:0.042826805 60173:0.024577949 62660:0.048613667 64281:0.041187782 64397:0.040411662 64443:0.059139416 64542:0.048613667 64625:0.045626435 64702:0.052463785 65211:0.070330322 65219:0.072766043 65445:0.064461656 65451:0.052211028 65912:0.063464418 65919:0.070330322 70093:0.051965598 70095:0.050028067 70103:0.1083256 70104:0.030248944 70137:0.068441033 70155:0.059139416 70180:0.059723556 70196:0.091483265 70201:0.072497763 70203:0.045289967 70205:0.064461656 70224:0.038006902 70238:0.059723556 70240:0.087938249 70241:0.080917493 70253:0.046988986 70263:0.047544379 70264:0.04946962 70320:0.055520374 70327:0.070570625 70329:0.044354044 70366:0.042909406 70405:0.10298822 70407:0.076198995 70437:0.073671445 70447:0.072766043 70461:0.09858273 70483:0.10084388 70486:0.044256162 70506:0.049837794 70508:0.059723556 70526:0.061028704 70528:0.076198995 70548:0.035251647 70550:0.058592986 70574:0.046988986 70588:0.038888626 70600:0.035879098 70612:0.035387117 70633:0.074932583 70669:0.076198995 70677:0.076198995 70725:0.057137981 70856:0.06689737 70943:0.068441033 70958:0.070330322 70983:0.068441033 71027:0.072766043 71141:0.076198995 71142:0.060351007 71175:0.072766043 71246:0.070330322 71281:0.059723556 71440:0.061765403 71537:0.040536176 71691:0.051495105 71697:0.06689737 71705:0.070330322 71803:0.056703698 71876:0.068441033 71886:0.060351007 71928:0.059723556 72048:0.076198995 72103:0.076198995 72150:0.076198995 72275:0.076198995 72282:0.076198995 72286:0.06689737 72317:0.10544863 72364:0.04911679 72438:0.061028704 72589:0.076198995 72616:0.055896733 72646:0.076198995 72649:0.072766043 72697:0.076198995 72713:0.060351007 72741:0.052211028 72744:0.06689737 72804:0.046988986 72871:0.045512788 73006:0.06689737 73077:0.060351007 73104:0.076970749 73232:0.064461656 73431:0.061028704 73462:0.06689737 #
-0.4799999999999999822364316059975 1292:0.15382516 1910:0.035408944 2011:0.19354573 2494:0.075772554 3573:0.15084666 3574:0.070476897 4449:0.17219619 6098:0.091227278 19591:0.09682668 19780:0.14439356 19958:0.13875878 21635:0.20969602 23289:0.20969602 23568:0.20969602 37441:0.082938418 38279:0.24379705 38507:0.1404855 38900:0.19354573 40631:0.11974119 41771:0.10701966 44069:0.20969602 44623:0.18050671 47039:0.11901678 60077:0.10408665 60355:0.087379359 61271:0.15084666 64299:0.15084666 64482:0.16124512 64680:0.2002487 65119:0.18409841 65130:0.20969602 70097:0.16794811 70103:0.14905347 70241:0.074227035 70327:0.097103514 70437:0.10137017 70610:0.16124512 70633:0.10310546 70856:0.18409841 71616:0.18834649 72028:0.20969602 73104:0.10590993 #
-0.1541443372205026363097601915797 207:0.074049123 632:0.10386475 685:0.035247777 1381:0.071617119 1556:0.070997819 1571:0.12329143 1910:0.033565387 2039:0.17854027 2982:0.10478517 3258:0.063072547 3602:0.23192704 5033:0.19877824 7886:0.074284092 9081:0.12905006 9428:0.19877824 12693:0.19877824 14776:0.12639645 16669:0.088630572 17739:0.18982281 24728:0.13206658 24827:0.19877824 25187:0.054270409 25422:0.081048705 25767:0.1834688 26310:0.057842735 27817:0.19877824 29493:0.19877824 29545:0.1834688 32285:0.19877824 33786:0.086138271 37101:0.15579922 48612:0.07793244 51575:0.097623736 59959:0.076088108 60080:0.096092351 60086:0.090030909 60123:0.10356628 60175:0.099514678 60181:0.049888365 60377:0.09630473 61509:0.12329143 62115:0.13433388 62471:0.13050686 63099:0.10401551 63834:0.10726946 64050:0.15579922 66644:0.058545772 66704:0.09630473 66793:0.17451337 66895:0.16112573 67015:0.10371501 67729:0.11108701 67742:0.15579922 67749:0.19877824 69897:0.19877824 73748:0.062487897 #
1.0418188538248538410613264204585 793:0.09005104 933:0.12115942 959:0.11704659 1245:0.19287582 1378:0.057037909 1381:0.077367477 1556:0.076698452 1830:0.087383665 1857:0.069806807 2649:0.16231239 3636:0.14644589 5906:0.20506425 7534:0.16512273 7886:0.080248594 9886:0.20506425 15303:0.20506425 16455:0.20506425 18713:0.20506425 25187:0.058627948 25337:0.093569301 26755:0.11665221 31330:0.12499551 34662:0.15752433 48612:0.25256962 50070:0.19231535 50558:0.15544823 51575:0.10546225 59876:0.15177014 59941:0.12555696 60292:0.070645079 60296:0.1848475 60325:0.092337996 60332:0.12956876 61627:0.13025051 61865:0.18852557 62034:0.19820009 62698:0.20506425 63561:0.13439418 66903:0.12444698 66932:0.12163664 67003:0.097521491 68247:0.1360992 68413:0.14577371 73643:0.13025051 73850:0.10090894 75506:0.14448366 76594:0.14784983 #
1.4765201206622544649604833466583 354:0.15345213 793:0.11826009 1381:0.10160332 1556:0.10072472 1857:0.091674224 2499:0.2028642 2615:0.23487729 3427:0.15615506 3698:0.07826788 4330:0.24275213 7886:0.10538696 9255:0.28200701 15174:0.28200701 16522:0.28200701 18518:0.26930192 25187:0.076993518 26755:0.15319423 33786:0.1222045 48612:0.11056288 51575:0.13849896 59868:0.13529408 59920:0.13251929 60013:0.13332625 60056:0.14373353 60361:0.13134655 60364:0.12936425 60602:0.18177772 60886:0.2149488 61502:0.19715121 64041:0.24758239 64174:0.21684845 66552:0.085448623 73748:0.088651679 #
1.5203394566962051825953494699206 267:0.12999307 524:0.13317281 685:0.14161606 793:0.11163662 1022:0.078745104 1378:0.070710115 1381:0.095912762 1556:0.095083371 1857:0.086539768 1862:0.12166898 1910:0.044952225 3436:0.26621246 3698:0.073884279 6037:0.12374966 7004:0.073839933 7667:0.14075543 7886:0.099484488 10458:0.20291002 12360:0.19150226 12509:0.26621246 13793:0.14905293 16020:0.22915617 17287:0.14250882 25187:0.072681293 25337:0.11599822 26755:0.14461419 31330:0.15495741 33786:0.11536011 34662:0.19528353 48612:0.10437051 51575:0.13074195 59798:0.11360933 59835:0.15049613 59873:0.068632141 59991:0.076071247 60098:0.097943537 60173:0.085866712 60181:0.066812664 60210:0.081887797 60335:0.11124169 61312:0.15296254 61477:0.17615651 61837:0.13622612 61894:0.11527007 62486:0.088184483 63929:0.11046731 63935:0.18071623 64042:0.10336659 66903:0.1542774 66932:0.15079342 67003:0.12089777 68247:0.16872272 68413:0.18071623 73748:0.083686508 #
1.3839000807108090551622581187985 246:0.20761858 685:0.11044608 809:0.09090206 933:0.11714209 1279:0.12251936 1381:0.14960434 1556:0.14831066 1686:0.13478935 1818:0.088079363 1857:0.067492194 2235:0.15449995 3258:0.065877594 4507:0.18227455 5137:0.17563798 7534:0.15964767 7738:0.20761858 7886:0.15517551 12915:0.20761858 13435:0.20761858 15078:0.19826485 16254:0.20761858 18017:0.19826485 25187:0.056683995 33574:0.10330487 33786:0.089969121 48612:0.081398353 51575:0.10196539 59816:0.14438979 59923:0.14757681 59941:0.12139381 59991:0.059327815 60014:0.10848396 60015:0.066352747 60209:0.10459398 60210:0.063864127 60232:0.13033922 60290:0.16113652 60629:0.19826485 61253:0.19826485 61589:0.18227455 61910:0.16829152 62379:0.15449995 62392:0.15568325 62568:0.20761858 62871:0.1415901 64042:0.080615401 66644:0.061149497 73748:0.065266937 #
-0.4799999999999999822364316059975 793:0.09005104 933:0.12115942 959:0.11704659 1245:0.19287582 1378:0.057037909 1381:0.077367477 1556:0.076698452 1830:0.087383665 1857:0.069806807 2649:0.16231239 3636:0.14644589 5906:0.20506425 7534:0.16512273 7886:0.080248594 9886:0.20506425 15303:0.20506425 16455:0.20506425 18713:0.20506425 25187:0.058627948 25337:0.093569301 26755:0.11665221 31330:0.12499551 34662:0.15752433 48612:0.25256962 50070:0.19231535 50558:0.15544823 51575:0.10546225 59876:0.15177014 59941:0.12555696 60292:0.070645079 60296:0.1848475 60325:0.092337996 60332:0.12956876 61627:0.13025051 61865:0.18852557 62034:0.19820009 62698:0.20506425 63561:0.13439418 66903:0.12444698 66932:0.12163664 67003:0.097521491 68247:0.1360992 68413:0.14577371 73643:0.13025051 73850:0.10090894 75506:0.14448366 76594:0.14784983 #
-0.24452974054896814415371864015469 524:0.10380614 1274:0.11651697 1334:0.1720961 1381:0.14952502 1556:0.14823203 1606:0.38305333 1910:0.070079125 3698:0.1151833 6037:0.19292188 6195:0.41501698 7004:0.11511417 7886:0.15509324 12620:0.1866477 25187:0.11330788 25997:0.12839179 33786:0.17984284 35081:0.13614976 48612:0.1627104 51575:0.20382266 59798:0.17711341 59873:0.10699538 60181:0.10415888 60220:0.27923775 60439:0.30042854 61894:0.17970246 62486:0.13747686 66949:0.12984248 73748:0.13046467 #
-0.4799999999999999822364316059975 677:0.17240286 678:0.13637665 1274:0.13952582 1381:0.17905203 1556:0.17750371 3524:0.14336607 4426:0.2578283 7886:0.18571982 25187:0.27136603 25997:0.15374558 32517:0.17810069 33786:0.21535678 35081:0.16303554 35121:0.29396603 36323:0.19656076 48612:0.19484115 51575:0.24407193 59988:0.21021633 66552:0.15058316 66949:0.15548272 68177:0.29610384 68818:0.34562215 73748:0.1562278 #
-0.21579589430531395666257310494984 388:0.12763777 471:0.08607778 685:0.041802902 780:0.21758902 1274:0.13237223 2458:0.11715807 2800:0.14376277 3022:0.080598295 3258:0.074802324 3375:0.2049581 4710:0.23574559 5444:0.23574559 10989:0.21174391 12204:0.22512467 13171:0.23574559 15352:0.12063563 18445:0.23574559 18860:0.18477364 25187:0.064363226 25997:0.072931468 35081:0.077338293 37123:0.074690141 38279:0.091360942 38712:0.13380168 41240:0.21758902 41305:0.10363609 59806:0.13662101 59944:0.11285854 59985:0.10958704 59991:0.067365222 60015:0.075341851 60039:0.10023355 60068:0.06684152 60245:0.099072389 60344:0.10937579 61681:0.14496271 61748:0.13489328 61764:0.13199446 62594:0.20293021 63405:0.10565542 63462:0.19358733 63567:0.11891478 63953:0.17415273 66949:0.07375551 70115:0.13752958 70265:0.097622521 70377:0.10030786 72082:0.15662737 #
-0.4799999999999999822364316059975 524:0.14283957 1381:0.20574978 1556:0.20397058 1910:0.096430443 3067:0.36682341 3698:0.1584948 6037:0.26546481 7004:0.15839967 7886:0.21341176 17687:0.40592265 24623:0.24746777 48612:0.22389315 51575:0.28046453 59798:0.24371202 59873:0.14722805 60181:0.14332494 61894:0.24727462 62486:0.18917125 73748:0.17952231 #
0.4526706508384967242442087353993 207:0.033462919 279:0.03323666 471:0.032798968 685:0.015928525 1402:0.039586429 1496:0.092057303 1893:0.053787339 1964:0.05801557 2890:0.064618699 3133:0.080682635 3222:0.061260343 3520:0.060979169 3574:0.060380861 8474:0.089828208 11266:0.048318051 11391:0.074815884 12095:0.071944505 14733:0.073764272 16148:0.089828208 19780:0.061854366 19842:0.056932189 20007:0.053787339 20126:0.089828208 20189:0.073764272 20876:0.089828208 21563:0.089828208 22845:0.078862868 23898:0.085781224 24400:0.089828208 37123:0.056919679 37266:0.16103524 37321:0.071145594 37333:0.063850544 37441:0.07105723 37473:0.057118755 37521:0.053134747 37547:0.067357875 37585:0.060705695 37641:0.078862868 37708:0.098774016 37849:0.058317926 38083:0.067357875 38198:0.064227238 38217:0.043863624 38252:0.13471575 38279:0.26109046 38443:0.046028651 38498:0.037352715 38638:0.082909845 38753:0.089828208 39089:0.085781224 39119:0.085781224 40162:0.089828208 40243:0.048879385 40547:0.087627687 40631:0.10258789 40684:0.14752854 40719:0.069073133 41683:0.089828208 41771:0.09168876 41890:0.082909845 42104:0.089828208 42258:0.089828208 42376:0.069717295 42482:0.089828208 42915:0.089828208 43392:0.085781224 43451:0.078862868 43824:0.073764272 44125:0.067357875 44279:0.089828208 44424:0.085781224 44535:0.089828208 44631:0.089828208 44667:0.089828208 44889:0.072812974 44986:0.089828208 45425:0.067897528 45445:0.089828208 46159:0.089828208 46283:0.085781224 46470:0.080682635 47039:0.10196725 47040:0.089828208 59918:0.033305731 60070:0.04566345 60077:0.044587959 60082:0.044219222 60292:0.029551817 60340:0.04947418 60560:0.047423627 60628:0.055553298 60898:0.080682635 62413:0.065026149 62942:0.053653363 64314:0.071944505 64415:0.056932189 64487:0.061260343 64580:0.078862868 64677:0.072812974 65496:0.085781224 65696:0.085781224 66100:0.089828208 66217:0.073764272 70093:0.061260343 70165:0.060705695 70175:0.057901986 70201:0.042732481 70214:0.059927557 70240:0.10366719 70241:0.095390677 70248:0.087627687 70255:0.048962217 70266:0.048086818 70271:0.065450937 70320:0.065450937 70327:0.12478969 70348:0.044587959 70377:0.03822118 70380:0.067357875 70386:0.065894619 70437:0.086848579 70486:0.052171968 70502:0.063850544 70506:0.11750391 70519:0.065894619 70538:0.065026149 70566:0.04714245 70588:0.04584438 70622:0.044750255 70633:0.088335283 70757:0.078862868 70809:0.074815884 70908:0.082909845 70926:0.082909845 71122:0.068468027 71148:0.080682635 71195:0.072812974 71223:0.073764272 71271:0.082909845 71477:0.085781224 71519:0.082909845 71520:0.089828208 71591:0.06348756 71700:0.073764272 71800:0.067897528 71803:0.066845916 71886:0.071145594 71889:0.075991489 72067:0.078862868 72115:0.059205718 72125:0.066845916 72139:0.069717295 72157:0.043863624 72423:0.078862868 72459:0.089828208 72745:0.066358939 73035:0.089828208 73058:0.082909845 73104:0.136107 73157:0.075991489 73163:0.06043952 73377:0.065026149 #
0.38933485063591760644285955095256 207:0.090025611 678:0.066316828 693:0.13240336 3574:0.08122161 3698:0.067071594 19780:0.16640739 21316:0.23077805 37266:0.21661732 37441:0.095582977 38006:0.21216553 38166:0.1498922 38279:0.18731044 38516:0.10897171 39850:0.19140367 40631:0.1379966 41771:0.12333558 42023:0.24166569 42573:0.23077805 44000:0.15632795 46198:0.2012779 46229:0.1419481 47039:0.13716175 64602:0.21706127 70106:0.15523179 70145:0.12537597 70241:0.085543483 70248:0.1178728 70295:0.14544031 70327:0.11190764 70405:0.10887598 70437:0.11682478 70492:0.16721557 70633:0.11882462 70875:0.19844873 71257:0.1760833 71440:0.19588944 71853:0.14902593 72416:0.2012779 73104:0.12205666 73438:0.15866439 #
0.90038435230654556562512880191207 301:0.074831776 524:0.039871123 1274:0.044753253 1857:0.051818952 1964:0.10295161 2361:0.11397453 3455:0.11266194 3524:0.045985024 3574:0.053574469 3698:0.044241 4608:0.15940477 5167:0.11397453 11559:0.15222318 11890:0.093847513 13793:0.089251071 15389:0.14712778 25187:0.043520667 25997:0.049314279 35081:0.052294053 37266:0.14288265 37441:0.063047349 37621:0.064951956 37773:0.1372159 37780:0.15940477 38245:0.14712778 38279:0.24710314 38695:0.11862151 38895:0.083656698 40631:0.091023743 40730:0.13089849 41048:0.15940477 41459:0.15940477 41771:0.081353202 43556:0.094976045 44048:0.15222318 45024:0.15940477 46418:0.15940477 46696:0.15940477 47039:0.090473063 59798:0.068027869 59918:0.059102733 60076:0.067476675 60168:0.10425836 60181:0.040006608 60190:0.083656698 60214:0.092786603 60872:0.14712778 61500:0.1120404 61787:0.10725303 61894:0.069022305 62745:0.10922305 63439:0.11143994 66949:0.049871475 70172:0.095933683 70241:0.11285044 70265:0.0660097 70273:0.12048765 70327:0.14763048 70381:0.12766923 70404:0.15940477 70437:0.15411726 70442:0.15940477 70633:0.15675549 71549:0.15940477 72058:0.11330608 72218:0.15940477 72347:0.12150004 72857:0.15940477 72889:0.15940477 73104:0.16101924 73350:0.10239222 #
1.7625291692460010040122142527252 207:0.070138462 320:0.14350937 471:0.06874682 685:0.033386279 809:0.082435191 1214:0.11084768 1381:0.067834891 1556:0.0672483 1571:0.11678019 1584:0.17979792 1964:0.12160096 2439:0.12840202 2814:0.18828042 3258:0.059741572 3375:0.08184585 3574:0.063279308 4099:0.16911124 4659:0.16911124 5180:0.18828042 5195:0.18828042 7574:0.18828042 7886:0.070361018 9081:0.12223469 10873:0.17979792 11616:0.18828042 13606:0.18828042 18211:0.18828042 25187:0.051404294 33574:0.093682773 37441:0.074468173 37621:0.076717786 38279:0.2188988 40631:0.10751239 41771:0.096090071 44976:0.1526164 45022:0.1680427 45031:0.10818369 47039:0.10686196 59918:0.069808997 59959:0.072069757 59991:0.053801861 60015:0.060172468 60076:0.079699859 60086:0.085276216 60123:0.098096758 60168:0.12314442 60181:0.047253672 60243:0.0717884 60377:0.091218702 60655:0.10369815 60992:0.087607577 61500:0.13233614 62115:0.12723948 62471:0.12361456 62745:0.12900844 63405:0.084382683 63439:0.13162692 63834:0.10160436 64018:0.090917684 66644:0.055453867 70104:0.074742243 70201:0.089567512 70241:0.13329291 70327:0.087186627 70437:0.091017544 70633:0.092575617 71340:0.1338311 72157:0.091938399 72491:0.13811548 73104:0.095093675 73359:0.11819907 #
1.9578254233809158080248380429111 1274:0.058239706 1802:0.095247559 2611:0.15016584 3574:0.069719203 3676:0.10823523 25187:0.056635678 25997:0.064175196 35081:0.068052933 37123:0.065722726 37441:0.082046755 37896:0.2074416 38279:0.32156801 38437:0.1450225 38499:0.098274782 38723:0.2074416 40500:0.2074416 40547:0.10117995 40590:0.2074416 40654:0.16099916 40953:0.2074416 41771:0.1058691 41864:0.18632159 43356:0.2074416 43408:0.2074416 43898:0.19146493 45094:0.147451 47039:0.11773724 66949:0.064900309 70172:0.12484342 70207:0.085901804 70241:0.073429026 70265:0.085901804 70327:0.096059561 70345:0.092414819 70405:0.093457237 70421:0.14213756 70437:0.10028034 70458:0.11894429 70633:0.10199698 70754:0.11528523 71407:0.13371392 72058:0.147451 72425:0.19809584 73031:0.15114681 73106:0.16429757 73213:0.18632159 73341:0.14146942 73350:0.13324825 #
-0.4799999999999999822364316059975 524:0.035344955 1274:0.03967287 1802:0.064882606 1817:0.087391138 1910:0.023861244 2086:0.085485615 3150:0.074269414 3574:0.094985403 3698:0.07843753 7004:0.039195225 12008:0.06640327 13502:0.086649209 18811:0.1068099 25187:0.038580205 25997:0.043716125 35081:0.046357635 37123:0.089540593 37266:0.12666261 37441:0.055890221 37708:0.077690922 38166:0.087646447 38208:0.11454242 38210:0.10770736 38279:0.21905202 38443:0.072407871 38516:0.063719012 38573:0.11191945 38731:0.10770736 38805:0.090457737 39850:0.11191945 39914:0.12692221 39945:0.12692221 40471:0.12163916 40547:0.068923749 40631:0.080690734 40654:0.10967258 40684:0.23207781 41771:0.072117999 41795:0.1068099 42037:0.14130914 42166:0.14130914 42354:0.14130914 42625:0.12163916 43031:0.14130914 43776:0.14130914 45478:0.13042584 46498:0.12692221 46716:0.11454242 47039:0.080202572 59873:0.036430862 60068:0.040065728 60214:0.082253478 60292:0.046488095 60308:0.079119295 61631:0.087391138 61833:0.060215373 62743:0.10770736 63799:0.10229293 66949:0.044210069 70106:0.090768665 70145:0.073311076 70168:0.12405953 70205:0.11954255 70221:0.10596097 70241:0.05001983 70248:0.068923749 70272:0.10103615 70327:0.065435737 70437:0.068310939 70443:0.079421252 70492:0.097775944 70499:0.078532264 70516:0.092077859 70584:0.13494283 70585:0.096824057 70600:0.066536903 70633:0.069480307 70809:0.1176932 71303:0.14130914 71336:0.13494283 71543:0.10438953 71833:0.11454242 71936:0.0846131 72389:0.11954255 72410:0.11191945 72412:0.13494283 72416:0.1176932 72540:0.13494283 72565:0.1160389 72572:0.13494283 72819:0.14130914 72933:0.13042584 73104:0.071370177 73428:0.12163916 #
-0.4799999999999999822364316059975 171:0.08611013 790:0.29665104 1378:0.044875488 1817:0.10448481 1910:0.028528495 3574:0.056782253 11941:0.16894917 18692:0.11690088 25187:0.046126477 26061:0.15593709 33272:0.16894917 36266:0.16133758 37123:0.1070547 37213:0.094956018 37266:0.15143777 37441:0.13364466 37621:0.068840966 38279:0.26189852 38464:0.15593709 38681:0.14071395 39242:0.13873607 39297:0.090876743 40547:0.08240521 40631:0.096473813 40741:0.14543174 40933:0.16133758 41771:0.08622425 42745:0.16894917 42768:0.16894917 44210:0.16894917 44765:0.14543174 45022:0.15078932 45270:0.15174814 45571:0.091624744 47039:0.095890164 60068:0.047902569 60232:0.10606326 61295:0.1146898 66644:0.049760271 67078:0.10852298 67178:0.11632323 70216:0.11050086 70241:0.17941107 70248:0.08240521 70266:0.090441838 70327:0.078234948 70377:0.07188651 70437:0.16334507 70600:0.079551496 70633:0.16614127 70648:0.12310033 71800:0.12770188 72115:0.11135429 72174:0.1146898 72421:0.099935994 72491:0.1239348 72923:0.11749689 73104:0.085330151 73140:0.1146898 73377:0.12230138 #
-0.4799999999999999822364316059975 678:0.036879428 685:0.023830783 1022:0.039753065 1857:0.043688063 1964:0.043398757 2538:0.11369141 3574:0.04516812 3632:0.052865896 3698:0.037299164 5472:0.084369279 9033:0.078227498 12021:0.13439262 13793:0.075246722 24497:0.1033408 24689:0.043895707 24698:0.066312246 25187:0.036691856 25666:0.1179873 25694:0.090036117 25769:0.11193258 25808:0.058888875 26306:0.064967386 26310:0.039107081 26446:0.07805486 27155:0.13439262 27159:0.13439262 28226:0.088234805 28607:0.090424001 29726:0.091231376 32428:0.12404202 32860:0.12404202 34798:0.13439262 35303:0.13439262 36260:0.12070987 37123:0.042578969 37266:0.12046298 37441:0.053154618 37671:0.13439262 38154:0.072288983 38166:0.0833565 38200:0.059619825 38279:0.20833029 38395:0.11369141 38472:0.063932374 38557:0.067790322 38731:0.10243551 39010:0.1283379 40631:0.076741241 41771:0.068588108 42255:0.11369141 42256:0.1179873 44000:0.086935483 44739:0.13439262 45022:0.11994716 45261:0.13439262 45313:0.13439262 46229:0.078938715 46232:0.12404202 46458:0.096090831 46558:0.11369141 47039:0.076276973 59921:0.075533897 59991:0.038403217 60210:0.041339595 60214:0.078227498 61476:0.10893602 64011:0.099280082 64042:0.052182782 66581:0.084369279 66646:0.06044108 66708:0.095527261 66751:0.10644144 66811:0.079931647 66979:0.081516296 67009:0.070222259 67116:0.10077461 67243:0.12404202 67254:0.087899223 68470:0.096090831 68627:0.074964963 68690:0.09253069 68976:0.11193258 69751:0.11369141 70088:0.1156854 70142:0.11193258 70207:0.055652142 70241:0.047571559 70248:0.065550208 70266:0.071943037 70295:0.080880769 70327:0.062232919 70405:0.060546987 70437:0.064967386 70492:0.092990197 70515:0.088929474 70585:0.092084907 70600:0.06328018 70633:0.066079527 70786:0.13439262 70819:0.094460182 70875:0.11035926 71067:0.12070987 71372:0.12404202 71672:0.13439262 71853:0.08287476 71997:0.11369141 72115:0.088578098 72871:0.080271177 72933:0.12404202 73014:0.1179873 73104:0.06787689 #
-0.4799999999999999822364316059975 399:0.086274885 471:0.031501547 1260:0.048305493 1378:0.022915931 1436:0.077491082 1802:0.039613426 1857:0.028046051 1964:0.055720657 2650:0.049366362 3084:0.068331301 3574:0.028996192 4070:0.086274885 5102:0.086274885 10758:0.086274885 12365:0.086274885 19545:0.086274885 19780:0.059407599 19842:0.054680131 20007:0.051659681 20286:0.036026124 22360:0.086274885 22734:0.086274885 22845:0.075743303 24143:0.075743303 37123:0.16400434 37251:0.068331301 37255:0.062062588 37266:0.23199777 37361:0.050912321 37427:0.066340812 37441:0.034123216 37467:0.086274885 37592:0.062062588 37621:0.035154045 37708:0.18973365 37715:0.0543315 37755:0.04946889 37858:0.069098607 37903:0.058304369 37984:0.079630196 38210:0.065759651 38217:0.042128518 38279:0.10030501 38351:0.086274885 38443:0.044207901 38480:0.063288033 38498:0.035875157 38516:0.038903005 38573:0.068331301 38629:0.12199348 38695:0.064201698 38752:0.062062588 38787:0.075743303 38872:0.086274885 39297:0.046406742 39334:0.086274885 39601:0.086274885 39650:0.086274885 39797:0.086274885 39914:0.077491082 39945:0.077491082 40191:0.079630196 40243:0.04694587 40416:0.068331301 40428:0.046258114 40599:0.051790107 40631:0.049264919 41009:0.086274885 41131:0.077491082 41254:0.086274885 41519:0.075743303 41771:0.04403092 41821:0.082387991 41870:0.082387991 41928:0.086274885 42027:0.086274885 42656:0.086274885 42669:0.086274885 42776:0.086274885 43219:0.077491082 43712:0.063288033 43896:0.086274885 44571:0.064201698 44635:0.086274885 45031:0.049572527 45036:0.086274885 45039:0.082387991 45498:0.086274885 45867:0.062453918 46218:0.086274885 46460:0.077491082 46695:0.079630196 46773:0.082387991 46913:0.077491082 47039:0.048966877 59918:0.031988263 59978:0.048214626 60086:0.039075736 60377:0.041798737 61672:0.079630196 61838:0.051404033 62471:0.056643341 64415:0.054680131 64530:0.051155023 64588:0.062453918 64677:0.069932722 66024:0.079630196 66180:0.074265569 66217:0.070846394 70104:0.034248803 70105:0.044822618 70112:0.052756447 70136:0.086274885 70141:0.082387991 70175:0.055611566 70197:0.0669595 70201:0.041042119 70203:0.051278718 70241:0.061078213 70243:0.059114959 70248:0.042080704 70266:0.046184655 70276:0.067620881 70298:0.038435291 70306:0.041128095 70314:0.072985508 70327:0.039951134 70345:0.038435291 70348:0.042824198 70350:0.055417899 70402:0.052756447 70437:0.041706558 70443:0.04848985 70484:0.077491082 70499:0.047947086 70506:0.056427911 70566:0.18111058 70587:0.05261229 70599:0.05580923 70600:0.16249375 70612:0.040066402 70617:0.06132482 70622:0.042980075 70633:0.042420506 70648:0.062861905 71011:0.05940114 71077:0.077491082 71090:0.18618777 71100:0.068331301 71268:0.086274885 71313:0.072985508 71537:0.045896325 71591:0.060976189 71674:0.054859318 71693:0.086274885 71872:0.074265569 71936:0.051659681 72017:0.070846394 72157:0.042128518 72419:0.075743303 72441:0.086274885 72547:0.086274885 72745:0.063733988 72777:0.074265569 72779:0.086274885 72807:0.070846394 72809:0.086274885 72923:0.060000475 72996:0.068331301 73040:0.070846394 73104:0.043574344 73105:0.086274885 73142:0.068331301 73156:0.066340812 73157:0.072985508 73256:0.056217216 73275:0.047025427 73276:0.067620881 73314:0.086274885 73315:0.06132482 73327:0.066340812 73435:0.064693414 #
