SVM-light Version V6.02
0 # kernel type
3 # kernel parameter -d 
1 # kernel parameter -g 
1 # kernel parameter -s 
1 # kernel parameter -r 
empty# kernel parameter -u 
11434 # highest feature index 
5960 # number of training documents 
1422 # number of support vectors plus 1 
1.6315957 # threshold b, each following line is a SV (starting with alpha*y)
-0.8711202163691366129327775524871 114:0.14760932 120:0.15063475 256:0.11374213 279:0.10352074 291:0.19164066 301:0.16239423 316:0.070002906 754:0.15825821 966:0.1449407 1054:0.091705471 1599:0.097826689 1615:0.075881027 1616:0.055700146 1621:0.081454702 3553:0.16150045 3780:0.13971771 3781:0.08443936 3793:0.18183738 3795:0.18277495 3802:0.23740637 3803:0.075801529 3805:0.215856 3809:0.10749035 3819:0.097002707 5008:0.10915706 5015:0.098573111 5035:0.087748736 5039:0.086315915 5041:0.085816562 5047:0.07774771 5050:0.077834353 5055:0.073936164 7458:0.18314953 7707:0.17552607 7872:0.17552607 8036:0.20390998 8180:0.16528541 8286:0.16744485 8531:0.16528541 8815:0.14255355 8904:0.13660915 9006:0.13238166 9021:0.12574343 9047:0.11791538 9122:0.087816067 10455:0.071414195 10458:0.060057212 10460:0.099121734 10486:0.15982139 10501:0.12841205 10508:0.10578833 10510:0.10158306 10524:0.18373232 10532:0.080946758 10533:0.09268716 10539:0.094424181 10547:0.12801103 11427:0.025856355 11430:0.025856355 11432:0.037310824 11433:0.037310824 #
6.8384433575339746980148447619285 43:0.14372002 260:0.20324934 304:0.14328863 309:0.26192829 313:0.11217356 315:0.095671654 316:0.067530379 921:0.27503699 1021:0.2316184 1027:0.22951132 1034:0.21161589 1056:0.17088379 1594:0.19551505 1616:0.053732794 1620:0.079715744 3766:0.2049751 3771:0.19769514 3794:0.17294937 3798:0.17156152 3802:0.15268072 3805:0.2082319 5034:0.16789477 5049:0.14586726 5063:0.10018116 8888:0.24330369 9049:0.21985988 9076:0.20769861 9119:0.17294937 10458:0.11587194 10531:0.16291386 10538:0.12911496 11427:0.049886201 11430:0.049886201 11432:0.07198599 11433:0.07198599 #
-1.3554600831767940061212129876367 234:0.12591989 264:0.10536635 287:0.096498206 305:0.036650933 311:0.066236362 315:0.099876136 316:0.035249069 800:0.18028511 1057:0.086610951 1058:0.056518964 1065:0.15521771 1094:0.12932049 1095:0.13482317 1102:0.12089867 1104:0.11702203 1113:0.095366538 1115:0.10132541 1116:0.070826545 3799:0.17078097 3800:0.08151941 3802:0.3187812 3804:0.054224152 3805:0.27172881 3819:0.097688951 5033:0.09325882 5058:0.069723748 5064:0.052941862 5569:0.20535253 7116:0.18444522 8838:0.14208944 8965:0.18953675 8994:0.12891664 9123:0.087505862 9145:0.1301503 9150:0.12699808 9170:0.11774645 9185:0.20535253 9346:0.19610089 9453:0.19610089 9719:0.18028511 9965:0.15652192 10511:0.100161 10512:0.19854091 10521:0.096692398 10522:0.1900029 10526:0.090348721 10528:0.091484144 10535:0.14682721 10537:0.072689548 10574:0.14682721 11428:0.069046102 11429:0.069046102 11432:0.037574779 11433:0.037574779 #
-0.49159363419615892398795153894753 210:0.13592242 300:0.095837846 305:0.042308562 308:0.07706029 315:0.05764677 316:0.040690299 488:0.18228029 572:0.18774942 1046:0.12386329 1058:0.065243527 1554:0.14576593 1555:0.15024099 1559:0.14881688 1582:0.1356407 1606:0.068980008 1610:0.09926682 1612:0.18717451 1616:0.06475319 1619:0.13858823 1620:0.048032571 1621:0.047346842 2633:0.21879464 2936:0.21879464 3309:0.20405462 3437:0.19743511 3537:0.19214953 3737:0.15123506 3762:0.13198382 3776:0.11912083 3833:0.11484764 3854:0.046525925 3855:0.052355923 4992:0.11669216 5028:0.13860331 5040:0.099692807 5054:0.090738416 5056:0.093930081 5063:0.060363967 8930:0.17640279 8951:0.16572303 9064:0.14378458 9091:0.12196257 9103:0.12130405 10287:0.17917794 10298:0.16849817 10315:0.17052528 10328:0.16754027 10376:0.15073334 10423:0.12386329 10442:0.21322104 10445:0.10670376 10447:0.1029657 10458:0.069818415 10459:0.070494719 11088:0.11139418 11427:0.030058835 11430:0.030058835 11431:0.045868579 11434:0.045868579 #
1.6602632423245091697339148595347 43:0.07443735 121:0.14657865 191:0.13770254 214:0.12752497 241:0.11968503 255:0.1161162 280:0.10213702 292:0.17564046 303:0.076472081 305:0.072734453 307:0.071102843 308:0.066238813 309:0.13566132 314:0.06206321 316:0.069952436 585:0.18806961 626:0.16138402 968:0.13228621 1048:0.1915025 1594:0.10126372 1616:0.083489977 1621:0.040697988 3618:0.14401281 3699:0.14245076 3771:0.10239285 3844:0.087955803 3849:0.082700618 3854:0.039992355 3855:0.045003653 4427:0.17539951 4635:0.16970956 4978:0.11683501 5023:0.09546525 5026:0.092288591 5038:0.085631639 5049:0.075549483 5052:0.0861279 5053:0.074967429 5060:0.12535626 5061:0.058226056 5062:0.11558268 5118:0.19458294 6037:0.20376295 6483:0.18806961 8161:0.20376295 8445:0.15531033 8549:0.19458294 8577:0.15531033 8764:0.13961698 8785:0.13770254 8995:0.12791874 9069:0.11366012 9078:0.14245076 9098:0.1054161 9120:0.10126372 9126:0.079118311 10452:0.10693618 10453:0.077562399 10491:0.1180862 11048:0.12052888 11057:0.11541951 11092:0.094537228 11256:0.14029287 11339:0.13043696 11427:0.025837712 11430:0.025837712 11431:0.039427314 11434:0.039427314 #
4.0527857956076545065116079058498 213:0.15566403 264:0.12800892 292:0.10752456 313:0.071134008 315:0.060669445 316:0.04282387 616:0.18857302 973:0.15384562 1048:0.11723506 1058:0.068664536 1590:0.12536685 1616:0.034074239 1620:0.050551128 3743:0.14864528 3793:0.22247592 3794:0.10967452 3795:0.22362302 3800:0.099037416 3802:0.33887461 3803:0.092742287 3805:0.39614597 5058:0.08470694 5062:0.070758052 5064:0.064318731 8610:0.1830103 8958:0.19015749 8968:0.15428917 9123:0.10631032 10457:0.07559333 10514:0.12383494 10515:0.12168497 10517:0.26926228 10521:0.23494197 10522:0.11541666 10524:0.11239718 10532:0.099037416 10536:0.13621561 10537:0.088310078 10538:0.081877254 10539:0.11552688 10569:0.16575338 10571:0.12600413 11427:0.031634949 11430:0.031634949 11432:0.045649361 11433:0.045649361 #
1.2790670918491151564211349977995 240:0.21128576 288:0.17779465 302:0.14864068 303:0.14026554 305:0.066704981 420:0.30294886 1590:0.18780956 1616:0.25522965 1620:0.075729631 3523:0.32171878 3722:0.17687789 3743:0.22268249 3777:0.22323254 3854:0.073354207 3855:0.082545958 4956:0.2353643 5053:0.1375057 5064:0.096354596 8488:0.28025216 8607:0.25992233 9083:0.19472548 9124:0.15508817 10452:0.19614296 10453:0.14226541 10491:0.21659438 11104:0.14478301 11427:0.047391683 11430:0.047391683 11431:0.072317809 11434:0.072317809 #
5.9851798740385548924791692115832 223:0.17516953 285:0.13628672 306:0.10062193 308:0.094374806 312:0.089780979 314:0.088425547 993:0.18779776 998:0.18460131 1596:0.14307906 1605:0.1285755 1607:0.12783392 1616:0.079302445 1619:0.08486367 1621:0.11597021 3717:0.19798644 3753:0.17131968 3761:0.16348279 3762:0.16163899 3774:0.14570308 3797:0.12071971 3800:0.11524703 3802:0.056334104 3803:0.10792156 3805:0.076830633 5014:0.13548023 5031:0.13927965 5046:0.13521582 5061:0.082958505 6499:0.26795515 8469:0.22754389 8662:0.23251644 8714:0.23251644 9068:0.1628564 9092:0.17752516 10410:0.16788068 10431:0.14274478 10436:0.13588095 10447:0.12610085 10448:0.12408108 10472:0.15019326 10525:0.13482323 10528:0.12933454 10537:0.10276393 10540:0.15420282 10561:0.15444088 11427:0.036812693 11430:0.036812693 11432:0.053120863 11433:0.053120863 #
-0.023143151694115286776121109824089 43:0.084424213 211:0.14949372 302:0.091910623 303:0.086731933 304:0.084170811 826:0.17614749 962:0.15760429 1023:0.1366996 1188:0.20289025 1577:0.26903903 1591:0.2374775 1598:0.11841776 1616:0.031563792 1620:0.046826735 2262:0.22068909 2582:0.42660379 2797:0.2133019 3791:0.11028395 3802:0.044843964 3804:0.061023075 3817:0.11416493 3818:0.11099073 5063:0.058848556 8846:0.15834865 9010:0.15482555 10080:0.41514391 10261:0.17770423 10271:0.18113308 10348:0.15834865 10367:0.15172803 10393:0.13392919 10538:0.075844884 11427:0.029304221 11430:0.029304221 11432:0.042286109 11433:0.042286109 #
3.5997201364517588118019375542644 158:0.16621003 259:0.13399558 292:0.10504124 308:0.079227842 309:0.16226368 313:0.069491141 315:0.11853652 316:0.041834839 973:0.15029252 1021:0.14348681 1040:0.1347114 1048:0.11452748 1058:0.067078702 1615:0.090695389 1616:0.16643642 1620:0.049383633 3722:0.11534286 3742:0.19102356 3769:0.12905824 3777:0.14557095 3841:0.11190474 3854:0.23917304 3855:0.053828593 4936:0.20013537 4973:0.11128691 4994:0.11705121 4995:0.13447069 5035:0.10488005 5039:0.1031675 5045:0.10980132 5049:0.09036427 5062:0.13824774 5063:0.062061884 8080:0.2249489 8091:0.20013537 8371:0.18915521 8614:0.17038448 8695:0.17225283 8941:0.15206891 8943:0.16327955 9037:0.18915521 9061:0.139456 9085:0.13860524 9125:0.11362471 10455:0.085356496 10460:0.11847341 10501:0.15348212 11088:0.11452748 11093:0.14782895 11347:0.16780345 11411:0.16398297 11427:0.03090433 11430:0.03090433 11431:0.04715877 11434:0.04715877 #
-1.9899999999999999911182158029987 213:0.20404395 292:0.14094287 313:0.09324225 316:0.056133404 616:0.24718097 973:0.20166041 1048:0.15367138 1590:0.1643305 1616:0.22332208 1620:0.066262275 3523:0.28149906 3722:0.15476546 3743:0.1948438 3777:0.19532508 3793:0.1458104 3794:0.14376104 3795:0.29312441 3797:0.13598256 3802:0.06345655 3804:0.086350836 5062:0.092749447 5064:0.084308811 6161:0.3270196 8614:0.22861953 8941:0.20404395 10452:0.1716221 10453:0.12448007 10491:0.1895168 10514:0.16232248 10515:0.15950431 10525:0.15186922 11427:0.041467 11430:0.041467 11432:0.059837051 11433:0.059837051 #
-0.10401176901135321395397426158524 74:0.25277641 292:0.14528817 313:0.096116915 316:0.057864007 510:0.27681795 973:0.20787762 1048:0.15840909 1590:0.16939683 1616:0.23020712 1620:0.06830515 3523:0.2901777 3722:0.1595369 3743:0.20085086 3777:0.20134698 3797:0.14017493 3802:0.19623877 3805:0.089212678 3819:0.16036378 5062:0.19121785 8614:0.23566791 8941:0.21033466 8968:0.20847693 9074:0.1856636 10452:0.17691323 10453:0.1283178 10491:0.19535962 10509:0.17113931 10525:0.15655136 10533:0.15322936 11427:0.042745434 11430:0.042745434 11432:0.061681833 11433:0.061681833 #
-1.9899999999999999911182158029987 43:0.12975988 213:0.22162804 292:0.15308905 313:0.10127767 316:0.060970865 616:0.26848251 973:0.21903908 1048:0.16691446 1594:0.17652385 1616:0.048513502 1620:0.071972616 3766:0.18506499 3771:0.17849216 3792:0.16479817 3793:0.15837602 3795:0.31838524 3802:0.068925105 3805:0.094002724 5062:0.20148481 8614:0.24832149 8941:0.22162804 8968:0.21967058 10458:0.10461681 10508:0.18427823 10513:0.17716911 10515:0.17325005 10518:0.16932808 10529:0.15824156 10537:0.12573226 10538:0.11657347 10546:0.19776623 10557:0.18984626 11427:0.04504054 11430:0.04504054 11432:0.06499368 11433:0.06499368 #
-1.9899999999999999911182158029987 213:0.20049578 292:0.13849199 313:0.091620833 315:0.078142442 316:0.055157285 616:0.24288267 973:0.19815367 1048:0.15099914 1058:0.088440143 1522:0.098493673 1616:0.043887731 1618:0.10324642 1621:0.064180486 3782:0.12484176 3793:0.14327486 3794:0.14126115 3795:0.28802717 3802:0.24941234 3803:0.11945237 3804:0.084849253 3805:0.25511864 5058:0.10910282 5062:0.091136605 5064:0.082842737 8610:0.23571786 8958:0.24492346 8968:0.19872496 9123:0.13692804 10456:0.10053243 10507:0.22017515 10508:0.16670729 10511:0.15673064 10512:0.15533713 10515:0.15673064 10521:0.15130301 10537:0.11374367 10539:0.148799 10564:0.15799624 10571:0.16229373 11427:0.040745921 11430:0.040745921 11432:0.058796525 11433:0.058796525 #
-1.7899116322394530431694192884606 213:0.28013632 292:0.19350348 313:0.12801428 616:0.33936003 973:0.27686387 1590:0.22561286 1616:0.06132073 1620:0.090972893 3743:0.2675052 3854:0.088119328 3855:0.099161245 4956:0.28273967 5062:0.12733769 7609:0.41439342 8610:0.32934925 8968:0.27766207 10457:0.13603938 11104:0.1739257 11427:0.056930933 11430:0.056930933 11431:0.086874321 11434:0.086874321 #
5.9343601025829366690800270589534 45:0.12146317 178:0.10958979 241:0.094388261 299:0.064188533 305:0.02868061 307:0.056074463 314:0.04894546 315:0.039078247 316:0.027583603 1014:0.099670686 1038:0.089804441 1058:0.044228025 1299:0.13383956 1361:0.12727371 1440:0.12471859 1452:0.12248376 1467:0.12356623 1539:0.10471004 1549:0.10432604 1560:0.10151944 1564:0.099670686 1577:0.093537845 1583:0.089470685 1591:0.082564719 1593:0.082341522 1597:0.15952849 1606:0.093521908 1608:0.20809609 1609:0.069965139 1610:0.067292124 1611:0.28165743 1612:0.063441992 1613:0.063596584 1616:0.021947812 1619:0.093947761 1620:0.032560866 2982:0.14107928 3002:0.14107928 3184:0.13832687 3378:0.13383956 3684:0.11708643 3718:0.10859757 3726:0.1081214 3736:0.10432604 3764:0.17400792 3776:0.080750979 3790:0.076605082 3802:0.031182149 3804:0.042432256 5010:0.084334023 5030:0.072588637 5032:0.074699722 5041:0.067629479 5055:0.058266889 5059:0.05135658 5060:0.049430408 5063:0.040920209 5064:0.041428819 8185:0.14831899 8501:0.12356623 8840:0.11958192 8886:0.10908679 9053:0.10218082 9080:0.089306116 9090:0.088041499 9109:0.084583752 9117:0.074060693 9127:0.05323131 10188:0.13383956 10307:0.1135741 10321:0.11489732 10326:0.11175673 10334:0.11175673 10372:0.10184707 10385:0.098536633 10392:0.09646412 10397:0.096960135 10409:0.18133438 10416:0.08963678 10423:0.08396586 10426:0.083135225 10428:0.08279074 10429:0.091024302 10430:0.080054581 10435:0.078647919 10437:0.074699722 10441:0.076050773 10442:0.072270349 10449:0.13916229 10450:0.06832394 10454:0.12226975 10458:0.047329299 10459:0.095575526 10475:0.081795447 10478:0.083844803 10479:0.081265576 10530:0.066544145 11427:0.020376625 11430:0.020376625 11432:0.029403551 11433:0.029403551 #
4.1300689404333397192203847225755 264:0.09349373 276:0.090014398 279:0.09250591 291:0.085624844 305:0.19512676 307:0.063583188 310:0.059824575 314:0.11099914 315:0.044311076 432:0.15176153 778:0.1414192 865:0.12807192 1038:0.10182983 1045:0.097542509 1084:0.12207364 1089:0.12057323 1101:0.22826274 1112:0.097388543 1114:0.087988079 1115:0.089908116 1116:0.062845849 1119:0.077358566 3798:0.07946007 3802:0.10607292 3805:0.048222117 3819:0.086681411 5007:0.087511674 5012:0.088975899 5021:0.088774443 5050:0.069552615 5053:0.067039065 5055:0.066069201 5057:0.062377863 5059:0.058233552 5060:0.11209891 5063:0.046399686 5064:0.046976402 6516:0.17400435 7000:0.18221352 7443:0.15997069 7451:0.15997069 7993:0.15176153 8789:0.12545587 8857:0.1302828 8925:0.12807192 9067:0.10514272 9090:0.099830814 9099:0.094136521 9117:0.083977893 9122:0.078472249 9124:0.075611174 9127:0.060359322 9136:0.12313948 9149:0.11335188 9159:0.11052222 9172:0.20071344 9174:0.096635811 9176:0.095072158 9178:0.086862996 9179:0.092029504 9247:0.16366203 9253:0.16817985 9775:0.15414619 9909:0.15414619 9956:0.14431646 9995:0.1295187 10002:0.1295187 10010:0.13559471 10018:0.13276504 10034:0.12607887 10049:0.11111774 10511:0.088874921 10528:0.081175759 10531:0.075454831 10533:0.082825042 10553:0.10126478 11428:0.061266024 11429:0.061266024 11432:0.033340875 11433:0.033340875 #
4.3112164991777319755783537402749 161:0.19989571 235:0.17298524 256:0.16114788 258:0.16026026 275:0.14843382 279:0.14666639 290:0.13728878 309:0.1923413 314:0.087993532 316:0.049589455 747:0.22019976 852:0.21341671 982:0.1882464 1603:0.12518981 3796:0.12578245 3802:0.056058876 3804:0.076284178 3814:0.14517309 5039:0.12229089 5049:0.10711443 5050:0.11027437 5052:0.12211256 5055:0.10475148 6498:0.26664603 7555:0.2594831 7991:0.24061507 8325:0.22643219 8326:0.22643219 8449:0.22214581 8790:0.19890794 8967:0.2242175 9027:0.1882464 9122:0.12441628 10526:0.12710531 11427:0.03663284 11430:0.03663284 11432:0.052861333 11433:0.052861333 #
5.455203420950513581999530288158 124:0.33348215 294:0.20575604 297:0.18588853 305:0.16444181 689:0.3648653 1522:0.14120509 1616:0.062919475 1618:0.14801884 1621:0.092012107 3782:0.17897891 3802:0.08939226 3804:0.1216438 5054:0.1763377 5059:0.14722784 8609:0.33793601 8707:0.3482078 8856:0.30995992 10456:0.14412794 10531:0.1907672 10538:0.1511897 10558:0.23933713 11427:0.05841523 11430:0.05841523 11432:0.084293418 11433:0.084293418 #
3.6199275138797135653589975845534 107:0.13062657 195:0.11700789 231:0.10812746 262:0.094960466 278:0.087983139 289:0.082118466 291:0.083092928 296:0.07586161 302:0.07032492 305:0.12623791 307:0.061703041 309:0.23545377 312:0.054684021 314:0.1077169 627:0.14004904 952:0.12115961 1045:0.094658189 1564:0.10967532 1575:0.20724902 1589:0.094808742 1591:0.090852305 1592:0.088968463 1605:0.078313082 1616:0.04830173 1621:0.035317712 2996:0.15524037 3373:0.14727396 3434:0.14520387 3551:0.13859299 3802:0.034312114 3804:0.046691474 5012:0.08634489 5014:0.08251863 5020:0.11846393 5039:0.074850939 5042:0.073837675 5048:0.078053705 5057:0.060533356 5059:0.056511592 5060:0.054392077 5061:0.15158571 5071:0.16885906 5104:0.16885906 5201:0.17682548 5462:0.17682548 6105:0.17682548 6348:0.17682548 7869:0.14958811 8125:0.16885906 8181:0.14333126 8402:0.14162169 8487:0.13259298 8502:0.13596942 8638:0.12883919 8717:0.12971257 8818:0.12059007 8826:0.11949825 8914:0.14727396 9056:0.10292689 9057:0.1033892 9067:0.10203366 9068:0.099192984 9095:0.094213314 9121:0.07924886 10344:0.12568885 10376:0.11243742 10398:0.10725409 10409:0.099768072 10430:0.088090211 10457:0.10715687 10538:0.058032304 11427:0.022421965 11430:0.022421965 11432:0.032354988 11433:0.032354988 #
-0.39332653134827438856646608655865 161:0.18205114 235:0.15754296 258:0.14595392 290:0.1250331 296:0.11287788 301:0.10476924 312:0.081366807 314:0.0801384 316:0.045162633 368:0.22648259 714:0.2428427 747:0.20054266 852:0.19436513 1522:0.080646351 1616:0.035935156 1618:0.084537886 1621:0.052550804 3782:0.10222009 3797:0.10940599 3798:0.11473608 3800:0.1044462 3802:0.051054534 3804:0.069474332 5008:0.14084615 5015:0.12718961 5039:0.11137407 5041:0.11072975 5050:0.10043024 5052:0.11121165 5055:0.095400386 5061:0.075183719 6608:0.25125295 7991:0.21913551 8017:0.22257885 8557:0.20621872 8585:0.20420174 8787:0.18595487 8790:0.18115154 8815:0.18393789 8967:0.20420174 8987:0.16466513 8997:0.16367404 9027:0.17144176 9122:0.11330972 10456:0.082315676 10532:0.1044462 11427:0.033362646 11430:0.033362646 11432:0.048142433 11433:0.048142433 #
-0.84836622233620861965874837551382 73:0.15945849 152:0.14603996 261:0.11460477 297:0.082903937 305:0.036669485 308:0.066789344 312:0.063538276 313:0.05858127 316:0.03526691 876:0.1507152 896:0.14970042 969:0.13823821 976:0.13823821 1093:0.13290505 1095:0.13489142 1101:0.17158645 1107:0.21759307 1109:0.10946802 1116:0.35431197 1119:0.26167902 1139:0.12462032 3792:0.095322944 3793:0.091608234 3797:0.085433707 5013:0.097134955 5025:0.10485598 5039:0.086970553 6940:0.20545648 7795:0.18453857 8259:0.1645526 8371:0.15945849 8430:0.16103351 8911:0.13387664 8912:0.13387664 9155:0.12182144 9173:0.11503552 9178:0.097943142 9179:0.10376868 9617:0.1896327 9825:0.17112006 9907:0.17112006 9992:0.15660115 10047:0.12302324 10525:0.09541481 10528:0.18306091 10531:0.085079767 10553:0.114182 11428:0.069081053 11429:0.069081053 11432:0.037593801 11433:0.037593801 #
-1.4455436916059301033499195909826 50:0.17800736 90:0.16551907 152:0.16454832 215:0.14818935 226:0.14444134 264:0.23756006 273:0.11662243 277:0.11737239 285:0.10867417 297:0.093410753 304:0.084314391 305:0.041316785 308:0.075253882 309:0.15412474 682:0.16652791 842:0.16551907 873:0.16981606 896:0.16867267 995:0.14488104 1603:0.10031568 3854:0.18174115 4973:0.21140982 5027:0.11215543 5038:0.097286053 5043:0.19833094 5046:0.10782024 5049:0.085831717 5054:0.088611372 5062:0.13131341 5063:0.058948945 5064:0.059681635 8091:0.19009684 8326:0.18144207 8568:0.17497773 8695:0.16361287 8707:0.17497773 8709:0.16757795 8780:0.17800736 8786:0.16361287 8880:0.16183822 8970:0.18144207 9016:0.14275403 9061:0.13246107 9085:0.13165298 9106:0.12596636 9111:0.12315019 11427:0.029354209 11430:0.029354209 11431:0.044793349 11434:0.044793349 #
-0.33558386865744060933991477213567 43:0.091308437 127:0.17665304 287:0.11745308 295:0.10848084 305:0.089219578 306:0.086630158 309:0.1664087 310:0.082062408 312:0.077296674 314:0.07612972 315:0.060782269 316:0.042903509 860:0.18742214 960:0.16891256 1047:0.12672713 1053:0.11240923 1058:0.068792224 1596:0.1231835 1605:0.1106967 1607:0.11005823 1616:0.068275213 1619:0.073063128 1620:0.050645139 1621:0.049922109 3717:0.17045586 3733:0.15893196 3753:0.14749718 3762:0.13916261 3774:0.12544264 3833:0.12109438 3854:0.049056545 3855:0.055203643 4992:0.12303922 4993:0.1223289 5002:0.12497587 5007:0.12004127 5009:0.12122887 5026:0.11320562 5050:0.095406525 5053:0.091958649 5057:0.0855648 5060:0.076884001 5063:0.063647255 5064:0.064438343 7069:0.24994543 7923:0.21943457 8518:0.18599761 8553:0.18335064 8570:0.21515347 8975:0.15893196 9036:0.14681141 9084:0.13532588 9089:0.13358955 9098:0.12930845 9099:0.12912869 9127:0.082795925 10410:0.14453639 10431:0.1228957 10436:0.11698631 10447:0.10856616 10448:0.10682724 10472:0.12930845 11092:0.11596391 11427:0.031693779 11430:0.031693779 11431:0.04836344 11434:0.04836344 #
-0.41355759383855916766492555325385 109:0.2976037 224:0.25600687 305:0.071377471 307:0.13955259 313:0.11402895 315:0.19450818 316:0.068647347 911:0.28768796 963:0.27273625 1051:0.19733062 1058:0.11007035 1603:0.17330195 3789:0.18888125 3799:0.16629745 3802:0.077603057 3803:0.14866737 5024:0.18345542 5045:0.18017447 5054:0.15308198 5059:0.12781119 5063:0.10183819 5064:0.10310396 9039:0.25688684 9102:0.20410308 9110:0.19311652 9125:0.18644832 9127:0.13247684 10512:0.19332862 10537:0.14156246 10564:0.19663809 11427:0.050711334 11430:0.050711334 11432:0.07317666 11433:0.07317666 #
-0.61442937606183978260787625913508 306:0.11245223 308:0.10547062 310:0.10652296 998:0.20630521 1050:0.15582228 1440:0.25180942 1606:0.18882266 1607:0.14286357 1608:0.1400501 1610:0.13586418 1616:0.044313088 1619:0.094841242 1620:0.065741062 3145:0.29141474 3404:0.27447096 3751:0.18642357 3772:0.16536453 3797:0.13491294 3802:0.12591481 3805:0.085863747 5018:0.14842075 5031:0.155655 5039:0.13733985 8343:0.25985381 9046:0.20243897 10232:0.26299059 10391:0.1967946 10401:0.18377995 10416:0.18097852 10432:0.16046885 10459:0.096484482 10518:0.15466724 10538:0.10648026 10546:0.18064317 11427:0.041140825 11430:0.041140825 11432:0.059366379 11433:0.059366379 #
1.9483177883875246738654141154257 213:0.25629792 292:0.17703718 313:0.11712081 316:0.070508704 616:0.31048194 973:0.25330395 1048:0.19302534 1097:0.24072032 1116:0.14167431 1119:0.17439055 3841:0.18860497 3854:0.080620751 3855:0.090723053 4994:0.19727884 5062:0.23300362 8614:0.2871671 8941:0.25629792 8968:0.25403422 9241:0.36894572 11089:0.18688244 11428:0.13811289 11429:0.13811289 11431:0.079481691 11434:0.079481691 #
6.9207969968711608999001327902079 213:0.20422132 292:0.1410654 313:0.093323298 315:0.079594463 316:0.056182202 616:0.24739583 973:0.20183571 1048:0.15380496 1058:0.09008351 1603:0.14183336 3793:0.14593714 3795:0.29337922 3798:0.14273138 3800:0.12993081 3801:0.12445052 3802:0.063511707 3803:0.121672 3805:0.086619727 5058:0.11113013 5062:0.092830077 5064:0.084382094 8610:0.2400979 8958:0.24947456 8968:0.2024176 9123:0.1394724 10510:0.32610986 10518:0.15602902 10520:0.1525926 10521:0.15411447 10531:0.13553691 10537:0.23171443 10538:0.10741776 10539:0.15156394 10558:0.17004503 10565:0.21835592 11427:0.041503046 11430:0.041503046 11432:0.059889067 11433:0.059889067 #
8.3709452614977841733434615889564 213:0.162727 292:0.1124033 313:0.074361585 316:0.044766925 616:0.19712918 973:0.1608261 1048:0.12255439 1522:0.079939745 1616:0.035620298 1618:0.083797179 1620:0.052844796 3779:0.11056011 3793:0.11628518 3795:0.23376951 3797:0.1084474 3798:0.11373078 3799:0.1084474 3800:0.20706213 3801:0.099164277 3802:0.35425043 3805:0.34510031 3819:0.12406666 5062:0.14793715 8614:0.18232627 8941:0.162727 8968:0.16128977 10456:0.081594445 10508:0.13530348 10511:0.12720621 10515:0.12720621 10517:0.1407398 10518:0.12432655 10524:0.23499399 10525:0.2422343 10527:0.14389537 10529:0.11618645 10531:0.1079981 10532:0.10353106 10533:0.11854706 10537:0.092316985 10538:0.085592292 10561:0.13874049 11427:0.03307033 11430:0.03307033 11432:0.047720619 11433:0.047720619 #
-1.9899999999999999911182158029987 43:0.10651679 213:0.18192916 292:0.12566714 313:0.083136417 316:0.050049525 616:0.22039087 973:0.17980394 1048:0.13701609 1594:0.14490421 1616:0.039823573 1620:0.059080601 3766:0.15191543 3771:0.14651994 3798:0.25430253 3801:0.22173177 3802:0.16973691 3805:0.15432917 3816:0.16934675 5062:0.16539405 8614:0.20384118 8941:0.18192916 8968:0.18032232 10458:0.085877433 10512:0.14095236 10519:0.1387068 10529:0.25979343 10531:0.24148425 10537:0.2064212 10538:0.095692374 10539:0.13501969 10558:0.15148345 10563:0.30694878 10564:0.14336523 10567:0.14237842 10571:0.14726476 11427:0.036972702 11430:0.036972702 11432:0.05335176 11433:0.05335176 #
-1.9899999999999999911182158029987 213:0.14644903 292:0.10115932 313:0.066923015 316:0.040288784 616:0.17740987 973:0.14473829 1048:0.11029498 1063:0.17338969 1100:0.14515556 1101:0.098009855 1105:0.13662197 1108:0.12125903 1116:0.32381171 1119:0.19929408 1139:0.14236577 3793:0.1046529 3795:0.21038499 3798:0.10235402 3800:0.093174607 3802:0.091089688 3805:0.12423164 5062:0.13313864 8614:0.16408773 8941:0.14644903 8968:0.14515556 9149:0.14601071 9171:0.12686907 9172:0.1292714 9173:0.13141614 9178:0.11188987 9181:0.15409943 9992:0.17890055 9995:0.1668355 10002:0.1668355 10007:0.18396407 10016:0.21663566 10513:0.11707113 10514:0.11650416 10515:0.11448146 10518:0.11188987 10521:0.11051694 10537:0.083082296 10538:0.077030286 10539:0.10868793 10546:0.13068146 10557:0.12544803 10565:0.1565851 10571:0.11854494 11428:0.078917928 11429:0.078917928 11432:0.042947013 11433:0.042947013 #
-1.9899999999999999911182158029987 313:0.073733158 1581:0.14736402 1592:0.13011134 1606:0.075249538 1616:0.035319272 3793:0.11530246 3795:0.23179394 3798:0.2255393 3800:0.10265613 3801:0.098326243 3802:0.40143621 3804:0.068283632 3805:0.47905746 10432:0.12789997 10505:0.13111377 10511:0.12613119 10515:0.12613119 10517:0.13955042 10518:0.12327588 10521:0.12176324 10523:0.137568 10524:0.23300807 10527:0.14267932 10528:0.11520457 10529:0.11520457 10531:0.10708542 10536:0.14119278 10538:0.16973791 10540:0.13735595 10546:0.1439797 10556:0.19390972 10558:0.1343497 10563:0.13611546 11427:0.032790855 11430:0.032790855 11432:0.047317334 11433:0.047317334 #
-1.9899999999999999911182158029987 244:0.11227336 308:0.060488697 309:0.12388471 1086:0.12749697 1094:0.11718019 1101:0.077699825 1104:0.10603628 1113:0.086413749 1116:0.064177513 3793:0.082966268 3794:0.081800193 3795:0.5003643 3797:0.077374227 3799:0.077374227 3800:0.29546624 3801:0.070750974 3802:0.10832053 3803:0.069171369 3805:0.14773174 3806:0.099927463 3810:0.097797245 5026:0.084277116 5027:0.090149984 5049:0.06899111 6473:0.17174348 8944:0.12216628 9026:0.11086633 9145:0.1179321 9155:0.11032928 9644:0.17174348 9850:0.16017327 9900:0.15279891 10506:0.11378317 10510:0.092697851 10512:0.08995118 10514:0.092361666 10515:0.090758123 10517:0.10041396 10518:0.088703565 10519:0.088518135 10521:0.35046056 10525:0.086413749 10528:0.08289583 10529:0.08289583 10532:0.073866561 10537:0.13173126 10539:0.086165145 10555:0.10142271 10561:0.098987512 10564:0.091490999 10567:0.090861239 10571:0.093979552 11428:0.062564217 11429:0.062564217 11432:0.034047347 11433:0.034047347 #
2.9200396742802570138053397386102 260:0.12187608 264:0.12104388 297:0.095191084 299:0.094231255 304:0.085921347 305:0.042104248 309:0.15706222 310:0.077453308 313:0.067263566 315:0.057368387 421:0.19122161 682:0.1697018 940:0.16323102 1021:0.13888726 1027:0.13762377 1030:0.13583587 1034:0.12689298 1596:0.1162648 1605:0.10447934 1607:0.10387673 1616:0.032220241 1619:0.068959482 1620:0.047800615 3733:0.15000542 3753:0.13921289 3772:0.12023728 3774:0.11839706 3832:0.12088056 3836:0.11493394 3837:0.11404097 3846:0.10238793 3854:0.092602491 3856:0.14707436 4415:0.19956903 4424:0.20306921 4696:0.19371992 4985:0.1328447 4986:0.13016015 4989:0.12256141 5025:0.12039662 5034:0.10067613 5049:0.087467596 5053:0.086793721 5057:0.080758981 5063:0.060072459 8888:0.14589421 9049:0.1318364 9065:0.14809823 9069:0.13159028 9076:0.12454405 9094:0.12569222 9119:0.10370707 10431:0.11599316 10436:0.11041568 10448:0.10082721 10459:0.070154294 10472:0.12204574 10493:0.1054552 10970:0.16242442 10998:0.15804553 11077:0.12187608 11084:0.11354404 11094:0.10882657 11108:0.078241467 11109:0.10591108 11420:0.11107932 11425:0.11612863 11427:0.029913675 11430:0.029913675 11431:0.04564707 11434:0.04564707 #
5.7983016170753067797249968862161 75:0.19237584 215:0.16422917 286:0.12242942 298:0.10544545 303:0.096283644 315:0.12477757 316:0.04403748 632:0.20547536 1036:0.14180408 1051:0.12658818 1058:0.070610456 1179:0.22084013 1569:0.15687943 1601:0.12217261 1602:0.11914363 1605:0.11362249 1606:0.074654296 1607:0.11296715 1613:0.10153254 1616:0.10511966 1617:0.088800669 1620:0.051983725 1621:0.10248317 2969:0.12780789 3577:0.19911438 3728:0.1684377 3759:0.16259979 3774:0.12875818 3785:0.091985285 3802:0.049782593 3804:0.067743495 5029:0.11488104 5056:0.10165675 5058:0.087107494 5064:0.066141494 6528:0.24499339 8127:0.24499339 8810:0.17663844 8910:0.16536957 8913:0.17663844 9005:0.15687943 9123:0.10932311 10416:0.14310595 10434:0.12429499 10436:0.12007834 10441:0.12141576 10448:0.10965077 10454:0.097602397 10457:0.07773561 10458:0.15112333 10459:0.07629361 10464:0.094631374 10484:0.12281904 10493:0.11468376 10499:0.10675464 10502:0.10965077 10532:0.10184409 11427:0.03253147 11430:0.03253147 11432:0.046943042 11433:0.046943042 #
2.7540116011625292991027436073637 46:0.20562641 177:0.18073617 201:0.17712027 214:0.1688394 303:0.10124684 305:0.048149165 307:0.094138116 311:0.087016217 316:0.046307504 721:0.21144636 919:0.19175896 968:0.17514314 1055:0.11998158 1596:0.13295697 1616:0.036846109 1619:0.078860015 1620:0.05466336 3616:0.19929229 3733:0.17154174 3797:0.11217943 3802:0.052348766 3805:0.071395271 4998:0.13505855 5011:0.13041386 5019:0.12915006 5026:0.12218744 5027:0.13070209 5063:0.06869708 5107:0.25762221 5433:0.26977628 6328:0.26977628 7442:0.23684467 8785:0.1823142 8944:0.17712027 9004:0.1673277 9096:0.14116696 9107:0.14558312 10440:0.12229665 10459:0.080226362 10487:0.12589572 10523:0.14351501 10538:0.088537805 10551:0.16235797 11427:0.034208391 11430:0.034208391 11432:0.049362846 11433:0.049362846 #
12.138482071453449151476888800971 43:0.16702783 306:0.15847 310:0.15011434 314:0.13926186 812:0.354855 1050:0.21958797 1522:0.14014454 1616:0.062446915 1618:0.14690712 1620:0.092643656 3779:0.19382596 3833:0.22151437 3854:0.089737691 3855:0.1009824 4992:0.22507203 4993:0.22377264 5000:0.23459838 5018:0.20915757 5050:0.17452434 5055:0.16578361 8694:0.32314619 8751:0.32890362 9122:0.19690585 10456:0.14304544 11107:0.14373091 11427:0.057976499 11430:0.057976499 11431:0.088469818 11434:0.088469818 #
3.1576317192101215347577181091765 112:0.25310963 289:0.16536848 1596:0.17549473 1616:0.048634522 1619:0.1040902 1620:0.07215216 3616:0.26305312 3733:0.22642417 3846:0.15454844 3847:0.30213064 3851:0.13054404 3854:0.069888949 3856:0.11099996 4951:0.23378749 5062:0.10099371 8658:0.24516991 10440:0.16142379 10459:0.10589369 10487:0.16617434 10908:0.27141377 11029:0.2221809 11030:0.2221809 11091:0.1631957 11100:0.1408388 11108:0.1181008 11139:0.26915225 11351:0.2256846 11415:0.17290258 11427:0.045152899 11430:0.045152899 11431:0.068901516 11434:0.068901516 #
-0.042306477487259491754301166110963 183:0.20503402 299:0.12172274 306:0.21123776 310:0.10004991 1050:0.14635347 1113:0.14151862 1116:0.10510264 3802:0.29565844 3805:0.24193826 5013:0.14406994 5043:0.13053788 5048:0.13451365 5794:0.3047317 7780:0.27370641 7954:0.27370641 8524:0.24406335 8713:0.23226981 9048:0.17777479 9161:0.18246727 10511:0.14863335 10530:0.25237951 10534:0.18386856 10536:0.16638196 10570:0.19642574 11428:0.10246056 11429:0.10246056 11432:0.055758879 11433:0.055758879 #
-1.9899999999999999911182158029987 89:0.29198447 215:0.24728283 302:0.15363243 310:0.1268287 313:0.11014315 314:0.11765965 315:0.09393993 812:0.29981014 1032:0.21881269 1052:0.17939672 1522:0.11840542 1616:0.052760195 1618:0.12411899 1620:0.078272834 3779:0.16375981 3841:0.17736852 3854:0.075817637 3855:0.085318081 4994:0.18552563 5000:0.19820765 5034:0.16485576 5050:0.14745225 5055:0.14006737 5058:0.13115934 5063:0.09836781 5064:0.099590451 8751:0.2778843 8866:0.26344213 9113:0.19874756 9119:0.16981888 9122:0.16636196 9127:0.12796238 10456:0.12085634 11089:0.17574862 11427:0.048983224 11430:0.048983224 11431:0.074746437 11434:0.074746437 #
-1.9899999999999999911182158029987 26:0.30794284 184:0.26470137 306:0.13752012 308:0.12898217 310:0.13026908 314:0.1208513 720:0.31098452 812:0.30794284 998:0.25229481 1050:0.19055822 1615:0.14765123 5000:0.20358427 5018:0.18150675 5031:0.19035365 5050:0.15145206 5055:0.14386687 8694:0.28042597 8751:0.28542224 9046:0.24756671 9122:0.17087471 10520:0.18497993 11427:0.050311953 11430:0.050311953 11432:0.07260035 11433:0.07260035 #
-1.1144762945732968884016145239002 9:0.12386268 214:0.097875774 241:0.091858596 272:0.080907151 288:0.074396171 299:0.062468238 303:0.058692537 304:0.056959394 305:0.0558239 316:0.026844343 332:0.13461961 968:0.10153004 1008:0.098485544 1056:0.06792888 1433:0.12386268 1524:0.10616319 1539:0.10190374 1571:0.093642399 1593:0.08013472 1599:0.075028121 1601:0.074473917 1611:0.13705441 1614:0.062704124 1616:0.14951718 1617:0.054131068 1620:0.031688213 1621:0.062471639 1675:0.14934295 1747:0.14934295 1910:0.14934295 3244:0.13729826 3294:0.13229926 3707:0.10992046 3718:0.10568709 3722:0.074012563 3734:0.10992046 3759:0.099117503 3768:0.082939744 3777:0.093409151 3785:0.056072347 3830:0.083195291 3832:0.08013472 3837:0.075600587 3839:0.046710808 3845:0.068144083 3846:0.067875497 3848:0.064583398 3849:0.063472956 3851:0.057333101 3854:0.12277697 3855:0.03454043 3856:0.14624886 4508:0.13729826 4586:0.13461961 4725:0.13025257 4913:0.11394843 4931:0.10933136 4939:0.10933136 4985:0.088066041 4986:0.086286396 4989:0.081248999 4999:0.085097775 5026:0.070831753 5027:0.075767674 5042:0.065303788 5063:0.039823521 8200:0.12842174 8206:0.12842174 8609:0.11472087 8785:0.10568709 8817:0.11394843 8944:0.10267618 8949:0.10011073 9049:0.08739762 9107:0.084394164 10307:0.11053023 10372:0.099117503 10416:0.08723446 10422:0.088410154 10435:0.076540105 10440:0.070895053 10444:0.076984547 10449:0.067716323 10455:0.054771077 10457:0.047386035 10458:0.046060845 10459:0.04650702 10463:0.074012563 10464:0.057685345 10473:0.085534036 10487:0.072981432 10499:0.065075442 10502:0.066840857 10922:0.12025458 10971:0.10876158 10981:0.10767517 10991:0.10433237 11003:0.10715643 11034:0.10568709 11041:0.095895782 11056:0.090240978 11066:0.085681923 11094:0.07214383 11099:0.084812902 11104:0.060582824 11107:0.049162306 11108:0.051868211 11109:0.070211083 11162:0.11820788 11170:0.12137605 11240:0.11552923 11405:0.09977331 11420:0.07363724 11425:0.076984547 11427:0.019830517 11430:0.019830517 11431:0.030260574 11434:0.030260574 #
0.29949827458718447648067240152159 313:0.13127059 1081:0.32539013 1116:0.15879048 1119:0.19545928 3793:0.20527837 3794:0.2023932 3795:0.41267359 3802:0.17867391 3803:0.17114648 3805:0.24368238 10508:0.2388514 10512:0.22256069 10515:0.22455727 10524:0.20741758 10537:0.16296728 10539:0.21319313 10564:0.22637056 10571:0.23252784 11428:0.15479881 11429:0.15479881 11432:0.084241264 11433:0.084241264 #
1.3486439649460677525638629958848 91:0.13876626 137:0.13049495 260:0.098391652 302:0.075743452 303:0.0714757 309:0.12679775 1034:0.10244185 1074:0.14069135 1094:0.11993557 1104:0.10852962 1113:0.088445693 1116:0.065686591 3793:0.08491715 3795:0.34141994 3797:0.079193607 3799:0.079193607 3802:0.25869104 3803:0.14159574 3804:0.050289053 3805:0.30241102 3806:0.10227717 5049:0.070613377 7105:0.17105983 8476:0.14069135 8602:0.13876626 8888:0.11778171 9076:0.10054553 9135:0.12988153 9145:0.12070516 9900:0.15639183 10510:0.094877563 10511:0.18578444 10512:0.18413261 10514:0.094533466 10515:0.18578444 10519:0.090599559 10537:0.20224319 10539:0.26457372 10564:0.18728465 10567:0.09299776 10571:0.2885682 11428:0.064035356 11429:0.064035356 11432:0.034847938 11433:0.034847938 #
4.3102207693585707914962767972611 228:0.085955746 286:0.072558612 603:0.12485655 1603:0.065887839 3792:0.14108655 3793:0.067794219 3794:0.066841386 3795:0.13628754 3798:0.066305004 3800:0.060358576 3802:0.38355178 3803:0.22608797 3805:0.4426254 5004:0.071665309 10506:0.092975631 10510:0.075746186 10511:0.074161179 10512:0.29400721 10517:0.16410251 10522:0.070340946 10528:0.067736663 10529:0.13547333 10530:0.06296286 10531:0.12592572 10536:0.08301691 10537:0.2152831 10538:0.049900275 10539:0.28163248 10541:0.090815969 10544:0.1158919 10553:0.084499829 10558:0.078993402 10563:0.080031611 10564:0.29904011 10565:0.10143594 10571:0.23038051 11427:0.01927999 11430:0.01927999 11432:0.027821105 11433:0.027821105 #
-1.9899999999999999911182158029987 273:0.083242215 281:0.16956452 310:0.0542503 625:0.13086949 957:0.11376626 1522:0.050647285 1616:0.022567891 1618:0.053091235 1620:0.033480786 3779:0.070047379 3792:0.076662101 3793:0.14734921 3795:0.29621789 3798:0.14411242 3799:0.06870883 3800:0.065593995 3802:0.32063118 3803:0.12284927 3804:0.043631069 3805:0.39356029 5009:0.080142692 5043:0.070781872 5304:0.1652354 5384:0.1652354 7492:0.14841248 8666:0.12039439 10456:0.051695649 10509:0.16777296 10510:0.082316309 10511:0.16118763 10512:0.1597545 10514:0.16403554 10515:0.080593817 10517:0.17833653 10524:0.074442372 10527:0.27350262 10531:0.20527251 10536:0.090217687 10537:0.11697823 10538:0.054228559 10539:0.15303044 10540:0.087766074 10558:0.08584518 10564:0.16248922 10571:0.16690893 11427:0.020952312 11430:0.020952312 11432:0.03023427 11433:0.03023427 #
-1.9899999999999999911182158029987 213:0.18196104 316:0.050058298 954:0.20178562 1203:0.2560285 1282:0.25103346 1616:0.039830554 1621:0.058247354 3795:0.26140067 3800:0.11576825 3801:0.11088532 3802:0.28294444 3803:0.21681932 3805:0.23153435 3819:0.13873112 5062:0.082711525 8895:0.19796903 10373:0.18732432 10458:0.085892491 10511:0.14224176 10512:0.28195414 10515:0.14224176 10517:0.15737499 10521:0.13731588 10533:0.13255911 10537:0.30968609 10539:0.13504337 10564:0.28678071 10571:0.14729057 11427:0.036979184 11430:0.036979184 11432:0.053361114 11433:0.053361114 #
-1.9899999999999999911182158029987 302:0.10495141 305:0.047098693 312:0.081609271 313:0.07524243 315:0.12834695 316:0.045297213 952:0.18081601 958:0.17996605 1052:0.12255184 1058:0.072630338 1085:0.18983199 1103:0.15429585 1106:0.1494782 1116:0.1820329 1117:0.11776288 1119:0.11203448 3797:0.109732 3799:0.109732 3802:0.20482668 3803:0.19619745 3804:0.069681361 3805:0.20951292 5034:0.11261843 5053:0.097089276 5057:0.090338692 5062:0.074844763 5063:0.067198314 5064:0.068033539 9094:0.14060195 9116:0.12728937 9119:0.1160089 9124:0.10950382 9127:0.087415338 9150:0.16320032 9154:0.2232421 9244:0.2370234 9328:0.25200167 10511:0.12871303 10517:0.14240693 10521:0.12425566 10522:0.12208269 10525:0.12255184 10532:0.10475744 10536:0.1440829 10537:0.2802316 10539:0.12219927 10561:0.14038394 10571:0.13328165 11428:0.088728473 11429:0.088728473 11432:0.048285894 11433:0.048285894 #
-1.9899999999999999911182158029987 84:0.15216243 305:0.036762558 306:0.14278241 312:0.063699551 314:0.12547575 355:0.17730619 1047:0.10443478 1596:0.1015145 1605:0.091224238 1607:0.090698078 1616:0.056265038 1619:0.06021072 1620:0.041736238 1621:0.041140396 3717:0.14047126 3733:0.1309745 3753:0.12155121 3762:0.11468276 3774:0.10337624 3794:0.090549946 3795:0.18462859 3800:0.081767693 3802:0.2797831 3803:0.07657028 3804:0.054389305 3805:0.32706773 5007:0.098925024 5031:0.098818816 5061:0.11771801 5123:0.19669816 6906:0.20597796 7461:0.18500698 8536:0.15699863 8870:0.13799459 8926:0.1352338 9020:0.13185488 10410:0.11911125 10431:0.10127733 10436:0.096407451 10447:0.089468479 10448:0.088035449 10472:0.10656203 10509:0.10457061 10511:0.10046607 10512:0.19914562 10514:0.10224113 10515:0.10046607 10524:0.092797838 10527:0.11364698 10528:0.091762774 10531:0.17059143 10537:0.072910942 10538:0.067599848 10539:0.19076359 10540:0.10940681 10553:0.11447182 10558:0.10701227 10564:0.10127733 10571:0.10403207 11427:0.026118582 11430:0.026118582 11432:0.03768922 11433:0.03768922 #
3.2171972081324931025392288574949 249:0.21123567 296:0.14779173 305:0.18445021 1522:0.10559078 1616:0.047050126 1618:0.11068599 1620:0.069801614 3779:0.14603661 3841:0.15817249 3854:0.067612141 3855:0.076084375 4994:0.16544679 5006:0.17557842 5012:0.16821501 5015:0.16653016 5055:0.12490833 5056:0.13650052 6212:0.34448707 7416:0.34448707 7705:0.29653507 7766:0.30243549 8783:0.23957595 8884:0.22705123 8980:0.21763 9079:0.20475085 10456:0.10777644 11089:0.1567279 11427:0.043681927 11430:0.043681927 11431:0.066656873 11434:0.066656873 #
4.0877062242230275401766448339913 82:0.22183244 90:0.219107 273:0.15437973 306:0.10621202 309:0.20402367 310:0.10061177 842:0.219107 995:0.19178726 1050:0.14717537 1473:0.22804046 1614:0.12286853 1616:0.041854061 1621:0.061206486 3287:0.25164199 3797:0.12742633 3798:0.13363434 3802:0.059463765 3804:0.080917507 5018:0.14018457 5039:0.12971857 5049:0.11362032 7092:0.27524352 8343:0.24543397 8689:0.21538879 8764:0.20997266 10437:0.14245096 10449:0.13268991 10458:0.090256073 10475:0.15598236 10479:0.15497191 10513:0.15284914 10518:0.14608444 10520:0.14286704 10529:0.13651976 10538:0.10057145 10546:0.17061889 10557:0.1637861 11427:0.038857833 11430:0.038857833 11432:0.056072012 11433:0.056072012 #
2.6528670454037954762327444768744 285:0.19931751 305:0.07577844 307:0.14815708 313:0.12105972 1522:0.13014089 1616:0.17396817 1618:0.13642074 1620:0.086030655 3750:0.28955254 3779:0.17999046 3841:0.19494796 3854:0.083332121 3855:0.09377417 4994:0.20391355 5004:0.20012054 5014:0.19813804 5054:0.16252068 5056:0.16823722 5059:0.13569173 5061:0.12132571 9023:0.2511462 9064:0.25753111 9068:0.23817533 9110:0.20502363 9121:0.19028689 10456:0.13283472 10462:0.25174716 10504:0.2529726 11089:0.19316751 11427:0.053838074 11430:0.053838074 11431:0.082154751 11434:0.082154751 #
5.0299629581262905730909551493824 200:0.20223859 270:0.16087331 310:0.10152043 311:0.099735752 821:0.26616907 979:0.20002122 1522:0.094777994 1599:0.14834514 1606:0.0899776 1616:0.042232063 1618:0.099351436 1621:0.061759271 2969:0.15404132 3701:0.24235438 3782:0.12013209 3839:0.092356324 3845:0.13473405 3854:0.06068847 3855:0.068293124 4538:0.25753456 4634:0.25753456 4967:0.18908 5018:0.14145063 5047:0.11789723 5050:0.11802861 5055:0.11211737 5056:0.24504499 5064:0.079717487 8908:0.20301069 9047:0.1788078 9058:0.20543693 9079:0.1837838 9114:0.14119133 9122:0.13316496 10456:0.096739836 11083:0.15275162 11102:0.12976046 11107:0.097203404 11390:0.18038772 11391:0.17842391 11427:0.039208777 11430:0.039208777 11431:0.059831023 11434:0.059831023 #
-0.80309108163789733048076868726639 43:0.18411314 306:0.17467993 310:0.16546957 1050:0.24204968 1522:0.15447997 1616:0.13766925 1617:0.17444579 1618:0.16193429 1620:0.1021202 1621:0.10066229 3779:0.21365246 3784:0.33764508 3785:0.18070187 3833:0.24417312 3854:0.098916978 3855:0.11131191 4992:0.24809469 4993:0.24666241 5018:0.23055236 10456:0.15767761 10457:0.15270887 10462:0.2988292 10504:0.30028379 11107:0.15843318 11427:0.06390693 11430:0.06390693 11431:0.097519413 11434:0.097519413 #
0.46998071547251596413730112544727 84:0.26871368 176:0.23530151 270:0.18924858 310:0.11942688 313:0.10371511 979:0.23530151 1590:0.18278791 1616:0.049681067 1620:0.073704772 3743:0.21672842 3802:0.14116782 3803:0.13522051 3805:0.19253014 5018:0.16640007 5024:0.166862 5031:0.17451066 5064:0.093778275 8453:0.27970451 8908:0.23881827 9046:0.22696193 10457:0.11021691 10512:0.17584218 10518:0.17340326 10537:0.12875824 10538:0.11937902 10539:0.168441 10546:0.20252584 10564:0.1788523 10565:0.24267046 10571:0.18371709 11427:0.046124525 11430:0.046124525 11432:0.066557877 11433:0.066557877 #
-0.78795111848803134346752585770446 302:0.12660113 304:0.11594002 313:0.090763696 1023:0.18829514 1027:0.18570592 1180:0.27401626 1602:0.14783224 1616:0.086954303 1621:0.12716012 2087:0.30398542 3685:0.23194039 3792:0.14768991 3801:0.12103718 3802:0.18530926 3803:0.11833486 3804:0.084055468 3805:0.16848797 3816:0.18488331 5034:0.13584974 5063:0.081060201 9119:0.13993961 10431:0.15651815 10455:0.11148573 10460:0.15474036 10501:0.2004659 10509:0.16160771 10512:0.1538839 10521:0.14988753 10524:0.14341359 10527:0.17563471 10528:0.14181396 10531:0.1318195 10537:0.22535913 10539:0.14740695 10553:0.17690946 10564:0.15651815 10571:0.16077544 11427:0.040364731 11430:0.040364731 11432:0.058246467 11433:0.058246467 #
-1.9801300030967732279663096051081 64:0.24939236 306:0.11340493 310:0.10742542 314:0.099659123 812:0.25394276 1050:0.15714242 1603:0.14178663 3839:0.19545655 3852:0.13349718 3854:0.32109222 3855:0.072265424 4964:0.21017143 5000:0.16788423 5018:0.14967819 5050:0.12489381 5055:0.11863873 5056:0.12964907 8694:0.23125117 8751:0.23537132 9079:0.19447367 9122:0.14091055 11016:0.21920444 11052:0.19218639 11102:0.13730803 11103:0.13376287 11105:0.12468546 11107:0.10285729 11110:0.16300121 11366:0.22874288 11403:0.18183851 11416:0.15887398 11418:0.15977168 11427:0.041489374 11430:0.041489374 11431:0.063311122 11434:0.063311122 #
-1.9899999999999999911182158029987 43:0.097290143 106:0.19041874 140:0.19278732 240:0.1505567 288:0.12669182 292:0.22956333 303:0.099949554 305:0.047532223 314:0.081117056 316:0.13714248 420:0.21587344 895:0.18336378 948:0.1769405 994:0.17353541 1048:0.2502951 1522:0.081631206 1616:0.036373995 1618:0.085570268 1620:0.053962953 3779:0.11289948 3833:0.1290274 3854:0.05227029 3855:0.058820091 4992:0.13109966 4993:0.1303428 5052:0.11256977 5056:0.21105447 5060:0.081920758 5061:0.076101869 5062:0.15106738 5064:0.068659768 6469:0.2458083 8490:0.20130029 8568:0.20130029 8607:0.18521385 8658:0.18336378 8850:0.17997819 9058:0.1769405 9083:0.13875629 9093:0.19818251 9115:0.13094673 9120:0.1323524 9126:0.1034082 10456:0.083320923 11107:0.083720192 11427:0.033770073 11430:0.033770073 11431:0.051531781 11434:0.051531781 #
5.4007020095745525978259138355497 302:0.074661672 304:0.068374395 305:0.033505671 1023:0.11104506 1098:0.1141727 1099:0.11609953 1101:0.078391053 1104:0.10697959 1108:0.096986413 1110:0.098234177 3792:0.087098561 3794:0.082527898 3798:0.081865646 3799:0.078062557 3800:0.14904737 3801:0.14276078 3802:0.40070862 3803:0.069786727 3804:0.099141635 3805:0.29809195 3810:0.098667257 5057:0.064266294 5062:0.053244028 9116:0.09055274 9134:0.12278432 9137:0.12422346 9148:0.1147954 9168:0.10471676 9170:0.10764184 9176:0.097950377 9246:0.16861674 9817:0.15217012 9889:0.15035513 9949:0.14435431 9966:0.14435431 9984:0.14308973 10507:0.1286312 10509:0.095306434 10511:0.09156552 10512:0.18150279 10516:0.09241271 10517:0.20261452 10520:0.08752168 10521:0.088394582 10522:0.086848743 10529:0.083633281 10531:0.1554783 10532:0.074523687 10537:0.26580632 10538:0.061611004 10539:0.086931683 10549:0.10571501 10558:0.097531781 10563:0.098813638 10564:0.18460983 10571:0.094815604 11428:0.06312079 11429:0.06312079 11432:0.034350235 11433:0.034350235 #
-0.05586228481261479306141382039641 43:0.10626672 111:0.21646802 150:0.20798792 237:0.17739215 252:0.16821457 254:0.16543248 299:0.11619452 311:0.093827046 313:0.082941242 316:0.049932029 611:0.23887184 997:0.18750478 1030:0.16749628 1055:0.12937263 1481:0.21646802 1522:0.089162998 1616:0.039730083 1620:0.058941901 3183:0.25040025 3791:0.13881697 3802:0.056446142 3804:0.076811165 3817:0.14370206 3818:0.13970663 5011:0.14062145 5025:0.14845847 5026:0.13175113 5027:0.14093225 5036:0.13669443 5063:0.074074045 7123:0.26848808 8105:0.24227729 8243:0.25040025 8712:0.21195066 8944:0.19098361 9096:0.1522162 9107:0.15697801 10456:0.091008611 10538:0.095467724 11427:0.036885906 11430:0.036885906 11432:0.053226508 11433:0.053226508 #
6.3163002451558982741630643431563 24:0.3032195 1522:0.12839109 1616:0.0572097 1618:0.13458651 1620:0.084873937 3779:0.17757042 3792:0.19433877 3802:0.3251206 3803:0.15571173 3804:0.11060495 3805:0.33255902 10456:0.13104869 10511:0.20430568 10512:0.20248917 10524:0.18871173 10528:0.18660685 10530:0.17345558 10531:0.17345558 10534:0.25273862 10537:0.14827016 10539:0.19396643 10553:0.23278749 10564:0.20595545 10570:0.26999927 11427:0.053114202 11430:0.053114202 11432:0.076644011 11433:0.076644011 #
-1.9899999999999999911182158029987 259:0.10135569 275:0.094719477 301:0.07340917 308:0.05992879 310:0.060526729 315:0.044831149 773:0.14051519 903:0.13345151 933:0.12631682 1336:0.15869065 1589:0.09884432 1606:0.10728972 1612:0.0727816 1616:0.025178857 1621:0.036821026 2809:0.17015377 3503:0.15138453 3738:0.11646461 3792:0.085531443 3793:0.24659492 3795:0.16524425 3798:0.16078536 3800:0.14636564 3802:0.25040838 3803:0.20559327 3805:0.34151664 5035:0.079332396 5041:0.077585548 5051:0.075117148 5058:0.062593445 8822:0.12692833 9006:0.11968439 9051:0.10803533 9081:0.11181941 10309:0.13345151 10380:0.11609553 10411:0.10442444 10445:0.08298213 10447:0.080075093 10505:0.18694015 10508:0.09564174 10510:0.091839805 10511:0.089918032 10515:0.089918032 10520:0.085946955 10521:0.086804144 10524:0.2491647 10527:0.10171507 10528:0.16425702 10529:0.08212851 10531:0.15268087 10536:0.10065532 10537:0.19576785 10540:0.097920075 10541:0.11011142 10553:0.10245331 11427:0.023376366 11430:0.023376366 11432:0.033732191 11433:0.033732191 #
-1.0672900731999030998764510513865 113:0.14943019 289:0.09254621 298:0.081905991 301:0.079353258 305:0.14226814 306:0.069069542 307:0.069538347 311:0.064277515 312:0.061628025 313:0.05682005 316:0.068413258 964:0.13350697 966:0.14164934 976:0.13408214 991:0.13033836 1011:0.14425735 1047:0.10103854 1057:0.084049553 1530:0.13350697 1564:0.12360235 1616:0.027217643 1620:0.040378965 3569:0.1596054 3587:0.15783305 3792:0.27737132 3794:0.087605238 3800:0.079108588 3801:0.15154381 3802:0.19334605 3804:0.052620552 3805:0.10547713 3810:0.10473754 5007:0.09570796 5022:0.092457101 5028:0.11651799 5029:0.089235194 5039:0.084355824 5054:0.076279983 5059:0.063687667 5061:0.056944896 5062:0.056519747 7936:0.17495345 8371:0.15466443 8560:0.17899051 8648:0.14829442 8765:0.14335345 8786:0.14084406 8869:0.14084406 8952:0.12800542 9025:0.11705157 9055:0.11402744 9063:0.11243704 9104:0.10052056 9110:0.09622898 9121:0.089312211 10430:0.099276267 10438:0.090500824 10517:0.10753996 10521:0.18766572 10522:0.09219192 10524:0.089780033 10528:0.08877863 10531:0.24756564 10537:0.14107972 10538:0.13080297 10539:0.092279963 10553:0.11074917 10558:0.10353221 11427:0.025269201 11430:0.025269201 11432:0.036463559 11433:0.036463559 #
-0.3952649021774983228993960437947 218:0.17819495 297:0.11232471 305:0.049682669 313:0.079370461 924:0.19786631 1029:0.16239494 1413:0.22294867 1597:0.13817352 1602:0.12927541 1614:0.11161199 1616:0.11405887 1619:0.16274326 1620:0.056404337 1621:0.11119818 2985:0.24438795 3234:0.24438795 3409:0.23548985 3672:0.21217541 3762:0.15498774 3764:0.1507147 3786:0.12015981 3799:0.11575224 3801:0.10584383 3802:0.054016024 3804:0.073504291 3806:0.149492 5057:0.095294945 8933:0.1800701 10410:0.1609726 10426:0.14401299 10437:0.12940039 10440:0.12619168 10447:0.12091196 10449:0.1205336 10458:0.081987314 10459:0.082781494 10464:0.10267868 10475:0.14169212 10479:0.14077424 10487:0.12990537 10495:0.17943233 10502:0.1189753 10510:0.13867646 10514:0.13817352 10519:0.13242358 10537:0.098535314 10555:0.1517289 10567:0.13592888 11427:0.035297893 11430:0.035297893 11432:0.050935004 11433:0.050935004 #
-1.9899999999999999911182158029987 292:0.10017359 306:0.080557838 313:0.066270895 316:0.039896198 973:0.14332791 1048:0.10922024 1615:0.086492531 1616:0.031744737 1620:0.04709518 3769:0.12307763 3792:0.10783544 3797:0.096648104 3798:0.10135665 3800:0.092266679 3801:0.08837501 3802:0.18040416 3803:0.17280383 3804:0.061372899 3805:0.18453163 3816:0.13499212 5024:0.1066199 5031:0.11150717 5056:0.092096962 5062:0.065920644 8341:0.18615247 8525:0.20007233 8941:0.14502199 8978:0.18408534 10455:0.08140105 10512:0.11235797 10523:0.24729051 10525:0.10793937 10528:0.10354513 10529:0.20709026 10531:0.28874308 10532:0.092266679 10536:0.12690318 10537:0.24681816 10538:0.15255935 10539:0.10762884 10541:0.13882513 10547:0.1459126 10551:0.13987939 10553:0.12917002 10554:0.17170012 10561:0.12364525 10563:0.24467942 10564:0.11428135 10569:0.15442157 10571:0.11738981 11427:0.029472213 11430:0.029472213 11432:0.042528521 11433:0.042528521 #
4.6186067623972570928003733570222 43:0.24662107 292:0.29096037 316:0.11588097 1048:0.3172369 1522:0.2069272 1616:0.092204548 1618:0.21691231 1620:0.13679084 3779:0.28618923 3833:0.32707193 3854:0.13250011 3855:0.14910322 4992:0.33232489 4993:0.33040634 5062:0.19147058 10456:0.21121044 11107:0.21222256 11427:0.085603856 11430:0.085603856 11431:0.13062806 11434:0.13062806 #
2.9463858569794645347883488284424 43:0.14202216 265:0.20877977 285:0.18250518 292:0.16755591 308:0.12637983 313:0.11084838 315:0.094541416 497:0.31512761 1022:0.23337419 1031:0.21808536 1052:0.18054539 1603:0.1684681 3833:0.18835154 3854:0.076303095 3855:0.085864365 4992:0.19137658 4993:0.19027174 5034:0.16591132 5037:0.22021373 5038:0.16338022 5062:0.11026254 5063:0.098997653 8270:0.34918675 9071:0.25725317 9085:0.22109534 9118:0.1785042 9119:0.17090622 11107:0.12221301 11427:0.04929686 11430:0.04929686 11431:0.075225033 11434:0.075225033 #
4.1826590503251876995705060835462 292:0.18651249 308:0.14067791 313:0.1233893 315:0.21047488 316:0.14856488 1031:0.24275862 1048:0.20335637 1051:0.21352901 1052:0.20097153 1058:0.2382115 1603:0.18752788 3841:0.19869941 3854:0.08493571 3855:0.095578693 4994:0.20783752 5034:0.18468183 5037:0.24512778 5058:0.14693296 5062:0.12273718 5063:0.11019783 5064:0.1115675 9017:0.28992113 9071:0.2863577 9113:0.22264956 9119:0.19024183 9127:0.14335153 11089:0.19688469 11427:0.0548741 11430:0.0548741 11431:0.083735682 11434:0.083735682 #
-0.36709688532787826398262609473022 284:0.14360081 313:0.082088545 1043:0.15436441 1522:0.088246338 1616:0.039321627 1618:0.092504606 1620:0.058335934 3779:0.12204849 3823:0.16507883 3825:0.15913199 3827:0.15292102 3839:0.17198311 3842:0.13542494 3845:0.12544881 3846:0.12495437 3854:0.056506101 3859:0.25858954 4351:0.25858954 4594:0.24782594 4629:0.23978649 4891:0.21119364 4967:0.17604949 5024:0.13206811 10456:0.090072975 10839:0.23641606 10882:0.23058367 11002:0.18759815 11041:0.17653789 11061:0.16089334 11068:0.15561906 11083:0.1422247 11102:0.12081797 11104:0.11152903 11113:0.21944149 11243:0.20584965 11390:0.16795623 11427:0.03650669 11430:0.03650669 11431:0.055707749 11434:0.055707749 #
-0.24097299680355793727315472096961 302:0.14898473 313:0.10681108 315:0.1821961 958:0.25547245 1032:0.21219315 1052:0.1739696 1203:0.3288798 1407:0.30002835 1610:0.1568694 1612:0.14789408 1613:0.14825447 3712:0.25315943 3776:0.18824428 3834:0.18355244 3839:0.11188956 3854:0.073523998 3855:0.082737029 5034:0.15986852 5063:0.095391981 5064:0.096577629 9119:0.16468149 9127:0.12409125 10400:0.21953057 10442:0.1684745 10444:0.1844063 10454:0.14251579 11058:0.21219315 11088:0.17603402 11332:0.24409693 11427:0.047501381 11430:0.047501381 11431:0.072485201 11434:0.072485201 #
-1.9899999999999999911182158029987 294:0.18734533 305:0.074863911 308:0.13635619 313:0.11959871 315:0.20400895 316:0.072000436 1031:0.23530093 1051:0.20696926 1052:0.19479756 1058:0.11544675 1616:0.057289548 1619:0.12261415 1620:0.084992394 3841:0.19259523 3854:0.082326427 3855:0.092642456 4994:0.20145263 5034:0.17900828 5037:0.2375973 5053:0.15432452 5060:0.12902632 5061:0.11986149 5063:0.10681248 5064:0.10814008 9071:0.27756062 9098:0.21700475 9119:0.18439747 9124:0.17405757 9126:0.16286933 9127:0.13894768 10269:0.32554823 10446:0.18454807 10459:0.1247386 11089:0.19083627 11427:0.053188331 11430:0.053188331 11431:0.081163265 11434:0.081163265 #
-0.3822332899714632192811336608429 51:0.31240946 193:0.26743636 308:0.13085301 1590:0.20227434 1616:0.054977406 1620:0.081562199 3743:0.23983313 3801:0.15305303 3802:0.2343259 3805:0.10652757 3819:0.19148809 5009:0.19523479 5010:0.21124956 5056:0.15949893 8418:0.3095229 8425:0.3405247 8506:0.31240946 10457:0.12196678 10512:0.19458814 10533:0.18296897 10537:0.14248472 10564:0.19791916 11427:0.051041711 11430:0.051041711 11432:0.073653392 11433:0.073653392 #
-0.40867255892318210541702683258336 254:0.19396248 281:0.17499694 305:0.060871437 307:0.11901188 314:0.2077627 316:0.058543164 1019:0.20913316 1038:0.19060005 1603:0.14779368 3846:0.14802547 3853:0.11901188 3854:0.066939168 3855:0.075327076 4921:0.24385692 5047:0.13004023 5056:0.13514189 5059:0.10899869 5060:0.1049106 5061:0.19491746 5064:0.087928109 8653:0.25574329 9083:0.17769618 9112:0.15869568 9114:0.15573356 9115:0.16769499 9117:0.15718569 9121:0.152854 9126:0.13242817 11068:0.18435197 11086:0.16026837 11104:0.13212132 11108:0.22623232 11272:0.23843397 11326:0.22306846 11389:0.20032871 11414:0.16808769 11427:0.043247145 11430:0.043247145 11431:0.065993406 11434:0.065993406 #
3.9590897707538403871296850411454 220:0.2481024 264:0.20463726 1603:0.17282641 3792:0.18503779 3798:0.17392065 3800:0.31664586 3801:0.15164509 3802:0.23217034 3805:0.31664288 3809:0.21023925 3816:0.23163667 5064:0.10282104 9083:0.20779368 10505:0.20221214 10518:0.19012403 10529:0.17767593 10532:0.15832293 10537:0.14117402 10538:0.1308904 10539:0.18468328 10546:0.22205482 10547:0.25037545 10571:0.20143239 11427:0.050572179 11430:0.050572179 11432:0.072975859 11433:0.072975859 #
1.5117515037800448585159074355033 18:0.21576518 43:0.10341223 214:0.17716432 299:0.11307336 303:0.10623899 968:0.18377887 1008:0.17826806 1594:0.1406808 1616:0.038662869 1620:0.05735863 3766:0.14748769 3771:0.14224946 3792:0.13133602 3794:0.12444392 3797:0.11771062 3801:0.10763457 3802:0.32957947 3805:0.22474661 3819:0.13466403 4999:0.15403494 5022:0.13133602 5026:0.12821209 5027:0.13714658 5061:0.080890663 7927:0.2485227 8785:0.19130352 8817:0.20625733 8944:0.1858535 9055:0.16197686 10458:0.083374441 10505:0.14352602 10512:0.13684414 10521:0.13329029 10528:0.12611072 10533:0.12867297 10537:0.10020241 10538:0.092903309 10540:0.15035912 10550:0.18657659 10564:0.1391867 10573:0.18807466 11427:0.035895091 11430:0.035895091 11432:0.051796764 11433:0.051796764 #
5.3894231111005845846761985740159 158:0.16313861 292:0.10310017 297:0.096526235 305:0.042694803 308:0.077763781 313:0.068207011 316:0.041061766 973:0.14751524 1044:0.12667336 1048:0.11241111 1603:0.10366146 3798:0.52158898 3801:0.090956889 3802:0.13925602 3804:0.063165918 3805:0.12661517 5004:0.11275116 5018:0.10943104 5040:0.10060292 5042:0.099890277 5052:0.10111339 5062:0.067846522 5069:0.22843865 8282:0.1939037 8684:0.17208204 8702:0.17103955 8941:0.14925882 8957:0.16166157 9120:0.11888271 10505:0.24257411 10507:0.16390909 10513:0.11931726 10518:0.1140366 10523:0.25451511 10527:0.1319858 10531:0.19811916 10537:0.084676325 10538:0.078508198 10546:0.13318871 10557:0.12785488 11427:0.030333245 11430:0.030333245 11432:0.043770995 11433:0.043770995 #
2.7834588466996827982313789107138 193:0.2121374 220:0.19862838 259:0.1755469 290:0.15173525 303:0.11983146 310:0.10483159 935:0.22968818 1603:0.13836315 3792:0.14813946 3797:0.13277081 3798:0.13923919 3800:0.1267518 3802:0.24783111 3805:0.25350124 5039:0.13515918 5058:0.10841112 5064:0.082317531 8607:0.22205648 8755:0.24337068 9083:0.16635761 9113:0.16427688 10511:0.155737 10521:0.15034378 10522:0.14771459 10523:0.33971655 10528:0.14224564 10531:0.26444149 10538:0.10478958 10551:0.19216 10553:0.17744794 11427:0.040487595 11430:0.040487595 11432:0.058423765 11433:0.058423765 #
-1.9899999999999999911182158029987 292:0.21614406 315:0.1219567 316:0.086083822 1048:0.23566395 1058:0.13802829 1603:0.21732077 3798:0.43739346 3802:0.29194286 3805:0.39816299 5058:0.17027646 5064:0.12929244 9123:0.21370323 10527:0.27670124 10530:0.20767318 10531:0.20767318 10538:0.16458829 10558:0.26054743 11427:0.063592046 11430:0.063592046 11432:0.091763578 11433:0.091763578 #
-1.9899999999999999911182158029987 122:0.19907804 292:0.11927439 293:0.12467946 305:0.049392704 313:0.078907229 314:0.084292099 316:0.047503483 938:0.18873157 973:0.17065723 1048:0.13004601 1616:0.075595453 3792:0.25679433 3802:0.16110231 3803:0.10287677 3805:0.21971756 5001:0.15084335 5004:0.1304394 5014:0.1291472 5059:0.088444442 5061:0.079080604 5062:0.07849019 8282:0.22432305 8829:0.19559319 8941:0.17267433 9023:0.16369814 9068:0.15524368 9121:0.12402979 10506:0.16922674 10513:0.27607119 10518:0.26385301 10524:0.12467946 10538:0.18164891 10546:0.30816635 10557:0.29582515 11427:0.035091884 11430:0.035091884 11432:0.050637729 11433:0.050637729 #
-1.9899999999999999911182158029987 308:0.15682517 313:0.13755216 1031:0.27062291 1603:0.20905267 3792:0.2238237 3794:0.21207812 3797:0.2006032 3802:0.093611911 3804:0.12738585 5004:0.22738375 5014:0.22513117 5050:0.18414558 5055:0.17492299 8696:0.37441757 8929:0.31096333 9023:0.28536081 9122:0.20776096 10531:0.19977212 10538:0.15832642 10558:0.25063473 11427:0.061172649 11430:0.061172649 11432:0.088272378 11433:0.088272378 #
-1.9899999999999999911182158029987 259:0.19656317 260:0.18470545 273:0.180112 306:0.12391563 309:0.2380307 885:0.26049855 995:0.2237547 1034:0.19230866 1603:0.15492783 3789:0.16885535 3794:0.15716998 3798:0.3118175 3802:0.069375291 5018:0.16355078 5049:0.13255876 8244:0.28021967 8519:0.26808828 8888:0.22110537 9076:0.18874881 10529:0.15927513 10531:0.29610014 10538:0.11733488 10558:0.18574408 10563:0.18818532 11427:0.045334727 11430:0.045334727 11432:0.065418191 11433:0.065418191 #
4.5691581449965994465856056194752 15:0.13347374 240:0.1055325 287:0.17544399 292:0.080456041 296:0.080087826 300:0.15094303 305:0.2332235 310:0.061289817 312:0.11546089 313:0.053226542 315:0.090792716 316:0.096129827 751:0.14488289 818:0.13997968 819:0.13997968 829:0.13428725 948:0.12402618 1037:0.11122492 1048:0.087721996 1051:0.092110179 1541:0.12209529 1616:0.0254963 1620:0.037825253 3658:0.13790372 3854:0.036638781 3855:0.041229859 4956:0.11755919 5002:0.093340531 5006:0.095145337 5007:0.089655034 5021:0.090948731 5041:0.078563705 5050:0.071256116 5053:0.13736202 5055:0.067687385 5056:0.22190748 5057:0.063905641 5059:0.059659828 5060:0.17226671 5061:0.053343493 5062:0.05294523 5063:0.047536124 5064:0.048126962 6478:0.17229897 7084:0.18667635 7440:0.16388875 8328:0.14785111 8465:0.14488289 8528:0.14110114 8612:0.14488289 8648:0.13891573 8763:0.12790936 8805:0.12730809 8809:0.13269092 8811:0.12852857 8841:0.13050552 8857:0.13347374 8975:0.11870126 8977:0.11949913 9019:0.11234639 9058:0.12402618 9070:0.11234639 9079:0.11095378 9083:0.097261019 9098:0.1931528 9111:0.099307679 9115:0.091786914 9122:0.080394216 9124:0.077463068 9126:0.072483823 10457:0.056563266 11104:0.072315872 11427:0.023671083 11430:0.023671083 11431:0.036121126 11434:0.036121126 #
2.9032076047179593558666965691373 138:0.24410744 240:0.19183703 268:0.17969283 279:0.17227584 287:0.15946108 303:0.12735417 305:0.060564827 312:0.10494243 316:0.058248278 818:0.25445512 833:0.2525211 948:0.22545485 1025:0.20319024 1522:0.10401323 1616:0.046347186 1618:0.10903231 1620:0.068758763 3779:0.14385478 3854:0.066601999 3856:0.10577951 5053:0.12484837 5060:0.10438216 5064:0.087485217 6493:0.31320515 8328:0.26876381 8653:0.25445512 9083:0.17680113 9098:0.17555661 9124:0.1408124 10456:0.10616623 11013:0.22454625 11107:0.10667498 11267:0.24262862 11427:0.043029305 11430:0.043029305 11431:0.065660998 11434:0.065660998 #
5.0604591355720494050274282926694 313:0.12038683 1522:0.12941752 1616:0.057667069 1618:0.13566248 1620:0.085552476 3779:0.17899002 3823:0.24209611 3848:0.17436357 3853:0.14733359 3854:0.082868941 3855:0.093252949 4911:0.30564362 5024:0.19368429 5056:0.16730212 8341:0.33816212 10456:0.13209638 11063:0.2342201 11070:0.22936256 11104:0.16356273 11105:0.16089696 11108:0.14003484 11254:0.29841176 11344:0.26936999 11357:0.26673859 11393:0.24311602 11427:0.053538829 11430:0.053538829 11431:0.081698112 11434:0.081698112 #
1.2556544812906804686747364030452 173:0.20001142 245:0.17225835 305:0.10419737 306:0.10117324 312:0.090272896 1047:0.14800152 1616:0.19934237 1618:0.093791068 1620:0.059147216 3722:0.13814718 3750:0.19907121 3777:0.17435162 3779:0.12374583 3844:0.12600304 3849:0.11847461 3851:0.10701435 3854:0.057291936 3855:0.064470984 3861:0.26218575 3864:0.26218575 4851:0.22445959 4978:0.1673746 5013:0.13800585 5023:0.13676088 5054:0.11173511 5059:0.093289867 8433:0.21563958 8725:0.20871241 9041:0.17752956 10452:0.1531938 10453:0.11111375 10491:0.16916701 11037:0.17849782 11048:0.17266633 11057:0.16534679 11070:0.15857118 11096:0.13185816 11107:0.091763258 11256:0.20097968 11407:0.15364744 11427:0.037014391 11430:0.037014391 11431:0.056482479 11434:0.056482479 #
-0.19830516730805500258405515978666 182:0.14010289 250:0.12123246 278:0.1022198 280:0.10297655 288:0.097729526 291:0.09653829 297:0.082896411 303:0.077100657 305:0.07333231 315:0.04995881 316:0.03526371 977:0.13540395 1024:0.12528042 1036:0.11355187 1058:0.056542441 1271:0.17684124 1455:0.1579708 1552:0.13289298 1595:0.1022198 1606:0.059780613 1609:0.089445546 1613:0.081303798 1616:0.056117494 1617:0.071108542 1619:0.060052827 1621:0.082065023 1901:0.19618236 3360:0.17684124 3570:0.16453767 3735:0.13289298 3775:0.10284867 3785:0.073658682 3786:0.088678777 3797:0.085425951 3798:0.08958777 3799:0.085425951 3801:0.078113474 3802:0.199321 3805:0.16310503 3816:0.11931771 3819:0.097729526 5015:0.099311695 5019:0.098349296 5053:0.075583637 5056:0.081403263 5059:0.065655798 5061:0.058704656 5063:0.052313633 5064:0.052963853 5072:0.19618236 7834:0.16869949 8171:0.16271055 8747:0.17379314 9009:0.1266856 9028:0.12270567 9070:0.1236375 9077:0.11502507 9091:0.10569725 9124:0.085248314 9127:0.068052515 10312:0.14968683 10429:0.11636822 10444:0.10112971 10447:0.08923386 10450:0.087347388 10451:0.085604988 10454:0.078156665 10457:0.062248025 10459:0.061093319 10464:0.075777575 10483:0.10008933 10499:0.085485473 10502:0.087804593 10509:0.10429639 10512:0.099311695 10513:0.10246927 10528:0.091522142 10532:0.081553273 10533:0.093381636 10537:0.14543949 10539:0.09513168 10564:0.10101175 10571:0.10375927 11427:0.026050091 11430:0.026050091 11432:0.037590388 11433:0.037590388 #
-0.69836990140495047718616206111619 21:0.14968896 84:0.14380701 159:0.13403054 165:0.13837105 183:0.13097899 211:0.12592588 257:0.10539718 290:0.092509568 291:0.091477133 305:0.10423164 313:0.055505022 314:0.17787857 355:0.16757008 627:0.15418021 938:0.1327578 1302:0.16213413 1562:0.12183256 1597:0.096626937 1610:0.081518121 1612:0.076854058 1613:0.077041328 1616:0.026587727 1619:0.056904472 1620:0.03944445 3000:0.17090438 3684:0.14183928 3689:0.14091872 3712:0.13155583 3764:0.10539718 3776:0.097822271 3792:0.090317309 3793:0.086797662 3797:0.080947377 3802:0.037774265 3804:0.051402718 5015:0.094105139 5026:0.088169046 5033:0.088406302 5038:0.081809245 5050:0.1486128 5055:0.1411698 5059:0.062213704 5060:0.059880324 5061:0.055626981 5062:0.055211671 5702:0.19466746 7959:0.17967463 8082:0.15779361 8403:0.15591155 8528:0.14714129 8597:0.14837764 8845:0.1327578 8884:0.12830521 8904:0.13041714 8905:0.12732185 8960:0.12419455 9044:0.11598615 9099:0.10057057 9118:0.089382261 9121:0.087245196 9122:0.16767134 10318:0.14003573 10400:0.11408038 10403:0.11408038 10423:0.1017168 10442:0.087548785 10446:0.08564762 10459:0.057890415 10513:0.097097173 10518:0.092799909 10525:0.090404347 10531:0.080612019 10538:0.063887857 10557:0.10404486 10558:0.1011361 11427:0.024684379 11430:0.024684379 11432:0.035619657 11433:0.035619657 #
-1.9899999999999999911182158029987 43:0.36420408 240:0.28180328 305:0.088968053 312:0.15415752 316:0.085565113 948:0.33118692 1594:0.24772951 1616:0.068082735 1620:0.10100472 3766:0.25971594 3771:0.2504918 3833:0.24150598 3854:0.097836487 3855:0.11009603 4992:0.24538471 4993:0.24396805 5053:0.1833988 5064:0.12851337 9083:0.25971594 9124:0.20684952 10458:0.14681682 11107:0.15670258 11427:0.063208863 11430:0.063208863 11431:0.096454188 11434:0.096454188 #
-0.14943500332015544063146705866529 6:0.24471872 48:0.24008617 100:0.23412426 188:0.20344906 226:0.19481423 229:0.19199215 267:0.16508496 305:0.055725724 314:0.095099837 621:0.24471872 1615:0.11618912 1616:0.042644065 1621:0.062361773 3781:0.12929365 3802:0.060586154 3804:0.082444839 5013:0.14761363 5022:0.14485995 5031:0.14979234 5057:0.10688595 5061:0.089220136 5062:0.088554025 6484:0.2881802 8387:0.2472897 8434:0.25006658 8812:0.21603917 8830:0.21393594 8998:0.20125723 9020:0.19986933 9055:0.17865594 9104:0.15749362 10455:0.1093495 10532:0.12394577 11427:0.039591283 11430:0.039591283 11432:0.057130381 11433:0.057130381 #
-1.4491003003029310214344604901271 294:0.31903064 305:0.12748586 1522:0.21894252 1616:0.097558454 1618:0.22950745 1620:0.14473368 3779:0.30280694 3794:0.31401074 3800:0.28355548 3802:0.13860525 3804:0.18861221 3810:0.37541944 5054:0.27341667 10456:0.22347449 10522:0.33045113 11427:0.090574488 11430:0.090574488 11432:0.13069935 11433:0.13069935 #
-0.11859914328658970050778265203917 108:0.10993154 310:0.048501946 315:0.035924591 316:0.025357576 440:0.1249719 787:0.11465366 1058:0.040658776 1106:0.083678544 1108:0.076319881 1114:0.071335115 1116:0.1528542 1119:0.062717386 1122:0.10993154 1130:0.10327607 1139:0.089604363 3823:0.16940956 3828:0.080115564 3829:0.07764256 3835:0.072720774 3838:0.071891591 3839:0.17649497 3842:0.13897772 3844:0.063767508 3845:0.064369932 3847:0.12534243 3848:0.061006464 3851:0.054157723 3853:0.10309839 3854:0.057988498 3856:0.092099264 3874:0.1363495 4134:0.1363495 4465:0.12969403 4588:0.12716374 4594:0.12716374 4609:0.12716374 4721:0.12303856 4871:0.11259919 4880:0.11166096 4917:0.10993154 4918:0.10626876 4919:0.1050055 4932:0.10383254 4938:0.10221671 4967:0.090334013 4979:0.084529221 4990:0.075393431 5058:0.050158069 5063:0.037617907 5064:0.038085468 9113:0.07600522 9127:0.048935484 9138:0.098148622 9141:0.096620597 9171:0.079850808 9173:0.08271271 9867:0.12130913 9930:0.12130913 10006:0.11259919 10668:0.14107162 10798:0.1249719 10799:0.12716374 10840:0.12303856 10859:0.12130913 10885:0.11831643 10909:0.11465366 10912:0.11465366 10945:0.10836708 10947:0.10913067 10985:0.10074577 10986:0.10028337 11014:0.096259832 11018:0.094566122 11033:0.0936279 11035:0.09332671 11041:0.090584621 11042:0.09083911 11049:0.087803721 11052:0.086771026 11055:0.085426405 11070:0.080249555 11077:0.076319881 11081:0.072891764 11084:0.071102284 11095:0.067454934 11098:0.066036984 11100:0.05842863 11102:0.06199377 11105:0.056294754 11108:0.097991005 11109:0.066322461 11153:0.1135943 11210:0.10993154 11254:0.10440855 11266:0.10221671 11295:0.10074577 11297:0.12716374 11318:0.098553941 11334:0.095906816 11367:0.089604363 11400:0.083845191 11425:0.072720774 11428:0.049670581 11429:0.049670581 11431:0.028584599 11434:0.028584599 #
6.2453986292945655733888088434469 90:0.14570214 126:0.1432296 181:0.13833377 263:0.11069855 289:0.094635785 305:0.036370091 309:0.135672 314:0.062068097 842:0.14570214 1596:0.10043076 1605:0.090250351 1607:0.089729816 1616:0.027832184 1619:0.059567925 1620:0.041290674 3733:0.12957627 3753:0.12025356 3772:0.10386223 3774:0.10227262 3795:0.18265754 3798:0.26659316 3802:0.27679619 3803:0.075752839 3805:0.32357603 5014:0.095096953 5049:0.075555429 5053:0.07497333 5061:0.058230642 6527:0.19459826 7113:0.18303189 8487:0.15280414 8695:0.14402415 9068:0.11431298 9069:0.11366907 10431:0.10019612 10436:0.095378228 10448:0.087095611 10459:0.060600016 10472:0.1054244 10493:0.091093317 10505:0.10331986 10512:0.098509796 10515:0.099393517 10527:0.22486743 10531:0.16877024 10537:0.072132565 10538:0.20063451 10539:0.094363526 10540:0.10823881 10558:0.21173967 10564:0.10019612 10565:0.13594814 10571:0.10292146 10573:0.13538904 11427:0.025839748 11430:0.025839748 11432:0.037286859 11433:0.037286859 #
10.456505617543720987328015326057 171:0.19729804 281:0.29261252 295:0.12375674 310:0.093618155 312:0.088181332 316:0.048945032 625:0.22583763 686:0.22583763 1053:0.12823832 1603:0.12356296 3792:0.13229355 3794:0.12535119 3800:0.11319364 3802:0.11066077 3804:0.075292856 3805:0.075461723 3809:0.15031143 3810:0.14986518 5009:0.1382999 5043:0.1221462 5047:0.10872018 5050:0.10884134 5055:0.10339022 5058:0.096814789 5064:0.073512331 7434:0.25033459 8178:0.23113041 8552:0.22130378 8567:0.21381427 8666:0.20776108 9047:0.16488951 9114:0.1302011 9122:0.12279948 9123:0.12150612 10513:0.14222446 10518:0.13592997 10527:0.15732516 10532:0.11319364 10538:0.093580633 10546:0.15875903 10557:0.15240118 10559:0.20041692 11427:0.036156792 11430:0.036156792 11432:0.052174393 11433:0.052174393 #
3.620241557394679343673260518699 210:0.114558 1362:0.16001569 1403:0.15823877 1420:0.15506202 1475:0.15101457 1495:0.14557299 1528:0.13501883 1535:0.1311723 1542:0.12970807 1584:0.11103386 1605:0.088484481 1606:0.11627533 1609:0.086987324 1612:0.078877121 1616:0.027287608 1619:0.058402397 1620:0.040482763 3425:0.16406313 3432:0.16406313 3554:0.15823877 3555:0.15823877 3792:0.092694774 3795:0.1790836 3797:0.083078191 3798:0.087125637 3801:0.075966686 3802:0.19384307 3805:0.26437068 3816:0.11603851 5061:0.057091281 7706:0.17198111 10082:0.17945062 10256:0.16194728 10340:0.13562708 10375:0.12789485 10381:0.12392008 10385:0.12251011 10406:0.11629515 10409:0.11272607 10411:0.11317007 10431:0.098235644 10436:0.093512021 10442:0.089853376 10511:0.097448744 10513:0.09965311 10515:0.097448744 10517:0.10781641 10518:0.095242731 10527:0.1102338 10528:0.1780137 10531:0.16546802 10534:0.12055007 10537:0.070721194 10538:0.19670881 10539:0.092517175 10546:0.11123847 10553:0.11103386 10558:0.10379834 10565:0.13328813 10571:0.10090765 11427:0.025334157 11430:0.025334157 11432:0.036557291 11433:0.036557291 #
4.5617449917941028658674440521281 26:0.11145698 45:0.10854772 133:0.099873386 155:0.10039661 210:0.082343109 257:0.077752635 260:0.074191995 294:0.064140864 304:0.05230457 305:0.025630936 308:0.046683867 309:0.095611535 314:0.04374098 720:0.11255789 918:0.10207782 1034:0.077246033 1089:0.095027603 1097:0.084158331 1101:0.059967045 1108:0.074191995 1109:0.076515064 1110:0.075146504 1111:0.073487163 1113:0.066692263 1114:0.069346212 1116:0.19812326 1119:0.12193751 1136:0.098875768 3795:0.12872344 3797:0.059715752 3798:0.18787503 3801:0.10920815 3802:0.13933241 3805:0.19002694 3809:0.075702541 3816:0.083407283 5036:0.067483671 5038:0.060351565 5045:0.064698853 5049:0.053245846 5050:0.05481663 5057:0.049161982 5059:0.045895718 6757:0.13713838 7109:0.12898727 7432:0.12361826 7871:0.12148754 8084:0.11640605 8141:0.12361826 8428:0.11255789 8436:0.10768498 8494:0.10945979 8721:0.11640605 8798:0.11145698 8816:0.10768498 8847:0.099366784 9076:0.075816117 9095:0.076515064 9142:0.089877188 9144:0.091619655 9152:0.088306405 9157:0.086650148 9162:0.097936861 9168:0.080105506 9171:0.07762447 9172:0.079094328 9177:0.068603903 9181:0.094285294 9713:0.12607801 9767:0.1196081 9823:0.1196081 9862:0.11640605 9959:0.13254791 9978:0.13713838 10007:0.11255789 10014:0.10330587 10019:0.10207782 10027:0.099873386 10038:0.090724654 10513:0.14325927 10514:0.071282737 10515:0.070045158 10517:0.077497326 10518:0.13691899 10519:0.068316385 10520:0.066951729 10521:0.067619473 10528:0.063977204 10529:0.19193162 10531:0.059468355 10532:0.057008613 10536:0.078409389 10537:0.050833665 10538:0.04713076 10539:0.066500396 10541:0.085775584 10546:0.079957068 10557:0.15351003 10563:0.075589776 10565:0.095806137 10567:0.070124738 10569:0.09541212 11428:0.048285708 11429:0.048285708 11432:0.026277006 11433:0.026277006 #
-1.9899999999999999911182158029987 262:0.13202678 276:0.12144942 292:0.10595792 305:0.043878224 315:0.059785485 316:0.042199925 992:0.15903243 1022:0.14757966 1035:0.136132 1072:0.17912954 1097:0.1440727 1114:0.11871547 1116:0.084793016 1119:0.10437389 3801:0.093478046 3802:0.19082125 3803:0.091391027 3805:0.26024941 3816:0.14278696 5038:0.10331731 5039:0.10406782 5041:0.10346577 5053:0.0904506 5057:0.084161602 5062:0.0697271 8325:0.19269058 9019:0.14795645 9056:0.14310277 9094:0.130988 9097:0.12772529 9118:0.11288132 9130:0.15960754 9152:0.15117389 9717:0.215836 9869:0.20476002 10512:0.23769172 10530:0.10180533 10532:0.097594433 10534:0.1483385 10537:0.17404678 10539:0.2276873 10547:0.15433805 10564:0.2417606 10571:0.24833649 11428:0.08266148 11429:0.08266148 11432:0.044984248 11433:0.044984248 #
-1.9899999999999999911182158029987 171:0.19263877 259:0.15306714 270:0.14484768 799:0.21043754 3792:0.12916939 3800:0.11052053 3801:0.21171787 3802:0.27011868 3804:0.073514789 3805:0.29471865 3809:0.14676178 3816:0.16169868 5018:0.12735982 5047:0.10615272 5050:0.10627101 5064:0.071776308 8908:0.18278748 9047:0.16099559 9114:0.12712635 10512:0.26917329 10528:0.12403029 10531:0.11528914 10532:0.22104105 10536:0.15200944 10537:0.19709876 10538:0.091370694 10539:0.12892191 10540:0.14787868 10547:0.17477965 10558:0.14464213 10564:0.27378109 10571:0.14061396 10575:0.23552348 11427:0.035302933 11430:0.035302933 11432:0.050942276 11433:0.050942276 #
-0.37244163320508749670523229724495 110:0.11849961 283:0.080120936 287:0.074829698 304:0.057998255 305:0.056842051 307:0.05556694 308:0.051765703 312:0.049245935 316:0.027333949 521:0.1326282 786:0.12358978 912:0.11455137 918:0.11318964 928:0.1138574 1056:0.069167815 1415:0.12753803 1479:0.12137518 1516:0.11254616 1544:0.10579834 1575:0.093319498 1586:0.086796679 1596:0.078480557 1601:0.075832225 1602:0.073952138 1606:0.18535091 1608:0.1374751 1614:0.063847765 1616:0.065247498 1617:0.055118345 1619:0.046548728 1621:0.095416553 2111:0.15206677 2270:0.15206677 2623:0.14697659 2969:0.07933002 3147:0.14302835 3452:0.1326282 3551:0.12481052 3556:0.12612177 3600:0.12481052 3616:0.11763633 3702:0.11192526 3730:0.10454885 3785:0.057095028 3786:0.068737552 3799:0.066216193 3801:0.060548075 3802:0.1235997 3803:0.11839252 3805:0.16857006 3806:0.085517056 3809:0.083943248 3816:0.092486702 5045:0.07174173 5060:0.097966045 5063:0.040549848 8722:0.11318964 8800:0.11132541 8841:0.11132541 8963:0.102287 8981:0.10092527 9125:0.07423985 10262:0.12244786 10263:0.12244786 10371:0.10264446 10405:0.092084549 10426:0.082382783 10428:0.08204142 10445:0.071678877 10448:0.068059944 10450:0.067705557 10451:0.066354968 10454:0.060581554 10457:0.14475088 10459:0.094710492 10464:0.058737449 10469:0.084196016 10478:0.083085939 10483:0.077582203 10499:0.066262327 10502:0.068059944 10510:0.07933002 10512:0.076979443 10517:0.1718668 10519:0.15150611 10521:0.14996056 10532:0.12642872 10537:0.1691017 10538:0.052261241 10539:0.073739387 10547:0.09996862 10555:0.086796679 10564:0.078297205 10567:0.15551654 10571:0.080426887 11427:0.020192198 11430:0.020192198 11432:0.029137425 11433:0.029137425 #
-1.9899999999999999911182158029987 292:0.19461396 298:0.092795663 305:0.040295787 312:0.069821678 315:0.054904301 316:0.038754512 409:0.19821408 1022:0.13553052 1048:0.10609474 1077:0.16450451 1084:0.15125717 1098:0.13731045 1101:0.094277449 1110:0.1181419 1111:0.11553317 3794:0.099252649 3795:0.20237313 3800:0.089626335 3802:0.17524163 3803:0.083929405 3804:0.059616629 3805:0.059750333 3810:0.11866274 5033:0.10253321 5038:0.094881974 5041:0.095018312 5060:0.069448911 5062:0.12806846 5063:0.057492226 8596:0.17065378 8602:0.16450451 8645:0.16678667 9044:0.13452019 9085:0.12839964 9097:0.11729716 9111:0.12010697 9118:0.10366512 9134:0.14766727 9140:0.14173712 9148:0.13805935 9175:0.11973804 9176:0.11780058 9177:0.10785592 9737:0.20278788 9871:0.18804239 9949:0.17360854 9966:0.17360854 9972:0.17208767 9977:0.16678667 10510:0.11247538 10512:0.10914269 10515:0.11012179 10529:0.10058204 10532:0.089626335 10537:0.07991837 10539:0.20909777 10564:0.11101103 10571:0.11403053 11428:0.07591258 11429:0.07591258 11432:0.041311506 11433:0.041311506 #
-1.9899999999999999911182158029987 211:0.1422658 257:0.11907333 292:0.094786875 303:0.0825385 304:0.080101199 315:0.053482361 316:0.037750825 449:0.18605061 468:0.18605061 895:0.1514221 962:0.14998423 1004:0.14733984 1062:0.16133034 1101:0.18367161 1109:0.11717806 1113:0.10213505 1114:0.10619941 1116:0.07585337 1118:0.098651275 3799:0.091450967 3801:0.083622746 3802:0.12802735 3804:0.058072645 3805:0.11640578 5038:0.092424668 5041:0.092557475 5062:0.12475168 8375:0.17237541 8680:0.16491286 8796:0.15294988 8939:0.15632583 9097:0.11425933 9118:0.10098035 9152:0.13523577 9157:0.13269931 9166:0.12610336 9168:0.1226766 9171:0.11887705 9172:0.12112805 9177:0.10506261 9407:0.2100189 9704:0.18931368 9962:0.15820652 9991:0.16763087 10019:0.15632583 10027:0.15294988 10040:0.1422658 10517:0.11868234 10519:0.1046223 10523:0.11699638 10532:0.26191545 10536:0.12007911 10537:0.077848598 10567:0.10739169 10569:0.14611773 11428:0.073946558 11429:0.073946558 11432:0.040241603 11433:0.040241603 #
0.24769251325785773820697954761272 43:0.21309841 155:0.20390321 210:0.16723697 221:0.18485434 294:0.13026863 296:0.12513009 305:0.15616754 308:0.094813868 311:0.094076455 488:0.22427504 1594:0.1449483 1616:0.039835691 1620:0.059098583 3766:0.15196167 3771:0.14656454 3833:0.14130688 3854:0.05724483 3855:0.064417973 4992:0.14357634 4993:0.14274746 5028:0.17053552 5059:0.093213156 5060:0.08971712 5061:0.083344445 5076:0.27852491 5845:0.29166514 6757:0.27852491 7086:0.25606155 8273:0.23641802 8436:0.21870574 8845:0.19890754 8930:0.21704344 9126:0.1132495 10458:0.08590357 11107:0.091687806 11427:0.036983956 11430:0.036983956 11431:0.056436036 11434:0.056436036 #
6.5021308629379506172085712023545 43:0.10040881 112:0.19537008 276:0.27156109 305:0.14716767 308:0.089349784 310:0.090241268 312:0.1700011 315:0.13368043 316:0.047179546 635:0.220136 800:0.24130481 933:0.18832986 1035:0.15219568 1051:0.13562022 1594:0.136595 1616:0.037539978 1620:0.055692755 3766:0.14320417 3771:0.13811809 3841:0.12620139 3854:0.053945832 3855:0.060705591 4994:0.13200535 5006:0.14008911 5007:0.13200535 5016:0.1299457 5038:0.11550883 5041:0.11567482 5052:0.11617824 5057:0.094092727 5058:0.093322597 5060:0.08454676 5062:0.15590991 8369:0.23251897 8492:0.20775305 8650:0.21542822 8757:0.19425941 8959:0.17535385 9081:0.16671519 9097:0.14279696 9108:0.13743177 9116:0.13257889 9118:0.12620139 9120:0.136595 10458:0.08095298 11089:0.1250488 11427:0.034852587 11430:0.034852587 11431:0.053183649 11434:0.053183649 #
2.5085554298687400276435255364049 228:0.1811903 297:0.12932824 305:0.05720355 313:0.091385424 314:0.097621843 315:0.15588333 316:0.055015568 1051:0.15814531 1052:0.1488449 1058:0.088212915 1248:0.27113789 1616:0.04377497 1620:0.064942732 3802:0.062192876 3804:0.084631249 5004:0.15106678 5031:0.15376478 5037:0.18154821 5053:0.11791943 5054:0.12268343 5058:0.10882249 5061:0.091586225 5064:0.082629889 5814:0.32050735 7423:0.26694334 7814:0.29582262 8051:0.2758933 8882:0.27113789 8934:0.23352918 9013:0.20248078 9020:0.2051698 9123:0.13657622 9124:0.13299747 10457:0.097114295 10532:0.12723278 11427:0.04064123 11430:0.04064123 11432:0.058645457 11433:0.058645457 #
-1.1868154563499753173516637616558 43:0.11232517 116:0.22555301 137:0.21068053 202:0.19889919 309:0.20471148 310:0.10095096 312:0.095088281 339:0.26467597 502:0.25249034 1603:0.13324124 3833:0.14896703 3854:0.060348034 3855:0.06791003 4992:0.15135953 4993:0.15048571 5029:0.13768445 5043:0.13171351 5049:0.11400336 5056:0.1218352 5149:0.30747613 7885:0.26467597 8178:0.2492341 8425:0.26011392 8476:0.22714233 8666:0.22403432 8910:0.19819474 8913:0.21170045 11107:0.09665814 11427:0.038988832 11430:0.038988832 11431:0.059495397 11434:0.059495397 #
-1.9899999999999999911182158029987 285:0.1879185 287:0.18810657 292:0.17252582 305:0.071444653 313:0.11413628 316:0.068711966 973:0.24684913 1048:0.18810657 1590:0.20115423 1616:0.054672964 1621:0.079952583 3713:0.26488361 3796:0.17428625 3802:0.077676103 3804:0.10570061 3814:0.20115423 5016:0.189252 5054:0.15322608 5056:0.15861569 5062:0.22706611 8614:0.27984935 8617:0.29571372 8941:0.2497668 8968:0.24756081 9064:0.24280286 9108:0.20015468 10457:0.12129138 10538:0.13137409 11427:0.050759066 11430:0.050759066 11432:0.073245533 11433:0.073245533 #
-0.0088019933889311730013105261605233 43:0.12762126 273:0.17599399 281:0.17925002 305:0.18705252 307:0.12190431 310:0.11469814 316:0.059965979 874:0.25626811 879:0.25807387 957:0.24052915 1339:0.28687367 1616:0.047713932 1620:0.070786409 3326:0.30071872 3833:0.16925289 3854:0.068566039 3855:0.077157803 4992:0.1719712 4993:0.17097838 5002:0.17467804 5009:0.16944087 5053:0.12853006 5054:0.13372274 5057:0.11959341 5059:0.11164776 8553:0.25626811 9013:0.22070041 9041:0.21246444 9089:0.18671733 9095:0.18613361 10457:0.10585283 11107:0.10982075 11427:0.044298209 11430:0.044298209 11431:0.067597292 11434:0.067597292 #
-1.9899999999999999911182158029987 43:0.096357018 60:0.19936959 160:0.1816051 210:0.15123957 235:0.15793741 298:0.10841034 308:0.085744254 488:0.20282154 1590:0.13254461 1608:0.11385627 1610:0.11045325 1616:0.036025129 1620:0.053445388 3596:0.19093828 3743:0.15715583 3751:0.15155642 3833:0.12778987 3854:0.25884479 3855:0.058255941 4940:0.20890699 4973:0.12044015 4992:0.12984225 4993:0.12909265 4995:0.14553076 5028:0.15422259 5029:0.11811123 5095:0.25188205 6466:0.24345073 7337:0.25188205 8406:0.23156746 8910:0.17001937 10393:0.1528592 10401:0.14940724 10438:0.11978642 11088:0.12394725 11093:0.15998773 11347:0.1816051 11411:0.17747042 11427:0.033446178 11430:0.033446178 11431:0.051037531 11434:0.051037531 #
-1.5598725315552328662960235305945 237:0.1683899 310:0.090659276 311:0.089065529 316:0.047398087 997:0.17798933 1055:0.12280725 1522:0.084638171 1616:0.037713867 1618:0.088722333 1620:0.055950731 3779:0.11705825 3793:0.1231198 3795:0.49501845 3797:0.11482135 3798:0.12041527 3800:0.10961606 3801:0.10499262 3802:0.26790813 3805:0.21923009 3816:0.16037539 3819:0.13135862 5011:0.13348523 5058:0.09375488 8380:0.23769298 8729:0.19863635 10456:0.08639013 10521:0.13001861 10525:0.12823577 10531:0.22869131 10533:0.12551461 10536:0.15076543 10537:0.19548577 10538:0.090622947 10539:0.12786685 10561:0.14689492 10565:0.18421587 10571:0.13946323 11427:0.035014026 11430:0.035014026 11432:0.050525382 11433:0.050525382 #
-1.1777580576694359759670760467998 52:0.23512395 124:0.21930291 308:0.098481901 310:0.099464498 315:0.073671713 933:0.20757836 1040:0.16744915 1615:0.11273631 1616:0.041376803 1621:0.060508553 3781:0.1254514 3792:0.14055513 3795:0.54309678 3802:0.11757141 3803:0.11261819 3805:0.16034845 5003:0.19078155 5031:0.14534093 5045:0.13648538 5063:0.07714425 8515:0.25628388 8605:0.2796163 9125:0.14123794 10455:0.10609995 10515:0.14776368 10527:0.16714993 10528:0.13496304 10531:0.1254514 10537:0.1072361 10538:0.099424638 10553:0.16836309 11427:0.038414743 11430:0.038414743 11432:0.055432625 11433:0.055432625 #
2.6199619493618362398024146386888 43:0.096357018 60:0.19936959 160:0.1816051 210:0.15123957 235:0.15793741 298:0.10841034 308:0.085744254 488:0.20282154 1590:0.13254461 1608:0.11385627 1610:0.11045325 1616:0.036025129 1620:0.053445388 3596:0.19093828 3743:0.15715583 3751:0.15155642 3833:0.12778987 3854:0.25884479 3855:0.058255941 4940:0.20890699 4973:0.12044015 4992:0.12984225 4993:0.12909265 4995:0.14553076 5028:0.15422259 5029:0.11811123 5095:0.25188205 6466:0.24345073 7337:0.25188205 8406:0.23156746 8910:0.17001937 10393:0.1528592 10401:0.14940724 10438:0.11978642 11088:0.12394725 11093:0.15998773 11347:0.1816051 11411:0.17747042 11427:0.033446178 11430:0.033446178 11431:0.051037531 11434:0.051037531 #
4.3624722249192364742498284613248 285:0.1608123 290:0.16279003 292:0.14763993 303:0.12856187 312:0.10593759 315:0.083304062 895:0.23585488 908:0.25128797 1022:0.20563495 1522:0.10499958 1616:0.046786692 1618:0.11006626 1621:0.068419866 3782:0.13308805 3796:0.14914642 3802:0.066471756 3804:0.090453885 3814:0.17213885 5038:0.14396057 5041:0.14416742 5062:0.09715654 5475:0.34255829 5819:0.34255829 6014:0.34255829 8680:0.25686809 8796:0.23823458 9097:0.17797022 9118:0.15728688 10456:0.107173 10538:0.11242411 11427:0.043437351 11430:0.043437351 11432:0.062680274 11433:0.062680274 #
5.9685864395016752226297285233159 265:0.14770564 305:0.049088988 306:0.095328555 312:0.085057914 884:0.2004021 1047:0.13945161 1548:0.1766708 1598:0.14093363 1606:0.080034837 1609:0.11975053 1616:0.11269592 1620:0.055730335 1621:0.10986941 2969:0.13701935 3547:0.22585642 3691:0.19910145 3854:0.21592893 3855:0.060746554 3856:0.085736379 4201:0.27504206 4771:0.25385895 4894:0.20318227 4971:0.16682768 5007:0.13209443 5054:0.10528028 8896:0.18671013 10338:0.19331807 10415:0.18199916 10446:0.12100995 10451:0.11460875 10455:0.096326374 11081:0.13571174 11088:0.12924635 11093:0.16682768 11099:0.14916119 11155:0.27504206 11333:0.22294368 11411:0.18505779 11427:0.034876101 11430:0.034876101 11431:0.053219534 11434:0.053219534 #
3.4451360614292370065925297240028 119:0.123697 207:0.12670781 280:0.097829983 292:0.084116921 304:0.07108438 305:0.069667302 313:0.055648435 315:0.047461964 922:0.1379399 973:0.12035409 1022:0.11715921 1084:0.1307541 1092:0.12141215 1100:0.12070107 1101:0.081498042 1108:0.10083041 1112:0.10431369 1114:0.094244771 1116:0.26925886 1118:0.087546311 1119:0.16571882 1135:0.12863672 1139:0.11838128 3854:0.038305908 3855:0.043105882 4419:0.16800304 4422:0.16800304 5038:0.082020618 5041:0.082138479 5042:0.081498042 5062:0.055354327 5718:0.19517043 7103:0.17529978 7459:0.17529978 8206:0.1602682 8493:0.15820131 8744:0.1379399 9097:0.1013974 9118:0.089613207 9130:0.12670781 9142:0.12214734 9152:0.12001257 9168:0.10886716 9173:0.10927634 9177:0.18647188 9178:0.093039684 9179:0.098573573 9180:0.12035409 9537:0.17134595 9820:0.1602682 9910:0.15297148 9951:0.16255304 9962:0.14039755 9992:0.148761 10012:0.13437682 10019:0.13872857 10022:0.16800304 10038:0.12329908 10047:0.11686416 11088:0.091713488 11428:0.065622553 11429:0.065622553 11431:0.037764695 11434:0.037764695 #
5.4698743692761535584168086643331 312:0.10800935 1522:0.107053 1616:0.047701675 1618:0.11221877 1621:0.069757909 3782:0.13569078 3827:0.18551086 3835:0.17192702 3846:0.15158409 3854:0.34274215 4893:0.30064148 4973:0.15947749 5013:0.16512069 8259:0.27972463 8911:0.22757822 10456:0.10926893 10711:0.31369898 10745:0.30064148 10938:0.25620228 10996:0.25990099 11068:0.18878388 11104:0.1352976 11353:0.24548168 11427:0.044286832 11430:0.044286832 11431:0.067579933 11434:0.067579933 #
-1.8982058249997251220264615767519 270:0.13933107 278:0.13325179 299:0.10697258 303:0.10050695 316:0.045969103 739:0.21210638 1008:0.16864976 1064:0.19928773 1109:0.14268748 1110:0.14013535 1116:0.18473297 1119:0.22739255 3844:0.11559997 3850:0.10605084 3851:0.098179013 3854:0.05256179 3855:0.059148122 4972:0.16158769 4988:0.14138407 4999:0.14572412 5014:0.1249757 5052:0.11319755 5061:0.076526277 8487:0.20081405 8547:0.21991344 9068:0.15022926 9078:0.18722247 9142:0.16760556 9162:0.18263547 9177:0.12793452 9178:0.12766522 9179:0.1352586 9767:0.22304861 9998:0.21210638 10038:0.16918592 10047:0.16035619 10919:0.20412375 10983:0.18530202 11087:0.12597184 11100:0.10592146 11378:0.15995677 11428:0.090044565 11429:0.090044565 11431:0.051819164 11434:0.051819164 #
-0.89951528460741569936942596541485 210:0.12578744 1060:0.16324942 1079:0.15336598 1088:0.15104274 1116:0.075663336 1117:0.097898044 1118:0.098404124 3837:0.1060497 3838:0.10675972 3839:0.065524191 3846:0.095213234 3853:0.076551057 3854:0.30139723 3855:0.048452035 3856:0.13676833 3972:0.11037754 4863:0.19259691 4916:0.16868865 4982:0.13007486 4986:0.12103936 4989:0.11397308 9135:0.14960846 9145:0.13903835 9148:0.1341469 9269:0.20248035 9908:0.18271348 10983:0.15179281 11030:0.13687982 11055:0.12685905 11088:0.10308813 11093:0.13306336 11094:0.10120069 11108:0.21827641 11109:0.29546851 11340:0.1525667 11351:0.13903835 11367:0.13306336 11376:0.18014525 11411:0.14760387 11420:0.10329559 11425:0.32397321 11428:0.073761299 11429:0.073761299 11431:0.042448413 11434:0.042448413 #
-1.9253822351605607288149712985614 84:0.13384777 176:0.11720499 223:0.10932369 243:0.10876442 250:0.10692099 257:0.19619597 260:0.093605638 275:0.093092687 276:0.08950676 300:0.073251784 305:0.064675443 308:0.058899522 309:0.12062998 310:0.059487194 312:0.056032505 315:0.08812236 316:0.062201668 620:0.14062166 839:0.13695115 927:0.12954807 943:0.12600702 1034:0.097458817 1035:0.10032765 1040:0.10014708 1051:0.089401074 1058:0.049867615 1603:0.078514837 3837:0.08758796 3840:0.085836239 3842:0.085227445 3851:0.066423945 3853:0.063224614 3854:0.14224473 3855:0.040017225 3856:0.056479454 4814:0.14201064 4929:0.12734966 4952:0.11598448 4957:0.11762884 4973:0.082732864 4984:0.098591045 4990:0.09246935 4995:0.099968135 5013:0.085660413 5016:0.085660413 5021:0.088273793 5032:0.084224813 5036:0.17028391 5038:0.076143615 5041:0.076253027 5045:0.081628449 5047:0.069083385 5049:0.067178562 5051:0.073827028 5057:0.12405217 5059:0.057905141 5062:0.051388033 5063:0.046138015 7109:0.16273905 8173:0.16273905 8416:0.13810186 8494:0.13810186 8514:0.14201064 8579:0.13810186 8608:0.13291122 8728:0.14878453 8872:0.13695115 8925:0.12734966 8937:0.11989325 8989:0.11374527 9075:0.099790759 9076:0.095654733 9087:0.10050984 9095:0.096536577 9097:0.094131991 9116:0.087396227 9118:0.08319217 9125:0.084470831 11033:0.11483376 11062:0.098926581 11084:0.087206297 11086:0.085141957 11091:0.083037898 11100:0.07166218 11157:0.14062166 11178:0.13586266 11242:0.12954807 11265:0.12536785 11394:0.10325047 11427:0.022974882 11430:0.022974882 11431:0.035058748 11434:0.035058748 #
-1.9899999999999999911182158029987 285:0.1073496 306:0.079257354 310:0.075078346 1050:0.10982496 1068:0.17147127 1081:0.16161868 1092:0.14225379 1094:0.14400679 1097:0.1340088 1101:0.19097602 1108:0.11813898 1109:0.1218381 1111:0.2340333 1113:0.10619685 1116:0.23660991 1118:0.10257453 1119:0.19416614 1134:0.15822583 1135:0.15071851 3854:0.044881504 3855:0.050505444 4312:0.20539176 5013:0.10811137 5043:0.097956799 5055:0.082915194 7132:0.21106152 8062:0.20075922 9048:0.13340379 9130:0.14845848 9142:0.14311518 9161:0.13692507 9172:0.12594518 9177:0.10924083 9180:0.1410141 9181:0.15013438 9434:0.21837112 9487:0.21837112 9911:0.18111356 10007:0.17923059 10026:0.17284504 10038:0.14446461 10055:0.15192868 11104:0.08858496 11428:0.076887332 11429:0.076887332 11431:0.044247389 11434:0.044247389 #
3.8060791021145701229499991313787 308:0.12709238 313:0.11147337 315:0.19014892 316:0.067108847 1031:0.21931498 1051:0.19290811 1052:0.18156333 1058:0.10760349 1522:0.11983543 1616:0.053397391 1618:0.12561801 1620:0.079218157 3779:0.16573757 3795:0.35043734 3802:0.15172769 3805:0.2069321 3809:0.20609297 5034:0.16684675 5037:0.22145535 5063:0.09955582 5064:0.10079323 9071:0.25870362 9119:0.17186981 9127:0.12950781 10456:0.12231595 10519:0.18598485 10532:0.15520053 10537:0.13838981 10538:0.12830901 10539:0.181041 10547:0.24543761 10567:0.19090793 10571:0.19745979 11427:0.049574807 11430:0.049574807 11432:0.071536645 11433:0.071536645 #
3.8200654118386023760933767334791 43:0.091282338 235:0.14961958 293:0.11257402 300:0.10102174 305:0.044597041 306:0.086605407 870:0.18206407 1533:0.16469181 1594:0.12417945 1616:0.0682557 1620:0.050630663 1621:0.049907841 3292:0.21138458 3752:0.13811313 3766:0.1301879 3771:0.1255641 3792:0.23186153 3793:0.11141297 3794:0.21969415 3795:0.22397485 3800:0.099193238 3802:0.14546047 3803:0.092888206 3804:0.065980233 5050:0.095379256 5055:0.090602368 5060:0.076862037 5114:0.23861657 6451:0.24987401 8799:0.17468701 8868:0.16669974 9099:0.1290918 10422:0.14125961 10438:0.11347782 10453:0.095114581 10515:0.12187643 10521:0.23531161 10528:0.33395514 10531:0.20694624 10538:0.082006074 10539:0.11570865 10553:0.13886696 10558:0.12981769 11427:0.031684723 11430:0.031684723 11432:0.045721184 11433:0.045721184 #
-1.9899999999999999911182158029987 213:0.23448206 292:0.16196793 313:0.10715159 315:0.091388464 316:0.06450706 616:0.28405401 973:0.23174295 1048:0.1765952 1058:0.10343174 1522:0.11518946 1616:0.051327195 1618:0.12074785 1620:0.076146901 3779:0.15931199 3794:0.16520649 3799:0.15626766 3802:0.36461315 3803:0.13970089 3804:0.099232152 5058:0.12759696 5062:0.10658528 5064:0.09688551 8610:0.27567467 8958:0.28644073 8968:0.23241106 9123:0.16013888 10456:0.11757381 10510:0.18721579 10519:0.17877428 10521:0.17695057 10555:0.20483682 11427:0.047652811 11430:0.047652811 11432:0.068763196 11433:0.068763196 #
-1.9899999999999999911182158029987 213:0.18192902 292:0.12566705 313:0.083136357 315:0.070906125 316:0.050049488 616:0.22039071 973:0.17980382 1048:0.13701598 1058:0.080250219 1522:0.089372747 1604:0.1295677 1616:0.039823543 1620:0.05908056 3767:0.15511207 3792:0.13527878 3794:0.12817977 3800:0.34724364 3802:0.16973679 3803:0.10839058 3804:0.076991856 5058:0.098999433 5062:0.082696974 5064:0.07517115 8610:0.21388941 8958:0.22224252 8968:0.18032219 9123:0.12424793 10456:0.091222703 10513:0.14543378 10518:0.13899727 10521:0.13729171 10527:0.16087523 10528:0.25979322 10529:0.12989661 10531:0.24148408 10538:0.095692307 10546:0.16234146 10553:0.32408571 10557:0.15584014 11427:0.036972675 11430:0.036972675 11432:0.053351723 11433:0.053351723 #
-1.9899999999999999911182158029987 292:0.17901163 315:0.10100517 316:0.071295068 1048:0.19517811 1058:0.11431575 1522:0.12731071 1616:0.056728296 1618:0.13345401 1620:0.084159747 3779:0.1760762 3802:0.32238477 3805:0.21984042 3819:0.19758651 5048:0.18334141 5058:0.14102384 5064:0.10708066 8656:0.31394467 8990:0.300668 9123:0.17699011 10456:0.12994596 10512:0.20078528 10533:0.18879609 10537:0.14702252 10538:0.13631286 10539:0.19233425 10564:0.2042224 10565:0.27709311 10571:0.20977724 11427:0.05266726 11430:0.05266726 11432:0.075999066 11433:0.075999066 #
-1.9899999999999999911182158029987 213:0.27052912 292:0.18686734 313:0.12362406 315:0.10543766 316:0.074423768 616:0.32772177 973:0.26736891 1048:0.20374326 1058:0.11933236 1522:0.1328976 1616:0.059217751 1618:0.13931048 1621:0.086598776 3782:0.16844907 3800:0.17211752 3802:0.16826613 3804:0.11448716 3805:0.11474393 5058:0.14721252 5062:0.12297069 5064:0.11177977 8610:0.31805432 8958:0.33047542 8968:0.26813975 9123:0.18475711 10456:0.13564849 10521:0.20415328 10538:0.14229479 11427:0.054978501 11430:0.054978501 11432:0.079334199 11433:0.079334199 #
-0.88926391653314162955012989186798 285:0.12292705 297:0.1056618 305:0.093471162 313:0.074662343 316:0.044947989 670:0.21502849 1029:0.15276195 1033:0.15109889 1595:0.13029186 1616:0.071528733 1619:0.076544806 1621:0.10460209 3694:0.18612923 3775:0.13109344 3792:0.24297987 3793:0.11675551 3799:0.10888602 3801:0.099565357 3802:0.15243566 3804:0.069144145 3805:0.13859844 3806:0.14062439 3816:0.15208527 5040:0.11012431 5057:0.089642219 8916:0.18118592 8933:0.16938865 10422:0.14803337 10438:0.11891937 10440:0.1187062 10459:0.07787104 10487:0.12219962 10510:0.13045041 10513:0.13060984 10514:0.12997732 10518:0.1248294 10519:0.12456845 10528:0.23331274 10529:0.11665637 10531:0.10843491 10537:0.092690371 10538:0.17187695 10539:0.12125717 10540:0.1390869 10546:0.14579414 10553:0.14552598 10555:0.14272861 10557:0.13995549 10563:0.13783079 10565:0.17469341 10567:0.12786582 10571:0.13225411 10573:0.17397496 11427:0.033204086 11430:0.033204086 11432:0.04791363 11433:0.04791363 #
3.797222094144148574201835799613 240:0.15405422 271:0.14280364 303:0.10227144 310:0.089469641 420:0.2208883 1366:0.22377419 1591:0.14001282 1592:0.13710961 1612:0.1075846 1616:0.037218984 2980:0.23053077 3837:0.13173363 3840:0.12909901 3842:0.12818338 3853:0.095090777 3854:0.21393822 3855:0.060186513 3856:0.084945954 4929:0.19153582 4952:0.17444243 4971:0.16528966 4973:0.12443148 4979:0.15592775 4982:0.16157737 4984:0.14828242 4995:0.1503536 5064:0.070254773 8607:0.18951647 9083:0.14197968 10115:0.23457396 10298:0.19369952 10325:0.18855515 11062:0.14878708 11084:0.1311596 11086:0.1280548 11104:0.10556525 11108:0.09038008 11109:0.12234244 11265:0.18855515 11394:0.15529026 11405:0.17385446 11414:0.13430247 11425:0.13414517 11427:0.034554571 11430:0.034554571 11431:0.052728891 11434:0.052728891 #
