SVM-light Version V6.02
0 # kernel type
3 # kernel parameter -d 
1 # kernel parameter -g 
1 # kernel parameter -s 
1 # kernel parameter -r 
empty# kernel parameter -u 
11434 # highest feature index 
4767 # number of training documents 
1513 # number of support vectors plus 1 
1.3756258 # threshold b, each following line is a SV (starting with alpha*y)
-0.58999999999999996891375531049562 178:0.20956095 309:0.20449562 315:0.074888892 316:0.052694362 1051:0.15222356 1522:0.09425348 1604:0.13684422 1616:0.042224128 1620:0.06279555 3767:0.16472787 3848:0.12808745 3851:0.11376094 3853:0.10863399 3854:0.060529798 3855:0.067812674 4160:0.30139339 5008:0.16472787 5038:0.12990125 5041:0.12978503 5047:0.11760621 5049:0.11361574 5061:0.088742599 5062:0.08723136 8638:0.2259389 8918:0.20027895 8948:0.196842 8969:0.19154835 9097:0.15994228 9112:0.14411752 9118:0.14157259 10456:0.096335381 10993:0.20839673 11063:0.17105319 11100:0.12221505 11105:0.23408249 11107:0.09577062 11108:0.10277211 11227:0.2240822 11344:0.19603395 11393:0.17693056 11415:0.14903171 11416:0.14882912 11427:0.03909969 11430:0.03909969 11431:0.059660751 11434:0.059660751 #
-0.096339596186830939172907051215589 287:0.13576633 302:0.11554147 303:0.10882907 304:0.10459439 305:0.051589958 310:0.094841145 743:0.21005985 835:0.21559204 1023:0.17147158 1529:0.19228773 1593:0.14693686 1616:0.07916376 1617:0.19869959 1620:0.058866009 1621:0.057891347 3132:0.25303605 3249:0.25303605 3277:0.24716678 3734:0.19757695 3785:0.10321631 3798:0.1255914 3802:0.28270015 3804:0.077117756 5057:0.098491296 5063:0.073317014 8630:0.21364042 8949:0.1830267 9049:0.16221055 9091:0.15072852 10441:0.27221039 10457:0.17465705 10463:0.13526462 10482:0.16378121 10509:0.1476603 10527:0.16071299 10532:0.11500641 11427:0.036652956 11430:0.036652956 11432:0.053131018 11433:0.053131018 #
-0.05112957760065162809981487157529 116:0.109781 233:0.088955149 234:0.089540653 254:0.084456488 262:0.079256169 273:0.075566523 287:0.069133177 291:0.07075572 298:0.060169529 305:0.026269972 308:0.047749292 309:0.19522892 314:0.04473735 316:0.025153261 502:0.12333219 577:0.12333219 584:0.1211433 960:0.097914279 1163:0.12884775 1319:0.12333219 1490:0.10612315 1491:0.10612315 1519:0.10532337 1521:0.10182239 1562:0.092469826 1568:0.09560167 1570:0.18029569 1578:0.086062618 1584:0.081286676 1586:0.080240004 1587:0.078178354 1606:0.17169313 1611:0.12828162 1614:0.059298936 1616:0.060466122 1617:0.050589621 1619:0.042905945 1620:0.02997499 1621:0.058957368 1841:0.13722138 2579:0.097424917 2906:0.13722138 3085:0.12884775 3329:0.12884775 3339:0.12884775 3342:0.12884775 3442:0.11921255 3549:0.12333219 3651:0.109781 3689:0.10696397 3703:0.10383213 3705:0.10785025 3785:0.052558478 3786:0.063398391 3796:0.064395949 3802:0.028790584 3805:0.039172035 3808:0.078631625 5002:0.074342653 5008:0.078631625 5009:0.07183262 5015:0.071631484 5029:0.06608738 5030:0.066016264 5043:0.063703656 5046:0.069305725 5049:0.10846725 5060:0.045269039 5603:0.1438679 7483:0.1325056 7704:0.12585908 8017:0.12333219 8175:0.1211433 8181:0.11748545 8463:0.11592309 8600:0.11318469 8601:0.10785025 8644:0.10612315 8831:0.10246531 8918:0.09560167 8948:0.093961067 8970:0.11318469 9080:0.080071874 9089:0.079097785 10056:0.13722138 10179:0.12884775 10203:0.12333219 10343:0.10182239 10346:0.10003236 10375:0.093961067 10385:0.090147845 10403:0.086062618 10406:0.087843381 10413:0.082023539 10417:0.090778396 10420:0.082023539 10424:0.078178354 10434:0.071432784 10437:0.068877704 10446:0.064589947 10450:0.063158207 10457:0.044468302 10464:0.054233626 10499:0.061141592 10526:0.06538973 11427:0.018663945 11430:0.018663945 11432:0.027054692 11433:0.027054692 #
-0.40576546083736136916186865164491 5:0.20492592 40:0.19971289 234:0.15618275 258:0.14055565 282:0.12826855 287:0.12058668 305:0.045821834 313:0.072798289 315:0.06235344 316:0.087747976 676:0.23112506 1018:0.15566756 1058:0.07055299 1247:0.21130618 1616:0.035156343 1617:0.088241778 1621:0.051418677 2532:0.25094393 3785:0.091675989 3790:0.12165426 3802:0.25109226 3805:0.068326466 3807:0.13908903 3819:0.12358258 4999:0.14085822 5024:0.11787512 5027:0.12358258 5053:0.094718792 5056:0.10122046 5062:0.072629929 5063:0.065119646 5064:0.066373043 8341:0.20220077 8525:0.21953176 8551:0.20220077 8613:0.20220077 8780:0.19530532 8941:0.16067709 9025:0.14969872 9107:0.13742298 9124:0.10739236 9127:0.084960051 10415:0.17078859 10457:0.077564567 10530:0.10610086 10533:0.11787512 10534:0.15670741 10570:0.16751729 11427:0.032554895 11430:0.032554895 11432:0.047190592 11433:0.047190592 #
-0.58999999999999996891375531049562 284:0.28703481 313:0.16265622 1043:0.31077236 1602:0.2677809 1613:0.22893912 1619:0.16721675 3728:0.37784091 3760:0.33087787 3802:0.11220515 3805:0.15266463 5024:0.26337326 10426:0.29859447 10454:0.21954906 10459:0.170118 10509:0.29303569 11427:0.072738737 11430:0.072738737 11432:0.10543988 11433:0.10543988 #
-0.034990751638754535868258699338185 245:0.14055711 296:0.10193145 300:0.096356131 305:0.042034261 306:0.081757717 308:0.076403059 986:0.15747856 1616:0.032250367 1618:0.075595945 1621:0.047168482 3782:0.091760673 3844:0.10163728 3849:0.095339678 3852:0.095648259 3854:0.18492822 3855:0.051794644 3856:0.22246499 4035:0.21202058 4207:0.20616771 4530:0.20616771 4757:0.19383991 4890:0.17565922 4949:0.16292475 4971:0.14099066 4978:0.13410906 5007:0.11276442 5015:0.11461665 5031:0.11352035 5054:0.090583108 5055:0.08470466 8782:0.16852663 8890:0.16852663 8896:0.16006055 8976:0.16006055 9009:0.14684354 10458:0.069815435 11033:0.14972876 11049:0.13889121 11057:0.13377494 11094:0.10994136 11099:0.12839104 11101:0.12280998 11104:0.18392436 11105:0.089394934 11107:0.073148638 11119:0.17916164 11266:0.15917134 11327:0.17115174 11370:0.16395348 11396:0.17406909 11416:0.11367419 11419:0.15667143 11427:0.029863952 11430:0.029863952 11431:0.045568284 11434:0.045568284 #
1.0460132170994220768278637478943 21:0.070326015 166:0.064081013 170:0.12816203 174:0.06372501 223:0.05698492 233:0.05698492 238:0.056272719 248:0.05544544 249:0.11510536 257:0.051401976 267:0.049706198 292:0.081149027 293:0.083953448 300:0.03857664 302:0.075379141 303:0.03549999 304:0.034118637 305:0.11780033 306:0.065464191 310:0.030937133 312:0.058676492 314:0.057317745 316:0.064453006 507:0.077604741 511:0.075261511 514:0.077604741 631:0.074260667 677:0.087904401 743:0.068521425 895:0.064449504 923:0.073346958 941:0.066515155 952:0.064081013 981:0.064081013 1048:0.088355042 1056:0.040808745 1065:0.07172823 1070:0.068521425 1074:0.068521425 1082:0.068521425 1089:0.06372501 1091:0.064449504 1094:0.05970322 1097:0.055287529 1101:0.31777692 1104:0.16273206 1107:0.10134053 1108:0.048823245 1112:0.20109583 1114:0.045887329 1116:0.065537497 1118:0.042473637 1119:0.080465354 3792:0.043647058 3801:0.035716515 3802:0.036886659 3803:0.035057042 3805:0.050187435 4998:0.046547987 5001:0.15388282 5002:0.047624111 5007:0.045145776 5013:0.04434203 5021:0.046212465 5031:0.045448419 5036:0.044736218 5041:0.039686576 5043:0.081617489 5047:0.035962451 5057:0.064255625 5059:0.060072575 5060:0.028999476 5061:0.054272667 5062:0.10669687 5063:0.047831949 6487:0.084883459 7712:0.082540236 7943:0.082540236 8203:0.077604741 8204:0.075261511 8327:0.073346958 8357:0.071003735 8416:0.07172823 8436:0.0696894 8658:0.066515155 8722:0.066515155 8768:0.16976692 8800:0.064449504 8805:0.064831398 8811:0.06563957 8812:0.064449504 8829:0.067470446 8830:0.064831398 8857:0.067470446 8895:0.062724166 8925:0.06522771 8969:0.058572993 8981:0.059467234 8998:0.060191724 9020:0.060969934 9061:0.054244019 9091:0.04916757 9095:0.049614485 9106:0.1032415 9111:0.050177172 9112:0.044069264 9116:0.04490979 9121:0.042065337 9126:0.036980733 9130:0.060704071 9133:0.12609459 9134:0.12304549 9137:0.064081013 9140:0.058789518 9147:0.058572993 9152:0.11757904 9157:0.056446292 9158:0.063380688 9163:0.054244019 9166:0.053557437 9167:0.05316605 9168:0.1065898 9170:0.054531738 9172:0.052188512 9174:0.050177172 9175:0.10074329 9177:0.045448419 9179:0.097310454 9242:0.082540236 9271:0.084883459 9583:0.082540236 9586:0.082540236 9589:0.082540236 9693:0.092162184 9708:0.080625683 9766:0.077604741 9785:0.079006948 9827:0.1580139 9830:0.079006948 9831:0.1580139 9866:0.079006948 9891:0.077604741 9917:0.082540236 9935:0.074260667 9948:0.073346958 9977:0.067982793 10003:0.13817836 10005:0.066515155 10012:0.06606824 10028:0.067470446 10037:0.063380688 10040:0.060704071 10048:0.059236433 10511:0.046754569 10513:0.046754569 10518:0.04508628 10529:0.042244848 10537:0.066668935 10538:0.031266052 10540:0.050371643 10546:0.052913003 10557:0.050081275 11428:0.031956505 11429:0.031956505 11432:0.017331311 11433:0.017331311 #
3.1449043828701701563943515793653 303:0.12092348 1094:0.20336685 1097:0.18832569 1108:0.16630642 1116:0.44648024 3802:0.062823445 3805:0.085476629 9129:0.21475776 9130:0.20677604 9144:0.20861077 9173:0.36047471 9270:0.29942843 9287:0.2891382 9718:0.28115648 9911:0.2529538 9964:0.24697839 11428:0.10885332 11429:0.10885332 11432:0.059035581 11433:0.059035581 #
3.1403031725929837492117258079816 204:0.15774299 231:0.1451796 293:0.10762741 303:0.09102121 305:0.04314822 307:0.083877526 308:0.078427829 314:0.073480733 316:0.041314028 1102:0.14019477 1110:0.12697737 1113:0.11341008 1114:0.11765413 1116:0.084018365 3792:0.11191011 3794:0.10566445 3801:0.091576375 3802:0.094576597 3805:0.1286795 5014:0.11313107 5026:0.10878314 5030:0.10843118 5033:0.10999071 5047:0.092206948 5050:0.091514118 5064:0.062500305 5140:0.23630185 7117:0.21763937 8132:0.20257212 8257:0.19040275 8375:0.18806003 8447:0.19580565 8690:0.19040275 8929:0.15774299 8960:0.15497909 8986:0.15073505 9036:0.14057668 9114:0.1103638 9150:0.15017989 9152:0.15073505 9157:0.14472708 9177:0.11652877 9704:0.20257212 9824:0.19580565 9962:0.17299278 9965:0.18205205 10019:0.17714317 10517:0.13017762 10530:0.09991008 10531:0.099740744 10537:0.085468858 10538:0.080165483 11428:0.081935786 11429:0.081935786 11432:0.04443711 11433:0.04443711 #
-0.15612929794111704562276088381623 43:0.092289902 173:0.17248611 288:0.11980478 295:0.10952742 305:0.090594798 313:0.071965106 314:0.077140756 315:0.061639801 316:0.043371849 994:0.16411206 1052:0.11679652 1053:0.11346734 1058:0.069745503 1212:0.22217259 1569:0.15338565 1582:0.14415993 1597:0.12641595 1606:0.074012756 1610:0.10653887 1612:0.10044038 1614:0.10224935 1616:0.10426193 1619:0.073982857 1621:0.050830189 2390:0.24807188 3242:0.21701922 3618:0.18029451 3660:0.18929572 3690:0.18160942 3722:0.12135822 3764:0.13721591 3776:0.12839335 3778:0.13404264 3833:0.12151837 3854:0.049821068 3855:0.055815481 4992:0.12368727 4993:0.12266552 5026:0.11420155 5033:0.11546926 5034:0.10750037 5050:0.096072368 5053:0.093634732 5060:0.07805755 5063:0.06437435 5064:0.065613396 8960:0.16269849 9036:0.1475787 9098:0.13164583 9099:0.12880599 9119:0.11092752 9124:0.10616324 9127:0.083987676 10310:0.19307004 10409:0.14380439 10421:0.13638857 10428:0.1290146 10437:0.11876605 10442:0.11445058 10451:0.10701553 10457:0.076676838 10459:0.07526648 10469:0.13281883 11107:0.078827202 11427:0.032182302 11430:0.032182302 11431:0.049105767 11434:0.049105767 #
-0.53220324491786885623412217682926 297:0.12482215 305:0.055121198 313:0.087572426 1029:0.1810912 1116:0.53666103 1117:0.13866842 1126:0.23034893 3795:0.27644539 3801:0.11698744 3802:0.06041009 3805:0.082193062 9173:0.17331357 9178:0.29613689 9181:0.20342565 9992:0.23494178 10032:0.23749076 10052:0.25878283 10514:0.15224269 10515:0.15072341 10520:0.14313334 10537:0.21837036 11428:0.10467174 11429:0.10467174 11432:0.056767739 11433:0.056767739 #
-0.58999999999999996891375531049562 87:0.10935175 257:0.07916338 292:0.062488172 303:0.054672983 305:0.051834989 306:0.050410192 310:0.047645796 314:0.044137083 315:0.035268012 449:0.11951785 468:0.11951785 895:0.099257678 923:0.11296051 1045:0.07850986 1079:0.10109048 1090:0.096117713 1092:0.090881303 1094:0.091948003 1101:0.18352622 1105:0.17332947 1107:0.15607297 1109:0.077277079 1110:0.076270476 1112:0.077426136 1113:0.068121128 1114:0.070670359 1115:0.072221622 1116:0.20186655 1118:0.065412983 1119:0.18588516 1134:0.098690167 1135:0.095648915 3792:0.067220151 3797:0.060849778 3799:0.059859853 3801:0.055006444 3802:0.085212849 3805:0.038646441 3819:0.069900103 5005:0.082897678 5007:0.069528304 5012:0.071583152 5021:0.071171097 5038:0.061175406 5041:0.061120678 5048:0.063723311 5060:0.044661641 5062:0.041080546 8152:0.11046752 8680:0.10732756 8752:0.10243896 8789:0.10175066 8857:0.10391019 8971:0.10315785 9057:0.085390657 9067:0.083760403 9097:0.075322866 9118:0.066671886 9139:0.10175066 9142:0.090540819 9145:0.090881303 9146:0.090207353 9147:0.090207353 9148:0.088635981 9150:0.090207353 9152:0.090540819 9159:0.08988063 9162:0.098141901 9163:0.083540373 9172:0.08037471 9175:0.077576578 9177:0.069994405 9178:0.06962046 9179:0.14986631 9180:0.088047832 9279:0.13072769 9515:0.14193754 9555:0.12711893 9753:0.13072769 9764:0.14193754 9822:0.12167737 9840:0.12167737 9893:0.11590908 9895:0.12711893 9904:0.12167737 9934:0.11166603 9935:0.11436769 9943:0.11590908 9958:0.13072769 9997:0.10391019 10033:0.099257678 10034:0.10469924 10038:0.091584556 10047:0.088635981 10048:0.091229111 10055:0.095648915 10509:0.074180812 10510:0.072005987 10519:0.069345564 10525:0.067705363 10528:0.06506063 10531:0.059910472 10533:0.066671886 10537:0.051337894 10553:0.080922984 10555:0.078670785 10561:0.077129386 10567:0.071273126 11428:0.049215715 11429:0.049215715 11432:0.026691683 11433:0.026691683 #
-0.58999999999999996891375531049562 272:0.092654668 279:0.091707177 289:0.083487369 290:0.08464247 305:0.031881113 308:0.057948314 849:0.1345136 1077:0.12981096 1101:0.15050375 1107:0.1919854 1112:0.095241904 1116:0.24831608 1118:0.16092904 1119:0.22865736 1134:0.12139879 1136:0.12601016 3793:0.079109535 3800:0.14074513 3801:0.067663439 3802:0.10482034 3805:0.14261699 5028:0.10534279 5035:0.07701353 5040:0.07538721 8623:0.13322969 8767:0.13895273 9001:0.10978193 9128:0.12357116 9131:0.11944046 9149:0.11265818 9177:0.17220025 9178:0.2569204 9180:0.10830765 9310:0.16080816 9374:0.16653121 9438:0.16653121 9618:0.16080816 9752:0.16080816 9754:0.16653121 9864:0.14467579 10002:0.12781993 10017:0.13202365 10042:0.13895273 10055:0.11765774 10509:0.091249831 10523:0.18764065 10524:0.07986033 10528:0.080031089 10529:0.080031089 10531:0.14739177 10536:0.19773789 10539:0.08258976 10553:0.09954337 10563:0.093312375 11428:0.060540255 11429:0.060540255 11432:0.032833442 11433:0.032833442 #
-0.58999999999999996891375531049562 210:0.071929991 1061:0.091923676 1083:0.18076611 1087:0.086581752 1089:0.084056363 1093:0.079729572 1101:0.36676767 1104:0.14310095 1105:0.074226424 1107:0.26734608 1108:0.064400211 1111:0.064288951 1112:0.19894132 1113:0.058344234 1116:0.17289424 1118:0.056024771 1119:0.15920652 3827:0.066836521 3854:0.02441456 9132:0.086581752 9134:0.16230293 9135:0.083602183 9136:0.085515738 9139:0.17429438 9140:0.077546202 9149:0.078440145 9150:0.077260599 9162:0.084056363 9164:0.07445538 9167:0.14025716 9168:0.21089563 9172:0.13767833 9175:0.066442624 9179:0.19253576 9349:0.11595014 9370:0.11595014 9427:0.12156636 9476:0.11595014 9556:0.10887454 9589:0.10887454 9597:0.11196537 9614:0.11196537 9651:0.11196537 9665:0.11595014 9689:0.12156636 9803:0.10634916 9889:0.19590679 9922:0.20146589 9977:0.08967258 9998:0.096748173 10003:0.18226391 10011:0.091923676 10014:0.08967258 10033:0.17002401 10048:0.078135706 10797:0.10236439 11428:0.04215217 11429:0.04215217 11431:0.02406403 11434:0.02406403 #
-0.58999999999999996891375531049562 1594:0.39377639 1616:0.10906632 1620:0.16220298 3766:0.41313621 3796:0.34846437 3802:0.15579383 3804:0.21249497 3814:0.40292919 10453:0.30720931 10526:0.35384199 11427:0.10099579 11430:0.10099579 11432:0.14640044 11433:0.14640044 #
3.3634610044943058504429700406035 90:0.15746412 258:0.12135235 268:0.1162103 277:0.11108448 303:0.083454952 304:0.080207601 305:0.11868439 308:0.071908407 309:0.29400647 314:0.067372546 316:0.075759485 743:0.16108319 842:0.15746412 980:0.13719726 1018:0.13439961 1041:0.12033422 1056:0.095935002 1522:0.067754827 1616:0.030353136 1618:0.071148776 1621:0.044393644 3782:0.086362563 3829:0.11728846 3854:0.043512307 3855:0.048747659 4537:0.18953842 5008:0.11841588 5011:0.10669821 5016:0.10450244 5030:0.099417686 5033:0.10084758 5049:0.16334707 5054:0.085254267 5060:0.068173252 5062:0.062706925 5063:0.056222729 5173:0.21665893 5994:0.21665893 6482:0.1995478 7868:0.18243665 7871:0.18573304 8489:0.16382892 8695:0.15430839 8844:0.15531613 8918:0.14397205 8959:0.14092049 9015:0.13575882 9025:0.12924625 9072:0.12214448 9080:0.12058484 9091:0.1155853 9096:0.1162103 9108:0.11091363 10456:0.069251418 11048:0.13269643 11057:0.12590519 11092:0.10322308 11256:0.15151075 11339:0.14209625 11427:0.028107109 11430:0.028107109 11431:0.042887583 11434:0.042887583 #
4.4708924336548765410270789288916 313:0.13321464 315:0.22820292 316:0.080285646 1051:0.23192933 1052:0.2162021 1058:0.12910594 1608:0.20235869 1610:0.19721414 1616:0.064333096 1620:0.095675923 3751:0.26957315 3849:0.19018379 3854:0.092223801 3855:0.10332006 5034:0.19899398 5063:0.11916339 5064:0.12145699 9119:0.20533799 9127:0.15546963 10393:0.27244082 10401:0.26752105 10438:0.21303008 11090:0.22093797 11096:0.21139854 11107:0.14591706 11407:0.2463063 11408:0.24541946 11427:0.059572674 11430:0.059572674 11431:0.090899706 11434:0.090899706 #
2.1611414164609299426444977143547 219:0.21116269 254:0.096431769 262:0.090494089 287:0.078935727 291:0.080788337 302:0.067176819 305:0.029994855 315:0.0408164 633:0.1323601 1032:0.096683003 1384:0.1323601 1471:0.1231426 1537:0.11069647 1539:0.10965639 1591:0.086721696 1592:0.08370962 1607:0.073897444 1611:0.14647098 1616:0.23013252 1617:0.057762843 1621:0.10097561 2079:0.15667832 2581:0.14711738 2789:0.15129387 3376:0.13832049 3667:0.12534711 3718:0.11296795 3722:0.16072102 3756:0.1231426 3785:0.060010869 3799:0.069277056 3801:0.0636601 3802:0.032872867 3804:0.044836938 3806:0.089780986 5015:0.081788279 5055:0.060443643 5062:0.047543366 5063:0.042627156 5098:0.15667832 5428:0.16426726 5956:0.16426726 6071:0.16426726 6505:0.15129387 7431:0.14081974 7471:0.14711738 8177:0.13611598 8904:0.11179777 9085:0.095697694 10306:0.12421241 10319:0.11938672 10362:0.11421618 10366:0.12534711 10372:0.10641333 10416:0.09387023 10435:0.082604706 10455:0.059242539 10457:0.1523207 10463:0.23593211 10480:0.14370494 10503:0.30470493 10510:0.083334021 10519:0.080255061 10532:0.066865735 10537:0.059414413 10555:0.091047332 10567:0.08248587 11427:0.02131035 11430:0.02131035 11432:0.030890839 11433:0.030890839 #
3.232653723621023100776028513792 163:0.12625539 184:0.1162176 240:0.10150519 278:0.087620974 305:0.031490885 307:0.061216373 316:0.030152235 685:0.13896172 917:0.12721413 948:0.11737382 1180:0.1478433 1253:0.15445504 1405:0.13896172 1477:0.13422285 1480:0.12928449 1515:0.12721413 1527:0.12282933 1542:0.11566404 1544:0.11512564 1566:0.10920887 1596:0.086108677 1598:0.090282351 1600:0.082975894 1606:0.15436165 1608:0.075998232 1609:0.15392843 1610:0.074066132 1611:0.15377639 1612:0.13965289 1614:0.071084045 1616:0.072483197 1619:0.1028662 1621:0.10601189 2578:0.15883984 2995:0.15445504 3374:0.14290494 3431:0.14290494 3527:0.13896172 3661:0.12928449 3693:0.12446779 3748:0.11359368 3755:0.10375337 3758:0.10466749 3761:0.098552123 3776:0.089259431 3841:0.081103034 5047:0.06729544 5054:0.06786231 5059:0.056205992 5061:0.050779395 5064:0.045614626 9083:0.092671946 9110:0.084931672 9112:0.08246547 9114:0.080546863 9121:0.078715593 10147:0.1478433 10239:0.14083458 10308:0.13040766 10326:0.12363148 10329:0.12534127 10344:0.12363148 10379:0.10920887 10381:0.10960586 10389:0.10698195 10409:0.099973232 10430:0.088560067 10437:0.0825665 10440:0.080274567 10442:0.079566382 10445:0.15827276 10450:0.075710312 10451:0.074397504 10453:0.068054959 10454:0.067529649 10458:0.052303754 10459:0.15697643 10460:0.086230353 10461:0.088423133 10464:0.065012053 10478:0.092336044 10487:0.082770132 10495:0.11263495 10500:0.10843819 10502:0.075356245 11427:0.022373229 11430:0.022373229 11431:0.034138475 11434:0.034138475 #
2.7103160788270863612581251800293 24:0.1109584 228:0.086813606 603:0.12559068 1303:0.12993073 1386:0.12377118 1511:0.1109584 1545:0.10165028 1548:0.10026798 1567:0.097045764 1570:0.094970949 1571:0.093414098 1585:0.083665028 1588:0.08383517 1591:0.08001586 1606:0.090439543 1608:0.066790342 1611:0.13514498 1612:0.061366327 1616:0.06370119 1619:0.045201506 1621:0.093167573 2563:0.13574138 2980:0.13259281 2981:0.13959493 3483:0.12993073 3511:0.12762472 3637:0.11565452 3710:0.10794742 3738:0.097417161 3786:0.066790342 3823:0.088746354 3827:0.083329692 3828:0.081744231 3829:0.082049899 3839:0.13911636 3845:0.067373604 3850:0.06193414 3852:0.062975071 3854:0.15219656 3856:0.14647156 3859:0.13959493 4210:0.13574138 4213:0.13259281 4214:0.13574138 4774:0.12377118 4867:0.11460757 4920:0.11015502 4943:0.1031529 4967:0.094331272 4974:0.094020106 5004:0.072922602 10238:0.12377118 10243:0.12212523 10285:0.11460757 10298:0.11015502 10304:0.1109584 10307:0.10727011 10324:0.11180097 10335:0.1086524 10370:0.099404335 10384:0.096326105 10439:0.07329005 10445:0.069548279 10447:0.06724228 10448:0.066042095 10452:0.081896387 10453:0.059809476 10457:0.046847451 10459:0.045985766 10464:0.057135243 10481:0.097796723 10491:0.090166554 10493:0.069105454 10499:0.064412802 10934:0.11460757 11004:0.10599031 11009:0.10071657 11025:0.097417161 11041:0.094970949 11066:0.085075557 11071:0.090415038 11073:0.08383517 11081:0.076438628 11082:0.080572985 11083:0.07723669 11088:0.072562814 11091:0.071359485 11102:0.065150194 11103:0.062975071 11104:0.060548153 11110:0.07632757 11115:0.11924031 11156:0.12062261 11219:0.11460757 11243:0.11180097 11269:0.1086524 11366:0.10661836 11381:0.13259281 11386:0.089206904 11390:0.090415038 11427:0.019662507 11430:0.019662507 11431:0.030002283 11434:0.030002283 #
-0.58999999999999996891375531049562 265:0.18992434 1590:0.1814214 1608:0.15372396 1610:0.14981584 1616:0.24435665 1620:0.072681241 3520:0.3051742 3596:0.26150769 3722:0.17065494 3743:0.21639568 3751:0.20478414 3777:0.21934125 3792:0.16520736 3802:0.069809377 3804:0.095216483 7063:0.34884071 10393:0.2069626 10401:0.20322523 10438:0.16183059 10460:0.17442077 10513:0.17696953 10518:0.17065494 10529:0.15989989 10538:0.11834433 10546:0.20027967 10557:0.18956135 11427:0.04525502 11430:0.04525502 11432:0.065600306 11433:0.065600306 #
-0.58419166682847212257456703810021 306:0.11224123 308:0.10489008 310:0.10608614 998:0.20472758 1050:0.15648395 1366:0.26611346 1591:0.16684303 1593:0.16435869 1599:0.15399961 1613:0.12904023 1616:0.044274971 1620:0.065845557 1969:0.3160322 3184:0.27092177 3441:0.26611346 3768:0.17076418 3792:0.14966959 3793:0.14319322 3802:0.063243791 3805:0.086048558 5018:0.14914133 5031:0.15584661 9046:0.20727043 10238:0.25807834 10407:0.18699411 10409:0.18320021 10437:0.1513025 10444:0.16080564 10449:0.14062007 10458:0.095846236 10473:0.17856109 10479:0.16409293 10505:0.1651679 11427:0.040998779 11430:0.040998779 11432:0.059430588 11433:0.059430588 #
-0.5416360163687666817722288215009 289:0.22239478 305:0.16985068 660:0.39163098 1576:0.28311762 1592:0.23700958 1616:0.065158114 3593:0.37014419 3796:0.20817867 3802:0.093073949 3805:0.12663502 3808:0.25419962 5042:0.1988644 8508:0.37014419 10319:0.33802322 10526:0.21139136 11427:0.060336642 11430:0.060336642 11432:0.087462172 11433:0.087462172 #
-0.58999999999999996891375531049562 91:0.19874455 174:0.18771179 274:0.13897693 275:0.14235471 305:0.049571279 309:0.18419789 310:0.09113007 311:0.089364558 314:0.084419101 321:0.2374953 450:0.23272708 475:0.22859666 914:0.18984589 1590:0.14118733 1608:0.11963238 1610:0.11659097 1616:0.038033064 1620:0.056562621 3596:0.20351277 3743:0.16840531 3751:0.15936887 3790:0.13160881 3802:0.054327652 3805:0.073917389 3807:0.15047023 5008:0.14837739 5030:0.12457228 5032:0.12872185 5049:0.10233852 5051:0.11344595 5053:0.10246931 5060:0.085422397 5063:0.070448168 5064:0.071804121 8008:0.23272708 8948:0.17730395 9060:0.18039976 9066:0.16575992 9069:0.1544244 9080:0.15109514 9098:0.14406681 9109:0.14535049 9127:0.091912039 10393:0.16106421 10401:0.15815569 10438:0.12594119 10538:0.092098944 11427:0.035218749 11430:0.035218749 11432:0.051052038 11433:0.051052038 #
-0.58999999999999996891375531049562 178:0.19070265 264:0.1450451 274:0.14040689 279:0.14406075 309:0.37218627 690:0.21827775 982:0.17988133 990:0.18308933 1590:0.14264002 1608:0.1208633 1610:0.1177906 1616:0.038424395 1621:0.056198444 3596:0.20560676 3713:0.1886185 3751:0.16100866 3802:0.054886643 3805:0.074677944 5002:0.14172754 5012:0.13832276 5041:0.11810574 5048:0.12313489 5049:0.10339151 7890:0.24563658 8489:0.20739299 8527:0.20739299 8529:0.21827775 8805:0.19293576 8811:0.19534084 9057:0.16500351 9072:0.15462416 10393:0.16272144 10401:0.15978299 10438:0.12723704 10538:0.093046568 11427:0.035581123 11430:0.035581123 11432:0.051577322 11433:0.051577322 #
-0.18736704491973632524803861088003 48:0.14164935 295:0.076584302 305:0.03167307 309:0.11769138 312:0.055217378 314:0.053938735 315:0.043100081 316:0.030326676 981:0.12060658 999:0.11805286 1053:0.079339184 1058:0.04876779 1254:0.15174523 1341:0.14869861 1391:0.14373168 1546:0.11633319 1558:0.22564304 1575:0.1031907 1588:0.095944777 1593:0.18042043 1597:0.088393174 1610:0.074494623 1613:0.070825264 1616:0.07290253 1619:0.051730655 1620:0.036140114 1621:0.035541732 2732:0.15975878 3169:0.31951755 3423:0.14605953 3497:0.14373168 3650:0.13646403 3666:0.13003244 3757:0.10347508 3764:0.095944777 3795:0.15884766 3798:0.07710541 3801:0.067221887 3802:0.034712106 3804:0.047345567 5012:0.08747983 5014:0.083044171 5048:0.077874526 5053:0.065471731 5060:0.05457978 5061:0.051073171 5063:0.045012146 5064:0.045878522 7937:0.1553486 8087:0.14605953 8638:0.13003244 8713:0.13499936 9057:0.10435361 9067:0.10236133 9068:0.099353433 9098:0.092050038 9124:0.074231982 9127:0.058726273 10081:0.1553486 10336:0.12276478 10339:0.12698582 10352:0.24260025 10361:0.11688995 10364:0.11805286 10374:0.11688995 10394:0.1094493 10400:0.10347508 10416:0.099122271 10423:0.092374042 10424:0.094257735 10436:0.082740888 10437:0.083044171 10438:0.080468856 10449:0.077180989 10454:0.067920327 10457:0.053614352 10459:0.052628197 10515:0.086606838 10531:0.073214963 10537:0.06273865 10538:0.058845691 10558:0.091890007 11427:0.022502666 11430:0.022502666 11432:0.032619182 11433:0.032619182 #
5.4225761243593710858590384304989 87:0.11542895 297:0.061951958 299:0.061175864 305:0.054715712 307:0.053182017 313:0.043464106 314:0.046589997 1002:0.095932014 1029:0.08987952 1030:0.086640149 1098:0.092638925 1101:0.3228761 1105:0.18296222 1106:0.088415377 1109:0.081571743 1111:0.079233579 1112:0.081729084 1116:0.15981394 1117:0.068824165 1119:0.065405235 1136:0.10813198 3838:0.074597858 3839:0.045839928 3851:0.05655171 3854:0.030089973 3855:0.033710364 4426:0.12843958 4873:0.11139352 4959:0.099117257 5025:0.076699875 5054:0.058955703 5056:0.060433522 5059:0.048829224 5060:0.047143705 5061:0.044114843 8435:0.11139352 8545:0.12235072 9064:0.092638925 9110:0.073784791 9121:0.068384543 9126:0.060118631 9133:0.10249437 9136:0.10539475 9149:0.19334872 9162:0.10359612 9172:0.25452459 9175:0.16377577 9178:0.14697921 9179:0.23729266 9282:0.13799287 9556:0.13418354 9958:0.13799287 9963:0.12235072 9967:0.12235072 9983:0.11787185 9995:0.22103576 9998:0.11923827 10028:0.10968498 10033:0.20954782 10047:0.093561918 10048:0.1925983 11036:0.095220618 11074:0.081261352 11078:0.080073312 11080:0.0774213 11091:0.070540525 11098:0.0690483 11100:0.060754333 11229:0.10813198 11283:0.10417486 11292:0.10303636 11348:0.098263517 11385:0.08962661 11428:0.051950868 11429:0.051950868 11431:0.02965796 11434:0.02965796 #
1.605634169037170488891774766671 295:0.079847537 313:0.052463908 315:0.044936568 316:0.031618889 1052:0.085146844 1053:0.08271981 1058:0.050845776 1069:0.13239667 1078:0.12799576 1092:0.11579597 1093:0.11861024 1101:0.38973176 1106:0.10672292 1107:0.19885963 1111:0.095639907 1116:0.19290547 1117:0.083075099 1118:0.083345637 1119:0.15789646 1135:0.1218706 3793:0.081942134 3797:0.077531449 3802:0.03619118 3804:0.049362954 5034:0.078369774 5063:0.046930104 5064:0.047833394 8823:0.14985606 9119:0.080868237 9127:0.061228584 9138:0.1218706 9140:0.23072429 9142:0.11536215 9149:0.11669202 9161:0.10943418 9162:0.12504703 9163:0.10644256 9166:0.10509528 9172:0.10240905 9175:0.098843828 9177:0.089183033 9178:0.088706568 9179:0.095475718 9373:0.17249402 9544:0.16196798 9571:0.16196798 9593:0.16196798 9658:0.16656606 9767:0.15503463 9899:0.14768501 9941:0.14075166 9976:0.15821105 9977:0.13340203 9991:0.13933 9995:0.13340203 10001:0.13239667 10038:0.11669202 10047:0.11293511 10048:0.11623913 10525:0.086266458 11428:0.062707968 11429:0.062707968 11432:0.03400908 11433:0.03400908 #
1.3716271772424935004863755239057 210:0.099566922 249:0.10508271 257:0.093852438 302:0.068815604 304:0.062295608 305:0.03072658 1023:0.10212715 1068:0.12724258 1079:0.11984818 1089:0.11635249 1092:0.10774466 1101:0.072526731 1104:0.099041596 1107:0.18503289 1114:0.083783507 1115:0.085622609 1116:0.29915455 1117:0.077298872 1118:0.077550605 1119:0.29383579 1134:0.11700249 1135:0.11339692 3795:0.15410081 3798:0.14960253 3802:0.067349605 3803:0.064008996 3804:0.045930739 3805:0.045817431 5023:0.081577256 5051:0.070319064 5063:0.043667048 8422:0.13392074 8743:0.12724258 9087:0.094454788 9091:0.089772739 9139:0.12063088 9142:0.107341 9145:0.10774466 9147:0.10694566 9150:0.10694566 9158:0.1157238 9163:0.099041596 9165:0.12144688 9167:0.097073384 9176:0.090588748 9177:0.082982123 9180:0.10438543 9183:0.16827457 9244:0.1605005 9251:0.1549847 9295:0.1549847 9509:0.16827457 9564:0.15070632 9663:0.1605005 9721:0.1549847 9835:0.14425506 9858:0.13558903 9934:0.13238607 9937:0.13392074 10021:0.13741644 10038:0.10857841 10055:0.11339692 10506:0.10438543 10516:0.084742367 10528:0.077132866 10530:0.071147665 11428:0.05834787 11429:0.05834787 11432:0.031644423 11433:0.031644423 #
0.2867081425037196762417579520843 60:0.074083537 132:0.07039699 168:0.068486698 180:0.065444835 219:0.061805822 240:0.056596864 243:0.1189133 249:0.060049035 288:0.046439752 296:0.042578831 302:0.039324362 303:0.037039809 304:0.035598539 305:0.052675691 308:0.031915106 309:0.065244444 420:0.082433887 980:0.060892258 1063:0.074083537 1069:0.07039699 1073:0.071493551 1079:0.068486698 1080:0.072085932 1084:0.066489093 1086:0.066860534 1095:0.064491495 1097:0.057685636 1101:0.29011548 1105:0.058713555 1106:0.056745935 1111:0.10170592 1112:0.1049092 1113:0.046150647 1114:0.047877699 1116:0.2735208 1119:0.29384443 3795:0.0880602 3798:0.085489683 3800:0.077515557 3801:0.037265722 3802:0.057729937 3804:0.026246911 3805:0.052364323 5016:0.046381317 5032:0.045594361 5049:0.036249164 5051:0.040183507 5053:0.036295492 5056:0.038786881 5057:0.033521362 5061:0.056626752 6143:0.096159734 6295:0.096159734 6474:0.088565297 6479:0.091717273 6512:0.091717273 6644:0.096159734 7086:0.088565297 7834:0.079680376 7866:0.082433887 7992:0.079680376 7995:0.080970861 8171:0.078525998 8261:0.079680376 8608:0.07039699 8948:0.062802553 9043:0.069400258 9066:0.058713555 9069:0.054698419 9115:0.048079979 9129:0.065781981 9133:0.065781981 9138:0.064800151 9146:0.061113607 9147:0.061113607 9149:0.18613991 9155:0.11815761 9161:0.11637509 9169:0.07039699 9172:0.16335659 9175:0.052556518 9177:0.047419753 9178:0.14149924 9180:0.059650578 9181:0.19440044 9242:0.086120434 9243:0.091717273 9259:0.096159734 9542:0.091717273 9549:0.086120434 9550:0.088565297 9553:0.086120434 9658:0.088565297 9662:0.088565297 9779:0.084122837 9787:0.084122837 9809:0.084122837 9963:0.078525998 9971:0.07483945 9995:0.14186311 10002:0.07039699 10007:0.077481732 10026:0.14542438 10032:0.15130283 10035:0.068056971 10036:0.064800151 10052:0.082433887 10055:0.064800151 10513:0.14634767 10518:0.094083808 10527:0.054698419 10529:0.044077225 10531:0.0405881 10537:0.034780357 10538:0.065244444 10546:0.055208113 10557:0.10450711 10558:0.050940961 10563:0.051391907 11428:0.033342622 11429:0.033342622 11432:0.01808306 11433:0.01808306 #
-0.58999999999999996891375531049562 285:0.10835703 306:0.079685912 310:0.075316101 1050:0.11109614 1068:0.16965805 1081:0.15879612 1092:0.14366062 1094:0.14534681 1097:0.13459685 1101:0.19340606 1108:0.11885963 1109:0.12215576 1111:0.23730858 1113:0.10768247 1116:0.23932543 1118:0.10340158 1119:0.19589199 1134:0.15600449 1135:0.15119703 3854:0.045060497 3855:0.050482124 4312:0.20094326 5013:0.10795017 5043:0.099348418 5055:0.082558177 7132:0.20664781 8062:0.1962823 9048:0.13421811 9130:0.14778337 9142:0.1431224 9161:0.13576795 9172:0.12705234 9177:0.11064366 9180:0.13918161 9181:0.15119703 9434:0.22436778 9487:0.21400227 9911:0.18078673 10007:0.18078673 10026:0.16965805 10038:0.14477229 10055:0.15119703 11104:0.089631788 11428:0.077797741 11429:0.077797741 11431:0.044413548 11434:0.044413548 #
-0.58999999999999996891375531049562 193:0.13776599 273:0.10632256 294:0.092293873 302:0.082780547 305:0.036962014 308:0.067183547 312:0.064437881 434:0.16773281 910:0.14819062 1063:0.15595105 1092:0.12960958 1101:0.087244786 1105:0.12359617 1111:0.10704906 1113:0.097150363 1116:0.28789026 1118:0.093288168 1119:0.26509854 1135:0.13640888 3795:0.18537292 3797:0.086780392 4998:0.10223699 5002:0.10460056 5009:0.10106893 5052:0.08787889 5060:0.063693814 5061:0.059601653 8486:0.15446253 8637:0.15174598 8834:0.15306428 9002:0.12556866 9089:0.11129107 9126:0.081223674 9142:0.12912402 9149:0.13061254 9158:0.13920796 9161:0.12248888 9162:0.13996424 9167:0.11677276 9172:0.11462571 9177:0.099821918 9178:0.09928862 9181:0.13640888 9767:0.17352915 9856:0.18128958 9976:0.17708449 9995:0.14931592 10002:0.14819062 10007:0.1631045 10026:0.15306428 10031:0.1631045 10038:0.13061254 10515:0.10106893 10525:0.096557423 10537:0.073215097 10561:0.10999742 11428:0.070188567 11429:0.070188567 11432:0.038066115 11433:0.038066115 #
-0.34959850364788797039139467415225 126:0.12331811 252:0.10482396 278:0.088525102 280:0.09003713 297:0.072047055 299:0.071144491 305:0.031815827 313:0.050546598 1029:0.10452542 1030:0.10075819 1070:0.12954514 1081:0.12331811 1101:0.075097777 1111:0.09214472 1115:0.088657901 1116:0.061951894 1117:0.080039091 1118:0.080299743 1140:0.09911263 3826:0.096975848 3840:0.085239157 3842:0.17003217 3847:0.15226763 3850:0.071199715 3851:0.065766834 3853:0.062802866 3854:0.034993146 3855:0.03920348 3919:0.16047885 4841:0.13866819 4847:0.1370791 4932:0.1249072 4969:0.10994262 4979:0.10512707 4984:0.098447107 4990:0.090764418 5025:0.08919815 5026:0.080212481 5046:0.083936855 5055:0.064113148 5061:0.051303372 5108:0.16619018 5355:0.17423984 6393:0.17423984 6664:0.16619018 7226:0.16619018 7789:0.16047885 7790:0.16619018 7895:0.1560488 8171:0.14228781 8545:0.14228781 8734:0.13061853 9092:0.11156417 9140:0.1111462 9161:0.10543487 9174:0.094863892 9175:0.095231548 9176:0.093800083 9835:0.14936884 9977:0.12852681 10008:0.12852681 10035:0.12331811 10049:0.10994262 10654:0.16619018 10974:0.12409676 11005:0.11858496 11069:0.096377224 11084:0.086753599 11086:0.084042177 11091:0.082035124 11095:0.08156354 11100:0.070654273 11108:0.059414029 11233:0.12755819 11246:0.12663463 11321:0.11858496 11394:0.10282269 11414:0.088262148 11415:0.086157374 11428:0.060416281 11429:0.060416281 11431:0.034490734 11434:0.034490734 #
-0.58999999999999996891375531049562 34:0.12542611 223:0.099645525 233:0.099645525 242:0.099645525 249:0.10063833 259:0.091055483 270:0.08522629 305:0.029427025 308:0.05348767 310:0.054097593 464:0.1381539 607:0.13353918 1072:0.11887673 1079:0.1147793 1089:0.11143146 1095:0.10808361 1100:0.20484497 1101:0.27783707 1106:0.095102541 1108:0.085373782 1109:0.0877413 1111:0.17045258 1113:0.07734552 1116:0.057300411 3801:0.062454958 3802:0.032250553 3805:0.043879621 5040:0.069584183 5051:0.067344978 5052:0.069964111 5056:0.065004319 5058:0.056119345 5060:0.050709344 5061:0.047451399 5677:0.16115753 7651:0.15371226 8572:0.1381539 8924:0.11269832 8993:0.10318769 9073:0.096137315 9115:0.08057896 9126:0.064665608 9130:0.21229789 9133:0.11024638 9161:0.097518586 9166:0.093652129 9168:0.18638609 9172:0.27377516 9175:0.1761627 9179:0.085079975 9282:0.14842975 9387:0.15371226 9766:0.13570195 9798:0.14433232 9878:0.1381539 9911:0.12985441 9983:0.1267869 9991:0.12415925 10014:0.23775347 10028:0.11798083 10033:0.11269832 10035:0.11405912 10048:0.10358259 10512:0.07947246 10537:0.058289643 10564:0.080808491 11428:0.055880096 11429:0.055880096 11432:0.030306049 11433:0.030306049 #
-0.58999999999999996891375531049562 112:0.11983276 276:0.081575148 277:0.083292536 302:0.066435121 305:0.029663682 308:0.053917825 635:0.13089871 797:0.1207822 909:0.11645799 1069:0.11892965 1082:0.1207822 1101:0.35008937 1102:0.096381567 1104:0.19123106 1105:0.099191502 1109:0.08844693 1110:0.087294824 1111:0.25773507 1116:0.11552246 1118:0.074867956 1119:0.14183569 3794:0.07264255 3802:0.097529754 3805:0.044232506 5016:0.078357242 5052:0.070526771 5057:0.056631457 5062:0.094036885 8937:0.10895284 9108:0.083164439 9116:0.079162151 9120:0.082536921 9128:0.1149764 9133:0.11113299 9134:0.10844568 9137:0.11295512 9139:0.11645799 9142:0.10362784 9148:0.10144768 9155:0.099808559 9168:0.18788505 9175:0.088789716 9177:0.16022319 9179:0.085764199 9180:0.10077451 9254:0.14962344 9300:0.14962344 9422:0.15494843 9625:0.14962344 9748:0.15494843 9809:0.14211829 9841:0.14962344 9918:0.14211829 9940:0.13926496 9947:0.13266291 9949:0.12396315 9966:0.12780654 9983:0.12780654 10012:0.11645799 10017:0.12284099 10038:0.10482245 10048:0.10441562 10507:0.11427782 10538:0.055112433 11428:0.056329492 11429:0.056329492 11432:0.030549774 11433:0.030549774 #
-0.4775386620108311164223380274052 122:0.28137496 154:0.2640346 158:0.26097855 225:0.2403286 309:0.25467038 316:0.06562338 681:0.29871535 970:0.2517314 1522:0.11737939 1616:0.052584182 1618:0.1232591 1621:0.076908149 3782:0.14961568 3790:0.18196119 3802:0.075112939 3804:0.10245027 5049:0.14149234 5062:0.10863433 5063:0.097401023 7905:0.32176641 8644:0.27686906 8704:0.27686906 9111:0.20435329 10456:0.11997209 10530:0.15869759 11427:0.048693135 11430:0.048693135 11432:0.070584096 11433:0.070584096 #
-0.20133907783483037667870974019024 43:0.072371379 46:0.14844087 148:0.13945374 167:0.13767961 236:0.1177137 260:0.10235011 268:0.10434178 277:0.099739455 279:0.10217762 305:0.035521064 307:0.069050796 308:0.064564422 309:0.26397967 316:0.068022192 512:0.16119379 737:0.15674594 814:0.14241347 982:0.127584 1034:0.10716659 1041:0.10804452 1044:0.10472394 1073:0.14463182 1101:0.083843581 1103:0.11572745 1106:0.11479731 1111:0.10287578 1116:0.069166742 1117:0.089360349 1118:0.089651361 1125:0.14987136 3791:0.095291592 3802:0.038929317 3804:0.053097632 3817:0.098251313 3818:0.095930398 5010:0.10511281 5030:0.089264192 5049:0.073332243 5052:0.084452964 5060:0.061210737 5061:0.057278104 5062:0.11260537 6734:0.18554451 7122:0.17916803 7138:0.17916803 7888:0.17916803 8190:0.16119379 8273:0.15674594 8592:0.15481733 8802:0.13378099 8870:0.13450778 8945:0.13307728 9029:0.1352592 9074:0.10919322 9076:0.10472394 9080:0.10826955 9120:0.098834634 9177:0.095930398 9799:0.17422207 9842:0.16676417 9849:0.16676417 9915:0.15885848 9999:0.15140058 10538:0.065994918 11428:0.067452297 11429:0.067452297 11432:0.036582123 11433:0.036582123 #
1.4759273277499340704110863953247 202:0.20335518 273:0.16073824 296:0.13550463 1337:0.24658108 1608:0.1348553 1610:0.13142689 1616:0.042872678 1621:0.062704377 2993:0.27407321 3751:0.17964816 3794:0.13684075 3797:0.13119443 3800:0.12334435 3802:0.12248142 3804:0.083529256 3805:0.083323196 3810:0.16268359 5980:0.3060227 6477:0.29188484 6488:0.3060227 6502:0.29188484 10393:0.18155923 10401:0.17828061 10438:0.14196689 10513:0.15524763 10518:0.14970811 10527:0.17407452 10538:0.1038183 10546:0.17569658 10557:0.16629387 11427:0.039700247 11430:0.039700247 11432:0.057548281 11433:0.057548281 #
0.57367846040687742181773955962854 308:0.10144139 313:0.088665895 314:0.095042646 938:0.21768329 1031:0.1738576 1590:0.15895472 1599:0.14893624 1606:0.091188729 1608:0.13468724 1610:0.13126311 1616:0.042819254 1620:0.063680619 2570:0.28150263 3596:0.2291234 3743:0.1895979 3751:0.1794243 3798:0.13586344 3801:0.1184482 3802:0.1223288 3805:0.16643873 3816:0.17989175 5037:0.17425559 5061:0.08999338 5911:0.30564138 8082:0.25326213 10393:0.18133299 10401:0.17805845 10438:0.14178999 10451:0.13185039 10530:0.12922731 10531:0.12900829 10537:0.11054852 10538:0.10368893 10539:0.14457746 10544:0.23322517 10558:0.1619146 10571:0.15844259 11427:0.039650779 11430:0.039650779 11432:0.057476569 11433:0.057476569 #
0.61915801918678203819013106112834 43:0.094571799 60:0.19584543 160:0.18223214 210:0.15041168 235:0.1529319 298:0.10631578 308:0.084370002 488:0.21405259 1590:0.13220452 1608:0.11202097 1610:0.10917307 1616:0.035613276 1620:0.05296392 3596:0.19056462 3743:0.15769081 3751:0.1492293 3833:0.12452294 3854:0.25526455 3855:0.057195537 4940:0.21405259 4973:0.11982393 4992:0.12674548 4993:0.12569846 4995:0.1439485 5028:0.15337411 5029:0.11677225 5095:0.25420552 6466:0.24246155 7337:0.25420552 8406:0.24246155 8910:0.17389965 10393:0.15081678 10401:0.14809331 10438:0.1179284 11088:0.12170257 11093:0.15874417 11347:0.18104976 11411:0.17389965 11427:0.032978017 11430:0.032978017 11431:0.050319921 11434:0.050319921 #
-0.58999999999999996891375531049562 218:0.24589284 297:0.15369214 305:0.067870125 313:0.10782696 924:0.27210954 1029:0.2229756 1530:0.25992602 1608:0.16379373 1610:0.15962961 1616:0.052072674 1620:0.077442266 3246:0.33288625 3751:0.21819864 3794:0.16620523 3799:0.15675496 3800:0.14981267 3801:0.14404534 3802:0.074382283 3804:0.10145369 3810:0.19759366 5057:0.12957205 8933:0.24812233 10401:0.21653762 10409:0.2154654 10430:0.19086739 10438:0.17243139 10512:0.1832943 10537:0.13443851 10564:0.18637569 11427:0.048219476 11430:0.048219476 11432:0.069897495 11433:0.069897495 #
-0.30687606100263142838713292803732 91:0.14967182 276:0.10266154 294:0.093216375 302:0.083607964 305:0.074662916 308:0.067855068 310:0.068628825 313:0.059309419 423:0.16940933 513:0.16940933 678:0.16270788 797:0.15200324 1031:0.11629493 1304:0.1788545 1551:0.13777232 1592:0.10418461 1606:0.060996968 1616:0.028642187 3320:0.1788545 3586:0.16940933 3825:0.11577143 3831:0.11218054 3837:0.10236852 3846:0.091058791 3853:0.14738089 3854:0.20529801 3855:0.045999847 4877:0.15600643 4878:0.15750983 4886:0.15600643 4973:0.096369103 4976:0.12335203 4977:0.14967182 4989:0.10906997 4995:0.11577143 5016:0.098611839 5057:0.14254029 5062:0.059172258 8344:0.16940933 8933:0.13647784 8937:0.13711609 9108:0.10466165 9116:0.099624805 10445:0.093813702 10447:0.090703137 10791:0.1788545 10913:0.16473478 10930:0.159117 11030:0.12900242 11068:0.11195974 11078:0.10926491 11104:0.081673428 11108:0.20914236 11109:0.094016269 11272:0.14297038 11350:0.13408655 11351:0.13090508 11353:0.14561033 11389:0.12064817 11425:0.10295829 11427:0.026522765 11430:0.026522765 11431:0.040470093 11434:0.040470093 #
-0.58999999999999996891375531049562 181:0.26024035 262:0.20501091 305:0.067952201 308:0.12351248 314:0.11572152 567:0.28670561 1590:0.19353926 1608:0.16399179 1610:0.15982264 1616:0.052135643 1620:0.077535912 3596:0.27897486 3743:0.23084962 3751:0.2184625 5017:0.25457835 5060:0.11709683 5061:0.10957366 5419:0.37214121 8999:0.32555804 9126:0.14932431 10393:0.22078647 10401:0.21679947 10438:0.17263991 11427:0.048277784 11430:0.048277784 11432:0.069982015 11433:0.069982015 #
-0.58999999999999996891375531049562 43:0.10595039 213:0.18234891 292:0.12537947 313:0.082617179 316:0.049791627 616:0.22164771 973:0.18234891 1048:0.13651316 1594:0.14404953 1616:0.039898161 1620:0.059336379 3766:0.15113166 3771:0.14556916 3798:0.25318989 3801:0.22073551 3802:0.17097543 3805:0.1550844 3816:0.16761969 5062:0.16485222 8614:0.20849073 8941:0.18234891 8968:0.18034111 10458:0.086371332 10512:0.14044036 10519:0.1391385 10529:0.26108196 10531:0.24041489 10537:0.20601398 10538:0.096615359 10539:0.1347145 10558:0.15086892 10563:0.30440894 10564:0.14280133 10567:0.14300606 10571:0.14763376 11427:0.036945835 11430:0.036945835 11432:0.053555563 11433:0.053555563 #
-0.58999999999999996891375531049562 140:0.23572226 264:0.16766791 277:0.16255629 286:0.15331078 297:0.1310979 305:0.11578511 307:0.11253963 314:0.19718023 873:0.23974025 1002:0.20300384 1038:0.17796412 1590:0.16488771 1608:0.13971445 1610:0.1361625 1616:0.044417482 1621:0.064963765 3596:0.23767543 3713:0.2180375 3751:0.18612131 3802:0.063447364 3804:0.086539015 5038:0.13664904 5050:0.12278575 5057:0.11052369 5059:0.10332859 5060:0.099761821 5061:0.093352385 5062:0.09176264 8084:0.26271513 8926:0.2088296 9099:0.16462111 9116:0.1544953 9117:0.14909908 9118:0.14892666 9121:0.14471003 10393:0.18810125 10401:0.18470448 10438:0.1470823 10530:0.13405073 11427:0.041130744 11430:0.041130744 11432:0.059621882 11433:0.059621882 #
2.9771787732657357672394482506206 166:0.15936656 189:0.15599214 193:0.15599214 302:0.093732245 304:0.084851496 305:0.041852009 310:0.07693924 1023:0.13910517 1090:0.15521251 1094:0.14847919 1095:0.1537198 1101:0.098787084 1104:0.1349024 1108:0.12142118 1109:0.12478834 1113:0.11000315 1114:0.1141197 1116:0.24448316 1119:0.20011367 3789:0.10973252 3802:0.045867719 5002:0.118439 5040:0.098964743 5041:0.098698713 5057:0.079900406 5058:0.079814643 5063:0.05947794 8805:0.16123274 8811:0.16324261 8975:0.15230781 8979:0.15936656 9081:0.14265169 9103:0.11939572 9130:0.15096825 9161:0.1386939 9168:0.13254198 9172:0.12979046 9176:0.12338897 9177:0.11302815 9181:0.1544555 9275:0.21110131 9296:0.21110131 9972:0.17838484 10007:0.18468289 10012:0.1643087 10014:0.16907011 10026:0.17331436 10512:0.11302815 10521:0.10919953 10537:0.082901306 10564:0.11492829 11428:0.079474367 11429:0.079474367 11432:0.043102182 11433:0.043102182 #
1.9840201820959060263760420639301 305:0.029773217 312:0.051905263 313:0.047301453 811:0.12827848 1061:0.12329458 1092:0.10440163 1098:0.2016356 1101:0.070276417 1102:0.19347493 1108:0.1727563 1110:0.087617166 1116:0.11594903 1118:0.15028882 1119:0.14235942 1134:0.22674443 1135:0.10987852 3842:0.079557963 3853:0.05877085 3854:0.032746546 3855:0.036686573 4906:0.12223267 4979:0.098377794 5004:0.078449979 5007:0.079871967 8364:0.12442088 9134:0.21769224 9148:0.20364456 9168:0.094289407 9170:0.19295524 9171:0.18074912 9177:0.080407403 9180:0.20229326 9817:0.26630554 9889:0.13138206 9918:0.14264306 9949:0.24884176 9966:0.25655696 10020:0.23873761 10025:0.29206058 10055:0.10987852 11086:0.078646578 11104:0.065137573 11108:0.055599581 11326:0.10935514 11414:0.082595617 11428:0.05653749 11429:0.05653749 11431:0.032276392 11434:0.032276392 #
3.7480551890014974780740431015147 290:0.13099223 296:0.11964525 308:0.0896805 310:0.09070313 634:0.21504252 972:0.1848454 1062:0.20089474 1101:0.2329188 1111:0.1428953 1116:0.096073158 1117:0.12412224 1118:0.12452646 3802:0.16221939 3805:0.073571093 5000:0.14145187 5015:0.13453491 5035:0.11918572 5061:0.15911949 8340:0.21772136 8818:0.19501266 8884:0.1848454 8985:0.17504106 9006:0.17875488 9028:0.17049575 9128:0.19123806 9155:0.16600968 9168:0.15625282 9177:0.13324809 9539:0.24199584 10012:0.19370237 10017:0.20431907 10530:0.11424498 10538:0.091667466 10540:0.14768225 10566:0.2275257 10573:0.1848454 11428:0.093691774 11429:0.093691774 11432:0.050812863 11433:0.050812863 #
2.2807809683470612327482740511186 183:0.16754416 297:0.10230383 299:0.10102223 305:0.13553147 313:0.071774073 1029:0.14842176 1030:0.14307246 1110:0.13294816 1111:0.13084169 1113:0.11874291 1116:0.17593825 1118:0.11402231 1119:0.10800637 3794:0.11063306 3800:0.099721499 3802:0.049511917 3804:0.067531765 3810:0.1315265 5006:0.12909289 5025:0.12665768 5042:0.10578854 5048:0.11107701 7883:0.21644312 8545:0.20204279 8733:0.18394873 9082:0.14238486 9158:0.17014819 9167:0.14272657 9176:0.13319224 9177:0.2440165 9178:0.12135642 9179:0.13061705 9292:0.22787333 9310:0.22787333 9776:0.22158283 9856:0.22158283 9864:0.20501293 9972:0.19255753 10031:0.19935596 10047:0.15450266 10522:0.11830584 11428:0.085788615 11429:0.085788615 11432:0.046526656 11433:0.046526656 #
0.46764485863751903416130062396405 112:0.13766812 272:0.09904138 274:0.095542245 289:0.089242175 305:0.034078687 306:0.066283919 309:0.12663023 315:0.046373598 316:0.032630034 989:0.12401913 1028:0.11195965 1058:0.052471779 1061:0.14112407 1092:0.11949903 1096:0.12240329 1097:0.11195965 1098:0.11539695 1100:0.11861286 1101:0.16087802 1108:0.19773838 1110:0.10028738 1115:0.094963573 1116:0.13271628 1119:0.16294585 1120:0.13564135 3799:0.0787092 3801:0.072327495 3802:0.037348542 3804:0.050941538 3806:0.10200477 5008:0.10200477 5049:0.070354499 5059:0.060824789 5063:0.048430886 5064:0.049363066 6470:0.1718927 7088:0.16714756 8123:0.17801024 8888:0.11776215 8894:0.13051306 9060:0.12401913 9076:0.1004715 9091:0.099566467 9127:0.063186623 9130:0.12292838 9140:0.11905133 9146:0.11861286 9148:0.11654668 9164:0.1143062 9167:0.10766356 9168:0.21584898 9177:0.092035025 9277:0.1718927 9293:0.17801024 9709:0.1718927 9766:0.15715297 9818:0.15464832 9865:0.15464832 9871:0.15715297 9911:0.15038107 9997:0.13663059 10011:0.14112407 10036:0.12576792 10510:0.094680041 10519:0.091181874 10537:0.06750375 10555:0.10344352 10567:0.093716413 11428:0.064713314 11429:0.064713314 11432:0.03509666 11433:0.03509666 #
-0.58999999999999996891375531049562 139:0.1281102 165:0.12534451 262:0.095676802 293:0.079103053 305:0.0317127 308:0.057642199 313:0.050382756 315:0.043154009 316:0.030364621 890:0.13132621 974:0.11647875 1031:0.098791368 1052:0.081769221 1058:0.048828814 1062:0.12912522 1068:0.13132621 1091:0.1214519 1098:0.10738526 1101:0.074854352 1102:0.10303912 1110:0.18664943 1113:0.083353147 1116:0.24700433 1119:0.22744946 1129:0.13663478 3854:0.034879718 3855:0.039076407 4970:0.10773551 5001:0.096661516 5034:0.075260982 5037:0.099017531 5063:0.045068469 5064:0.045935925 8225:0.1519351 8490:0.13516828 8568:0.13516828 9071:0.11540883 9119:0.07766033 9127:0.058799755 9133:0.11880951 9144:0.11540883 9146:0.2207558 9151:0.11342832 9155:0.10670283 9156:0.14391153 9167:0.10018879 9177:0.17129059 9180:0.10773551 9409:0.16565149 9478:0.16565149 9479:0.17367506 9494:0.17367506 9790:0.1519351 9828:0.17367506 9876:0.1519351 9906:0.14888468 9924:0.14624229 10004:0.15995868 10036:0.23407242 10055:0.11703621 11088:0.083148085 11428:0.06022045 11429:0.06022045 11431:0.034378938 11434:0.034378938 #
-0.58999999999999996891375531049562 250:0.081428766 297:0.055805825 303:0.051985987 305:0.024643736 310:0.045304164 315:0.033534706 316:0.023596153 940:0.093839869 977:0.091393843 1024:0.083997652 1036:0.077485502 1058:0.037944555 1061:0.10205276 1073:0.10034239 1084:0.093318552 1097:0.080962747 1101:0.11633768 1107:0.29680502 1110:0.2175661 1111:0.14274594 1112:0.073620901 1115:0.068672165 1116:0.28791824 1119:0.23566602 1139:0.083448395 3839:0.041292235 3845:0.059993092 3854:0.16262883 3855:0.060732052 4729:0.11569733 4973:0.12723289 4995:0.15284912 5053:0.050941326 5057:0.047047786 5063:0.035022419 5064:0.035696514 9091:0.072000712 9094:0.073338732 9124:0.057757374 9127:0.045692913 9139:0.096749954 9140:0.086091034 9146:0.08577396 9147:0.08577396 9163:0.079434641 9165:0.09740442 9168:0.07804475 9171:0.074804373 9173:0.077485502 9174:0.073479168 9175:0.073763944 9176:0.14531034 9177:0.13310882 9178:0.066198841 9179:0.071250439 9548:0.12087145 9590:0.12430286 9650:0.12872671 9721:0.12430286 9745:0.12430286 9777:0.12430286 9819:0.11364394 9862:0.11183272 9865:0.11183272 9934:0.10617801 9950:0.12430286 9952:0.11183272 9955:0.11364394 9972:0.10503841 10000:0.10397746 10008:0.099553615 10012:0.096749954 10036:0.090948083 10047:0.08427982 10049:0.085158773 10053:0.11183272 10961:0.10034239 11041:0.084567256 11072:0.080734923 11088:0.064613841 11093:0.08427982 11104:0.05391534 11243:0.099553615 11316:0.090948083 11347:0.096122213 11353:0.096122213 11354:0.12430286 11428:0.046796925 11429:0.046796925 11431:0.026715651 11434:0.026715651 #
-0.58999999999999996891375531049562 302:0.090991594 313:0.064547181 315:0.055286173 1032:0.13095798 1052:0.10475752 1090:0.15067424 1098:0.13757516 1104:0.26191595 1110:0.11956168 1115:0.11321469 1116:0.23733468 1117:0.10220861 1119:0.19426252 1120:0.16171035 3801:0.17245634 3802:0.13357976 3805:0.060582206 3819:0.10957548 5034:0.09641958 5063:0.057738855 5064:0.058850188 9119:0.099493474 9127:0.075330503 9142:0.14193189 9146:0.14140914 9152:0.14193189 9165:0.16058342 9169:0.16288972 9171:0.2466488 9177:0.1097233 9378:0.21222216 9439:0.21222216 9504:0.22250144 9564:0.19927178 9724:0.19927178 9810:0.19464959 9982:0.17707703 10019:0.16679773 10038:0.14356805 10521:0.21201326 10533:0.10451492 11428:0.077150606 11429:0.077150606 11432:0.041841913 11433:0.041841913 #
-0.58999999999999996891375531049562 231:0.17107998 252:0.16752276 302:0.1138752 311:0.091662496 313:0.080780253 1003:0.18111661 1064:0.21453057 1079:0.19832328 1110:0.14963043 1113:0.13364272 1116:0.19801489 1119:0.12155895 1129:0.21907082 3793:0.12616876 3794:0.12451524 3802:0.055724647 3805:0.075818114 5004:0.13397494 5014:0.13331392 5026:0.12819031 5050:0.10784046 5062:0.08059343 8703:0.21907082 8929:0.18588471 9023:0.16899873 9029:0.19361426 9036:0.1656559 9129:0.19049099 9144:0.1850386 9146:0.17697234 9177:0.13731778 9180:0.17273571 9774:0.23871146 9964:0.21907082 10036:0.18764782 10055:0.18764782 10522:0.1331508 11428:0.096553333 11429:0.096553333 11432:0.052364796 11433:0.052364796 #
-0.58999999999999996891375531049562 205:0.11706708 276:0.087650441 290:0.08462061 292:0.076846853 300:0.073062949 305:0.063745759 310:0.11718792 315:0.043371979 432:0.15270251 927:0.12513117 935:0.12686171 992:0.11448051 1022:0.10758176 1098:0.10792766 1101:0.075232439 1108:0.0924697 1110:0.18759218 1115:0.088816874 1116:0.31031492 1119:0.15239887 1120:0.12686171 1136:0.12597762 1139:0.10792766 3795:0.15984975 3799:0.073614597 3801:0.06764596 3802:0.10479327 3803:0.066396944 3804:0.04764425 3805:0.095053427 3813:0.090632528 5013:0.083982423 5021:0.087524958 5038:0.075232439 5039:0.075918317 5041:0.075165138 5053:0.065884762 5057:0.12169814 5062:0.05052013 8797:0.12431929 8812:0.12206534 8830:0.12278865 8925:0.12353925 8989:0.11134551 9019:0.10657877 9056:0.10300707 9094:0.094852366 9097:0.092630737 9118:0.081991911 9133:0.11940961 9142:0.11134551 9146:0.11093542 9148:0.10900297 9158:0.12004104 9168:0.10093887 9170:0.1032814 9171:0.096747942 9173:0.10021558 9177:0.17215577 9817:0.14254296 9831:0.14963669 9860:0.15632862 9872:0.14698094 9917:0.15632862 9997:0.12778692 10012:0.12513117 10020:0.12778692 10036:0.11762735 10038:0.11262908 10511:0.088551693 10515:0.087153204 10516:0.087903798 10520:0.082764372 10524:0.079839699 10528:0.080010414 10549:0.099747591 11428:0.06052462 11429:0.06052462 11432:0.032824963 11433:0.032824963 #
1.9767120439889098726382599124918 220:0.24277516 264:0.20628652 1603:0.17255551 3792:0.18473539 3798:0.17339571 3800:0.31444415 3801:0.15116951 3802:0.23418319 3805:0.31862614 3809:0.21116726 3816:0.22958685 5064:0.10317225 9083:0.20960763 10505:0.20386478 10518:0.19082688 10529:0.17880057 10532:0.15878172 10537:0.14108755 10538:0.13233301 10539:0.184517 10546:0.22395335 10547:0.24701124 10571:0.20221236 11427:0.050604306 11430:0.050604306 11432:0.073354468 11433:0.073354468 #
-0.58999999999999996891375531049562 245:0.19503264 287:0.15349166 305:0.058325425 310:0.21444677 312:0.10168188 604:0.26467949 835:0.24373923 1603:0.14130031 3792:0.15127403 3797:0.13693798 3798:0.14198832 3802:0.12784353 3804:0.087186076 3805:0.086970992 5007:0.15646836 5021:0.16016534 5057:0.11135009 6111:0.31942004 7713:0.27943629 8443:0.26467949 8518:0.23748478 8911:0.21225785 10523:0.17164113 10524:0.14610179 10529:0.14641419 10531:0.13482413 10538:0.10836335 10539:0.15109518 10551:0.19328536 10565:0.22086117 11427:0.041438282 11430:0.041438282 11432:0.06006768 11433:0.06006768 #
3.0176794198685881198684910486918 176:0.21339524 264:0.16905372 276:0.16052043 305:0.058371052 313:0.092735544 678:0.25440821 1608:0.14086923 1610:0.13728791 1612:0.1294293 1616:0.044784606 1620:0.066603482 2559:0.28629565 3732:0.20877853 3751:0.18765965 3797:0.1370451 3801:0.12388482 3802:0.1919153 3803:0.12159741 3805:0.087039024 3819:0.15742812 5022:0.15033142 5057:0.1114372 5061:0.09412396 5062:0.092521079 8933:0.21339524 9055:0.18485647 9104:0.16364779 9116:0.15577224 10298:0.23233078 10401:0.18623111 10447:0.14182241 10512:0.1576405 10525:0.15248515 10533:0.15015757 10537:0.2312451 10561:0.17370982 10564:0.16029063 11427:0.041470699 11430:0.041470699 11432:0.060114671 11433:0.060114671 #
0.80032908036567673715211412854842 43:0.099069215 159:0.18965968 175:0.18622111 214:0.1711584 264:0.14082672 294:0.12141576 303:0.10257407 305:0.048624799 309:0.18068095 311:0.087658294 968:0.17695533 1594:0.13469394 1616:0.03730689 1620:0.055482652 3766:0.1413161 3771:0.13611487 3799:0.11230535 3801:0.10319969 3802:0.21316144 3803:0.1012942 3805:0.14501213 3806:0.14554438 3819:0.13114224 5026:0.12259042 5027:0.13114224 5039:0.11581988 5047:0.1039103 5049:0.10038454 5054:0.1047856 5059:0.086787179 5061:0.078408025 5063:0.069103077 8689:0.19353837 8764:0.18622111 8785:0.18313286 8801:0.18965968 8944:0.17464979 9075:0.14979917 9107:0.14582928 9110:0.13114224 9112:0.12733422 9121:0.12154406 10458:0.080761768 10512:0.13131917 10519:0.13010186 10532:0.10839635 10533:0.12508565 10537:0.19263396 10539:0.12596519 10547:0.16862847 10564:0.1335268 10567:0.13371824 10571:0.13804539 11427:0.034546308 11430:0.034546308 11432:0.050077286 11433:0.050077286 #
3.2799718094429186621141525392886 17:0.17390925 18:0.17030497 43:0.082238562 166:0.15370058 182:0.15458442 270:0.11690197 283:0.1136903 291:0.10871676 292:0.097319402 300:0.092527442 305:0.12109212 314:0.068739325 316:0.038648203 575:0.17811683 752:0.17811683 868:0.16715249 1048:0.10596135 1594:0.11181108 1616:0.030968904 1620:0.046056829 3766:0.11730822 3771:0.11299062 3790:0.10716414 3802:0.22118489 3805:0.060188167 3807:0.12252228 3819:0.10886278 5005:0.12910527 5012:0.11148397 5014:0.10583118 5033:0.10289346 5048:0.099243008 5057:0.077059694 5059:0.072043099 5060:0.069556266 5061:0.065087453 5062:0.063979052 5115:0.21084182 7338:0.21084182 8026:0.19338354 8431:0.18051741 8478:0.17811683 8554:0.18051741 8760:0.17030497 8860:0.15743883 8871:0.15846701 8895:0.15044612 8971:0.16065855 9018:0.14153901 9057:0.13298786 9116:0.10771772 9117:0.10395536 9126:0.088699594 10458:0.06704133 10530:0.093463287 10533:0.10383514 10534:0.13804214 10570:0.14756447 11427:0.028677313 11430:0.028677313 11432:0.041569766 11433:0.041569766 #
-0.18423321151033417164555316958285 218:0.18055952 297:0.11285639 305:0.049837146 313:0.079177514 924:0.19981048 1029:0.16373135 1413:0.21721348 1597:0.13908547 1602:0.13034993 1614:0.11249687 1616:0.11471115 1619:0.16279498 1620:0.056865983 1621:0.11184887 2985:0.23876907 3234:0.24443893 3409:0.2298227 3672:0.21241969 3762:0.15744869 3764:0.15096781 3786:0.120274 3799:0.11510543 3801:0.10577273 3802:0.054619029 3804:0.07449761 3806:0.14917319 5057:0.095144965 8933:0.18219663 10410:0.16327062 10426:0.14534931 10437:0.13066888 10440:0.1270417 10447:0.12108783 10449:0.12144324 10458:0.082775369 10459:0.082809754 10464:0.10288739 10475:0.14264342 10479:0.14171505 10487:0.13099115 10495:0.17825489 10502:0.119258 10510:0.1384614 10514:0.13764833 10519:0.13334565 10537:0.09871842 10555:0.15127724 10567:0.13705218 11427:0.03540764 11430:0.03540764 11432:0.051325846 11433:0.051325846 #
-0.58999999999999996891375531049562 281:0.15793495 311:0.097623333 313:0.086033411 316:0.05185052 931:0.209895 1019:0.18519767 1057:0.12782103 1522:0.092744112 1616:0.041547958 1618:0.09738981 1621:0.060766876 3782:0.11821473 3798:0.13182966 3800:0.11953314 3802:0.1780453 3803:0.22561878 3805:0.24224578 3809:0.16054671 5064:0.078440025 8763:0.20739083 9083:0.15936095 10456:0.094792679 10512:0.1462476 10513:0.15045063 10518:0.14508228 10532:0.24143782 10537:0.21453269 10539:0.28056997 10547:0.37559649 10557:0.16115557 10564:0.1487062 10571:0.30747691 11427:0.03847355 11430:0.03847355 11432:0.055770095 11433:0.055770095 #
-0.58999999999999996891375531049562 213:0.18248886 316:0.049829841 954:0.20171513 1203:0.2552537 1282:0.24933299 1616:0.039928783 1621:0.058398716 3795:0.26100302 3800:0.11487479 3801:0.11045247 3802:0.28517777 3803:0.21682613 3805:0.23280515 3819:0.14035879 5062:0.082489371 8895:0.19397298 10373:0.19114736 10458:0.086437628 10511:0.14458738 10512:0.28109631 10515:0.14230393 10517:0.15701035 10521:0.13578734 10533:0.13387656 10537:0.30925813 10539:0.1348179 10564:0.28582188 10571:0.14774707 11427:0.036974188 11430:0.036974188 11432:0.053596668 11433:0.053596668 #
-0.58999999999999996891375531049562 43:0.073102355 282:0.10043804 290:0.095258847 293:0.089497417 305:0.071759671 306:0.069787204 314:0.061102796 1594:0.099389538 1616:0.027528444 1620:0.040940192 3766:0.10427599 3771:0.10043804 3793:0.089031935 3794:0.087865114 3800:0.07919912 3801:0.1523004 3802:0.23593509 3803:0.074744157 3804:0.053633936 3805:0.26750812 3810:0.10445875 3816:0.23130438 5031:0.096899323 5042:0.08401759 5059:0.064039543 5061:0.057856631 5674:0.19649646 5770:0.19649646 6704:0.18741857 7294:0.19649646 8926:0.12942548 8984:0.12942548 9020:0.12999232 10458:0.059593439 10512:0.096899323 10520:0.09316925 10521:0.093617044 10522:0.093958862 10524:0.1797538 10530:0.083080076 10537:0.28428602 10538:0.066661485 10539:0.37179467 10544:0.14994016 10564:0.098528326 10565:0.13586634 10571:0.30558762 11427:0.025491435 11430:0.025491435 11432:0.036951613 11433:0.036951613 #
-0.58999999999999996891375531049562 96:0.20761219 98:0.20538391 270:0.13955712 296:0.11685022 314:0.16412148 315:0.065571144 316:0.046138074 575:0.21263519 591:0.22221048 1058:0.07419382 1615:0.10158123 1616:0.03697056 1621:0.054072104 3781:0.11215068 3793:0.11956943 3794:0.1180024 3799:0.1112929 3801:0.10226932 3802:0.21123974 3805:0.14370482 3806:0.14423226 3819:0.12995997 5014:0.12634087 5015:0.13139205 5047:0.10297352 5061:0.15540232 5063:0.068480097 5064:0.069798172 6953:0.26389372 7649:0.26389372 9028:0.16651282 9068:0.15115327 9112:0.12618627 9114:0.12325047 9127:0.089344352 10455:0.095172554 10510:0.13387528 10512:0.1301353 10514:0.13308914 10519:0.12892896 10525:0.12587945 10528:0.12096231 10533:0.12395798 10537:0.19089732 10539:0.12482958 10555:0.14626662 10561:0.14340083 10564:0.13232303 10567:0.13251273 11427:0.034234866 11430:0.034234866 11432:0.049625825 11433:0.049625825 #
-0.58999999999999996891375531049562 43:0.27926973 293:0.34190306 296:0.3323898 1603:0.33206886 3833:0.36771521 3854:0.15075882 3855:0.16889796 4992:0.37427834 4993:0.37118652 11107:0.23853153 11427:0.09738382 11430:0.09738382 11431:0.14859432 11434:0.14859432 #
2.4121103875374783065410611015977 15:0.16456605 297:0.092249222 303:0.085934885 305:0.1222112 314:0.069374576 1039:0.12778576 1045:0.12340164 1090:0.15107763 1098:0.13794349 1107:0.24531519 1109:0.12146396 1110:0.11988178 1113:0.10707264 1115:0.11351779 1116:0.15864672 1119:0.097391307 1120:0.16214329 1129:0.17551643 3854:0.044805311 3855:0.050196234 4956:0.14510806 5060:0.070199072 5061:0.06568896 5731:0.22309713 8609:0.16869724 8850:0.15342572 9126:0.089519314 9138:0.15034077 9146:0.14178774 9147:0.14178774 9148:0.13931786 9157:0.13663962 9163:0.13130859 9166:0.12964657 9177:0.11001706 9178:0.10942929 9180:0.1383934 9223:0.22309713 9301:0.21279033 9546:0.19517072 9936:0.1797629 9997:0.16332582 10036:0.15034077 10039:0.14631876 10040:0.14694643 10042:0.17755109 10055:0.15034077 11104:0.08912418 11428:0.077357158 11429:0.077357158 11431:0.044162024 11434:0.044162024 #
4.0998367960866648473938766983338 91:0.16447538 229:0.144403 243:0.13891439 267:0.12117077 281:0.11964529 294:0.1024361 305:0.082047582 307:0.079747766 309:0.15243699 311:0.073955588 312:0.143038 423:0.18616506 434:0.18616506 580:0.18346797 837:0.17143652 853:0.18918015 1092:0.14385247 1098:0.13891439 1110:0.12072556 1113:0.10782628 1115:0.11431678 1116:0.079881676 1120:0.16328454 3802:0.044960033 3804:0.061323229 5032:0.10652657 5049:0.084692471 5053:0.084800713 5060:0.14138635 5061:0.066151313 6303:0.2246674 6484:0.20692377 8086:0.18616506 8099:0.18918015 8638:0.16842143 8830:0.15804207 8948:0.14673175 8981:0.14496563 9069:0.12779728 9098:0.11922564 9126:0.090149395 9146:0.14278571 9147:0.14278571 9148:0.14029844 9177:0.11079141 9936:0.18102816 9997:0.16447538 10036:0.15139894 10509:0.11741792 10521:0.10703856 11428:0.077901639 11429:0.077901639 11432:0.042249225 11433:0.042249225 #
1.7895928422446600869477606465807 112:0.13691498 259:0.10487217 289:0.088753968 310:0.062306318 1065:0.14445816 1086:0.12905695 1090:0.12569295 1098:0.11476566 1101:0.23999688 1104:0.10924558 1105:0.1133313 1106:0.10953332 1110:0.099738754 1113:0.089081861 1116:0.32997563 1119:0.16205445 1139:0.11476566 3799:0.078278616 3801:0.071931824 3802:0.037144229 3804:0.05066286 5018:0.087593406 5021:0.093070306 5062:0.053720947 8107:0.16237733 8152:0.14445816 8626:0.15629326 8658:0.13395922 9131:0.12697507 9139:0.13305914 9144:0.12334068 9149:0.11976495 9155:0.11403632 9165:0.13395922 9168:0.10733408 9171:0.10287763 9172:0.10510585 9173:0.10656496 9177:0.091531545 9286:0.17703642 9541:0.16623318 9560:0.17095235 9592:0.16623318 9705:0.16623318 9773:0.15911727 9922:0.15380231 9963:0.15157409 9971:0.14445816 9974:0.14955841 9994:0.15380231 10027:0.13219582 10510:0.094162084 10514:0.093609147 10519:0.090683065 10537:0.067134462 10555:0.10287763 10567:0.093203731 11428:0.064359292 11429:0.064359292 11432:0.034904663 11433:0.034904663 #
1.4541206544553109125672563095577 264:0.09776786 282:0.18899339 292:0.081390493 308:0.061358705 311:0.060856093 313:0.053631209 315:0.045936387 316:0.032322396 492:0.17027208 622:0.14896327 865:0.13084361 973:0.11837238 1048:0.088617958 1052:0.087041326 1092:0.11837238 1101:0.079680622 1109:0.10065296 1111:0.09776786 1116:0.39439508 1118:0.085200042 1119:0.32281917 1135:0.12458217 1139:0.11430898 3802:0.03699642 3804:0.050461259 5010:0.099893808 5034:0.080113471 5043:0.081860356 5046:0.089059114 5062:0.053507179 5063:0.047974281 5064:0.048897669 6521:0.17633195 8941:0.11837238 8970:0.14544438 9053:0.12176941 9106:0.10354871 9119:0.082667522 9127:0.062590897 9136:0.13004863 9142:0.11792891 9155:0.11358254 9156:0.15319028 9161:0.11186904 9162:0.12782927 9173:0.10614091 9177:0.091167316 9178:0.090680256 9234:0.18487285 9304:0.17027208 9317:0.17633195 9680:0.18487285 9702:0.16173118 9967:0.15097094 9992:0.14388333 10038:0.11928838 10505:0.09662009 11428:0.064103194 11429:0.064103194 11432:0.034765769 11433:0.034765769 #
-0.58999999999999996891375531049562 167:0.1677615 189:0.16132253 199:0.16051628 245:0.14472984 292:0.10435505 296:0.10495748 309:0.08041428 316:0.082884498 428:0.19641337 512:0.19641337 732:0.18864369 986:0.16215362 1048:0.11362176 1092:0.15177149 1098:0.14656158 1110:0.12737146 1115:0.12060987 1116:0.084279127 1119:0.10347588 1120:0.17227328 3802:0.18974026 3805:0.06453944 3819:0.11673295 5048:0.21283545 5051:0.099052973 5062:0.06860438 5063:0.061510358 7283:0.2260845 8215:0.19959442 8566:0.18864369 8716:0.17623271 9030:0.14802182 9086:0.14703961 9087:0.13305108 9111:0.12905249 9146:0.150646 9147:0.150646 9148:0.14802182 9177:0.11689043 9936:0.19099368 9997:0.17352968 10036:0.15973338 10533:0.11134183 10538:0.08041428 10550:0.16389666 11428:0.082190089 11429:0.082190089 11432:0.044575028 11433:0.044575028 #
-0.58999999999999996891375531049562 301:0.083892904 311:0.067633577 316:0.03592211 1054:0.09500014 1057:0.088554583 1065:0.15990748 1075:0.16164237 1092:0.13155541 1093:0.13475269 1104:0.12092903 1112:0.11207835 1116:0.21915925 1118:0.094688691 1119:0.26907843 1134:0.14285915 1135:0.13845678 3796:0.09196575 3802:0.041116677 3804:0.056081083 3814:0.10633995 5044:0.087928176 5062:0.05946622 9061:0.12092903 9101:0.11557895 9132:0.14633371 9150:0.13057983 9157:0.25167733 9165:0.1482857 9166:0.23879679 9171:0.11388005 9177:0.10132053 9180:0.12745382 9341:0.19596988 9442:0.19596988 9678:0.19596988 9704:0.17613432 9784:0.17613432 9962:0.15041539 9965:0.15829234 9994:0.17025095 10030:0.19596988 10040:0.2706615 10055:0.13845678 10538:0.069703035 11428:0.071242303 11429:0.071242303 11432:0.038637597 11433:0.038637597 #
-0.58999999999999996891375531049562 290:0.16579434 308:0.11350688 310:0.11480121 634:0.27217516 972:0.23395526 1098:0.21145907 1110:0.18377157 1116:0.12159795 1119:0.14929502 3794:0.15292585 3800:0.13784301 3802:0.06843932 3805:0.093117513 3810:0.18180643 5035:0.15085107 7598:0.34199449 9006:0.22624661 9134:0.22829798 9147:0.21735208 9148:0.2135659 9936:0.27556571 9949:0.26096508 9966:0.26905614 10528:0.15676175 11428:0.11858387 11429:0.11858387 11432:0.06431286 11433:0.06431286 #
-0.58999999999999996891375531049562 303:0.076192595 304:0.073227838 316:0.034583401 743:0.14706554 1056:0.087586619 1062:0.14706554 1070:0.14706554 1087:0.14088029 1093:0.12973087 1101:0.25576326 1107:0.21750425 1116:0.35165307 1117:0.090864018 1118:0.18231985 1126:0.15093869 3834:0.099326663 3854:0.03972581 3855:0.044505578 4488:0.17715371 4987:0.10875212 5063:0.05133016 9091:0.10552692 9139:0.14180033 9155:0.12152783 9163:0.11642236 9168:0.11438529 9173:0.11356564 9177:0.097544618 9178:0.097023487 9235:0.19780502 9315:0.18866666 9359:0.18866666 9384:0.18866666 9656:0.18218291 9733:0.18866666 9736:0.17715371 9861:0.17715371 9866:0.16957031 9935:0.15938351 9974:0.15938351 11013:0.13753521 11107:0.062854424 11267:0.14706554 11428:0.068587318 11429:0.068587318 11431:0.039155453 11434:0.039155453 #
-0.58999999999999996891375531049562 220:0.11986925 293:0.087721735 299:0.078640312 309:0.13067776 313:0.055872213 834:0.14696527 1030:0.11137413 1059:0.15152183 1071:0.14838153 1097:0.11553827 1098:0.11908543 1100:0.12240414 1101:0.24903035 1108:0.10202939 1113:0.092434898 1116:0.06847918 3846:0.085781589 3853:0.069419809 3854:0.038680039 3855:0.043333981 3907:0.18370007 4330:0.17738698 4381:0.17738698 4820:0.15959142 5004:0.092664689 5025:0.098596111 5049:0.07260327 5795:0.19259785 5952:0.19259785 6395:0.19259785 8898:0.13317068 9130:0.12685759 9133:0.1317544 9140:0.12285662 9148:0.12027191 9168:0.11137413 9178:0.094469368 9302:0.18370007 9472:0.18370007 9620:0.17738698 9766:0.16217612 9790:0.1684892 9865:0.15959142 9868:0.15959142 9871:0.16217612 9890:0.15727933 11002:0.1291697 11031:0.12331863 11069:0.10653158 11076:0.10311778 11080:0.099523485 11104:0.076940142 11205:0.14319408 11402:0.11005969 11428:0.066781774 11429:0.066781774 11431:0.038124695 11434:0.038124695 #
2.3007927941710395458585480810143 228:0.085018285 286:0.071774393 603:0.12299345 1603:0.065660596 3792:0.14059053 3793:0.067253508 3794:0.066372111 3795:0.13592842 3798:0.0659803 3800:0.059825934 3802:0.38614798 3803:0.22584286 3805:0.44455835 5004:0.071414545 10506:0.092075743 10510:0.07530003 10511:0.07530003 10512:0.2927857 10517:0.16353963 10522:0.070975244 10528:0.068036951 10529:0.1360739 10530:0.062757559 10531:0.12530237 10536:0.084051609 10537:0.21474577 10538:0.050355177 10539:0.28084862 10541:0.091193169 10544:0.11326276 10553:0.084624954 10558:0.078631714 10563:0.079327784 10564:0.2977078 10565:0.10263158 10571:0.23083672 11427:0.019255882 11430:0.019255882 11432:0.027912745 11433:0.027912745 #
0.8520076163224638010618150474329 313:0.13087019 1081:0.31928292 1116:0.16039965 1119:0.1969348 3793:0.20440304 3794:0.20172422 3795:0.41312617 3802:0.18055639 3803:0.1716006 3805:0.2456623 10508:0.23816229 10512:0.22246532 10515:0.22524443 10524:0.20634295 10537:0.16316877 10539:0.21339524 10564:0.22620523 10571:0.23386006 11428:0.15642379 11429:0.15642379 11432:0.084834978 11433:0.084834978 #
-0.093644459142475558466323093398387 198:0.30572891 305:0.082025729 306:0.15954216 312:0.14299992 1047:0.23249809 1603:0.19871713 3839:0.13743964 3845:0.19968472 3854:0.090217307 3855:0.10107215 4967:0.27958298 5007:0.22004867 6862:0.42846194 11013:0.31234244 11083:0.22891735 11102:0.19309488 11107:0.14274238 11390:0.2679759 11391:0.26651341 11427:0.058276564 11430:0.058276564 11431:0.088922024 11434:0.088922024 #
1.1575010151704518968074353324482 213:0.15569022 264:0.12858996 292:0.1070495 313:0.070538878 315:0.0604182 316:0.04251229 616:0.1892437 973:0.15569022 1048:0.11655548 1058:0.068363264 1590:0.12645774 1616:0.034065209 1620:0.050661638 3743:0.15083617 3793:0.220346 3794:0.10872912 3795:0.22267452 3800:0.09800534 3802:0.34061888 3803:0.092492521 3805:0.3972351 5058:0.084673218 5062:0.070375748 5064:0.064313047 8610:0.18228099 8958:0.19129688 8968:0.15397596 9123:0.10585341 10457:0.075157225 10514:0.12263026 10515:0.12140649 10517:0.26790652 10521:0.23169374 10522:0.11626986 10524:0.11121861 10532:0.098977551 10536:0.13769123 10537:0.087947778 10538:0.082490586 10539:0.11501979 10569:0.16812848 10571:0.12605031 11427:0.031544503 11430:0.031544503 11432:0.045725957 11433:0.045725957 #
0.55684095808205791300338205473963 90:0.17627501 285:0.11713385 308:0.080498695 309:0.16456446 313:0.070360713 315:0.060265601 842:0.17627501 1021:0.14468621 1031:0.13796449 1522:0.07584893 1616:0.03397917 1618:0.079648316 1620:0.050533678 3779:0.10519954 3795:0.22211209 3801:0.093994424 3802:0.29122162 3803:0.092258908 3805:0.13207725 3809:0.13129993 3816:0.14275289 5010:0.13105428 5034:0.10510375 5039:0.10548891 5049:0.091430381 5063:0.062939182 8689:0.17627501 8705:0.24254134 8764:0.16961046 8801:0.17274232 8945:0.16592029 9119:0.1084545 10456:0.077524304 10512:0.23921137 10530:0.10254818 10534:0.15146022 10537:0.17545129 10539:0.22945856 10544:0.18507555 10564:0.2432328 10570:0.16190815 10571:0.25146386 11427:0.031464826 11430:0.031464826 11432:0.045610461 11433:0.045610461 #
-0.58999999999999996891375531049562 213:0.20067932 292:0.1379831 313:0.090922169 315:0.07787697 316:0.054796871 616:0.24392858 973:0.20067932 1048:0.15023598 1058:0.088117883 1522:0.098014198 1616:0.043908875 1618:0.10292388 1621:0.064219892 3782:0.12493216 3793:0.14200918 3794:0.14014807 3795:0.28701973 3802:0.2508834 3803:0.11921966 3804:0.085548088 3805:0.25601113 5058:0.10914085 5062:0.090711899 5064:0.082897298 8610:0.2349539 8958:0.24657506 8968:0.19846968 9123:0.13644138 10456:0.10017917 10507:0.22047432 10508:0.16546345 10511:0.15899983 10512:0.15455796 10515:0.15648876 10521:0.1493226 10537:0.11336164 10539:0.14825653 10564:0.15715627 10571:0.16247448 11427:0.04065977 11430:0.04065977 11432:0.058939174 11433:0.058939174 #
-0.58999999999999996891375531049562 244:0.11156047 308:0.060454793 309:0.12358847 1086:0.12664974 1094:0.11799747 1101:0.078506798 1104:0.1072079 1113:0.087420285 1116:0.064764164 3793:0.082531311 3794:0.081449695 3795:0.50042081 3797:0.078088917 3799:0.076818541 3800:0.29366574 3801:0.070590131 3802:0.10935421 3803:0.069286749 3805:0.1487857 3806:0.099554531 3810:0.096831746 5026:0.083853677 5027:0.089703254 5049:0.068664528 6473:0.18214937 8944:0.11946307 9026:0.11226407 9145:0.11662856 9155:0.11190929 9644:0.17373429 9850:0.15934862 9900:0.14874688 10506:0.11299235 10510:0.092405751 10512:0.089824274 10514:0.091863126 10515:0.090946391 10517:0.10034526 10518:0.089108542 10519:0.08899162 10521:0.34712657 10525:0.086886726 10528:0.083492734 10529:0.083492734 10532:0.074144728 10537:0.13176452 10539:0.086162075 10555:0.10095873 10561:0.09898065 10564:0.091334328 10567:0.091465272 10571:0.094425105 11428:0.063158847 11429:0.063158847 11432:0.034253612 11433:0.034253612 #
-0.58999999999999996891375531049562 313:0.07308796 1581:0.14752057 1592:0.12838838 1606:0.075167552 1616:0.035296232 3793:0.11415435 3795:0.23072135 3798:0.22398649 3800:0.10154698 3801:0.097637735 3802:0.40334615 3804:0.068767987 3805:0.4801884 10432:0.12819506 10505:0.13167268 10511:0.12781231 10515:0.12579378 10517:0.13879396 10518:0.12325174 10521:0.12003325 10523:0.13538188 10524:0.23047547 10527:0.14331211 10528:0.11548414 10529:0.11548414 10531:0.10634249 10536:0.142667 10538:0.17094313 10540:0.13770024 10546:0.14464754 10556:0.19608244 10558:0.13346742 10563:0.13464892 11427:0.03268443 11430:0.03268443 11432:0.047378365 11433:0.047378365 #
-0.58999999999999996891375531049562 292:0.10650269 294:0.11029936 305:0.044172887 308:0.080290303 313:0.070178561 316:0.042295136 623:0.21665713 1044:0.13023143 1048:0.11596011 1522:0.07565257 1616:0.033891205 1618:0.079442121 1620:0.050402857 3779:0.1049272 3795:0.44307417 3797:0.10371026 3801:0.18750219 3802:0.24205641 3804:0.066030554 3805:0.26347065 3816:0.28476667 5016:0.11668361 5052:0.10502307 5062:0.070016265 7300:0.23073736 9108:0.12384212 9120:0.12290767 10456:0.077323608 10506:0.15006569 10514:0.12200386 10515:0.24157268 10530:0.1022827 10534:0.15106812 10538:0.082069218 10539:0.22886452 10544:0.18459643 10565:0.16726968 10570:0.16148901 11427:0.031383373 11430:0.031383373 11432:0.045492385 11433:0.045492385 #
-0.58999999999999996891375531049562 259:0.10195587 275:0.094622456 301:0.073680155 308:0.059890755 310:0.060573693 315:0.0448374 773:0.13902253 903:0.13416226 933:0.12477107 1336:0.1546925 1589:0.097686701 1606:0.10767522 1612:0.073061325 1616:0.025280386 1621:0.036974382 2809:0.16619849 3503:0.15194704 3738:0.11598261 3792:0.085459225 3793:0.24528392 3795:0.16525064 3798:0.1604269 3800:0.14546295 3802:0.25277922 3803:0.20592095 3805:0.34392759 5035:0.079595044 5041:0.077704757 5051:0.075406939 5058:0.062837474 8822:0.12935902 9006:0.11937673 9051:0.10764605 9081:0.11230862 10309:0.13114801 10380:0.11598261 10411:0.10409705 10445:0.082802564 10447:0.080057092 10505:0.1886171 10508:0.095265023 10510:0.091543615 10511:0.091543615 10515:0.090097874 10520:0.085560761 10521:0.085971981 10524:0.24761181 10527:0.10264511 10528:0.16542751 10529:0.082713753 10531:0.15233237 10536:0.10218306 10537:0.19580275 10540:0.098625697 10541:0.11086518 10553:0.10288009 11427:0.023409724 11430:0.023409724 11432:0.033934031 11433:0.033934031 #
2.7865215361461292964406766259344 297:0.064929381 305:0.028672678 313:0.045552999 314:0.048829116 1002:0.10054252 1029:0.094199143 1093:0.10298607 1096:0.20597215 1100:0.099796928 1101:0.13535744 1107:0.34532893 1108:0.16637053 1110:0.084378481 1111:0.083041556 1112:0.17131399 1113:0.075362802 1116:0.16749462 1119:0.13709724 3839:0.048043001 3840:0.076818205 3847:0.13722481 3851:0.059269596 3852:0.065244198 3854:0.031536102 3855:0.035330489 4539:0.14462483 4896:0.11771446 4945:0.10918152 5026:0.072288126 5050:0.060812589 5060:0.049409438 8435:0.11674711 9036:0.093415439 9099:0.081532553 9129:0.10742027 9152:0.10016584 9159:0.099435471 9163:0.092421204 9164:0.19234689 9166:0.091251403 9168:0.090804093 9169:0.11495645 9170:0.092911422 9171:0.08703395 9178:0.077021524 9179:0.082898989 9233:0.15702634 9250:0.14063242 9266:0.14977191 9276:0.14977191 9283:0.14462483 9581:0.14063242 9785:0.1346124 9811:0.13737039 9816:0.1282309 9819:0.13222331 9938:0.13011597 9948:0.12496888 10011:0.11873712 10020:0.11495645 10034:0.11582939 10047:0.098058514 10650:0.14462483 10917:0.12221088 10953:0.11495645 11008:0.10434559 11021:0.10255493 11056:0.092911422 11078:0.083921649 11095:0.073505715 11103:0.065244198 11428:0.054447636 11429:0.054447636 11431:0.031083327 11434:0.031083327 #
2.1195609790145319983878380298847 159:0.13292739 214:0.11996034 260:0.098197319 264:0.098701663 303:0.071891412 304:0.069094017 309:0.12663443 421:0.15241289 682:0.13876346 968:0.12402324 1034:0.10281837 1069:0.13663512 1091:0.13051738 1099:0.1186168 1101:0.3217667 1103:0.11103188 1111:0.098701663 1112:0.20362066 1113:0.089574844 1114:0.092926927 1115:0.18993345 1116:0.13272069 1118:0.086013816 1119:0.08147563 1140:0.10616542 3841:0.087770693 3854:0.03748323 3855:0.041993171 4994:0.091668233 5026:0.085920341 5027:0.09191408 5049:0.070356831 5063:0.048432495 8785:0.12835291 8888:0.11776606 8944:0.12240736 9049:0.10715469 9076:0.10047483 9107:0.10220783 9128:0.13209334 9131:0.12767775 9133:0.12767775 9140:0.11905528 9157:0.11430999 9165:0.13470055 9166:0.10845974 9174:0.10161433 9175:0.2040163 9176:0.10047483 9178:0.091546364 9281:0.17189841 9577:0.16715312 9832:0.16327593 9977:0.13767268 9983:0.14683355 10005:0.13470055 10008:0.13767268 10039:0.12240736 10040:0.12293246 10049:0.11776606 10053:0.15465346 11107:0.059306197 11428:0.06471546 11429:0.06471546 11431:0.036945071 11434:0.036945071 #
1.509334195276100132332430803217 118:0.19965874 306:0.094591498 310:0.089404292 1050:0.13187714 1097:0.15977375 1111:0.14084907 1112:0.14528519 1113:0.12782493 1116:0.18939483 1119:0.1162672 3827:0.14643048 3850:0.1088333 3854:0.32093552 3856:0.08579535 4393:0.23853053 4893:0.23299772 4973:0.12554216 5018:0.12568912 8244:0.21196316 9162:0.18415698 9178:0.13063833 9179:0.14060727 9284:0.24530216 9998:0.21196316 10047:0.16631974 10797:0.22426759 10817:0.22426759 10951:0.20139329 10996:0.20323303 11002:0.17862418 11062:0.14762068 11428:0.092350133 11429:0.092350133 11431:0.052721288 11434:0.052721288 #
3.686310518315900175423394102836 43:0.10017634 112:0.19862539 276:0.27042514 305:0.14750458 308:0.08936996 310:0.090389051 312:0.17143516 315:0.1338142 316:0.047078099 635:0.21696745 800:0.24115789 933:0.18618543 1035:0.15114507 1051:0.13599929 1594:0.13619918 1616:0.037723802 1620:0.056102686 3766:0.14289534 3771:0.13763599 3841:0.12662996 3854:0.054078422 3855:0.060585078 4994:0.1322531 5006:0.14049719 5007:0.13190246 5016:0.12987882 5038:0.11605614 5041:0.11595231 5052:0.11689965 5057:0.093867861 5058:0.093767099 5060:0.084727794 5062:0.15586816 8369:0.23083468 8492:0.20745167 8650:0.21696745 8757:0.1957012 8959:0.17514029 9081:0.16758876 9097:0.14289534 9108:0.13784686 9116:0.13121298 9118:0.12648351 9120:0.13680673 10458:0.081664301 11089:0.12590462 11427:0.034932371 11430:0.034932371 11431:0.053301997 11434:0.053301997 #
2.8392552557519761258220114541473 306:0.11280379 312:0.10110765 1047:0.16438706 1062:0.23614363 1113:0.15243587 1116:0.1129301 3827:0.17462365 3839:0.097176276 3842:0.15497307 3845:0.14118648 3846:0.14146379 3854:0.06378787 4891:0.24016881 5013:0.15281482 5061:0.093519256 8586:0.23810029 8926:0.20920289 9178:0.15579095 9179:0.16767927 10047:0.19834234 11000:0.21727829 11046:0.19513765 11064:0.17945606 11069:0.17568293 11077:0.17036118 11079:0.16739318 11084:0.15814033 11107:0.10092556 11130:0.24719517 11315:0.21202426 11322:0.21301581 11329:0.21011913 11428:0.11013088 11429:0.11013088 11431:0.062872045 11434:0.062872045 #
-0.58999999999999996891375531049562 228:0.1356755 297:0.097944871 305:0.043252248 313:0.06871593 314:0.1473158 1002:0.1516667 1029:0.14209782 1072:0.17472668 1078:0.16764568 1082:0.17611104 1106:0.13978304 1107:0.26046142 1116:0.084220938 1117:0.1088097 3841:0.11139379 3854:0.095143355 3855:0.053295448 3856:0.07630372 4973:0.1116533 4994:0.11634033 5004:0.11396613 5037:0.13504782 5060:0.074533299 5061:0.13948946 7759:0.21214163 8153:0.18435304 8435:0.17611104 8870:0.16378351 8934:0.17472668 9062:0.19627775 9126:0.095046408 9141:0.1596231 9144:0.15740356 9163:0.13941583 9301:0.22592841 9417:0.23687159 9738:0.2181641 9782:0.21214163 10001:0.17340986 11089:0.11075571 11337:0.2181641 11428:0.082133338 11429:0.082133338 11431:0.046888672 11434:0.046888672 #
-0.58999999999999996891375531049562 43:0.20400542 272:0.29100111 305:0.10012922 313:0.15907778 1112:0.29912683 1116:0.19497196 1117:0.2518951 3833:0.2686145 3854:0.11012872 3855:0.12337928 4992:0.27340883 4993:0.27115026 9178:0.26897052 9179:0.2894955 10047:0.34243476 11107:0.17424633 11428:0.19013916 11429:0.19013916 11431:0.10854755 11434:0.10854755 #
-0.33633053815826519095111279966659 281:0.11029266 1107:0.22773066 1109:0.11275726 1113:0.099397533 1116:0.073637351 3828:0.1116989 3839:0.063364886 3840:0.10131709 3851:0.078171872 3852:0.086051896 3854:0.16637442 3855:0.046598099 3856:0.13343009 3966:0.19074862 4012:0.19074862 4442:0.18548296 4578:0.17754301 4754:0.17161261 4896:0.15525599 4974:0.12847318 6880:0.20710523 9130:0.13641311 9163:0.12189621 9170:0.12254275 9178:0.10158525 9179:0.10933716 9385:0.19753723 9546:0.18118061 9751:0.19753723 9794:0.18548296 9948:0.16482399 10047:0.12933137 10951:0.15660478 11036:0.13162419 11043:0.12424116 11060:0.1200565 11062:0.11479085 11065:0.13260758 11069:0.11455604 11079:0.10915062 11083:0.10553959 11084:0.1031172 11085:0.10254855 11107:0.06580966 11181:0.15660478 11265:0.14568798 11285:0.14750408 11313:0.17161261 11343:0.13641311 11391:0.1228728 11428:0.071812093 11429:0.071812093 11431:0.040996429 11434:0.040996429 #
-0.21835907718501640362163129793771 315:0.10856474 316:0.076389827 1058:0.12284113 1094:0.28304151 1113:0.20969577 1116:0.15535036 3841:0.20547223 3854:0.087748684 3856:0.14074658 4933:0.31754854 5038:0.18831491 5043:0.19346642 9016:0.27975792 9129:0.29889512 9166:0.25390553 9178:0.21431112 9928:0.36790916 10039:0.28655708 11107:0.13883652 11428:0.15149966 11429:0.15149966 11431:0.086488843 11434:0.086488843 #
-0.58999999999999996891375531049562 228:0.099419251 260:0.091322996 266:0.094320185 285:0.083825983 305:0.031694051 308:0.057608303 309:0.11776935 915:0.15184577 1034:0.095620543 1078:0.12284611 1099:0.110313 1104:0.10216007 1107:0.38171786 1108:0.091950886 1116:0.061714772 1117:0.079732738 3836:0.086542517 3839:0.10621104 3843:0.085250981 3844:0.07663504 3850:0.070927195 3852:0.072119281 3854:0.03485921 3855:0.039053429 3985:0.15986462 4046:0.15986462 4139:0.15986462 4416:0.15545152 4772:0.1461563 5004:0.083511226 5037:0.098959304 5049:0.065431483 5054:0.068300135 5058:0.060442723 8153:0.13508882 8308:0.13508882 8882:0.1461563 8934:0.12803487 8996:0.11199716 9076:0.093441062 9163:0.10216007 9170:0.10270193 9176:0.093441062 9602:0.15986462 9782:0.15545152 9919:0.1417432 9948:0.13813744 9968:0.13985826 10001:0.12706995 10678:0.16555409 10873:0.1438269 10965:0.12362178 11006:0.12001602 11012:0.11482726 11014:0.11534097 11036:0.110313 11043:0.10412534 11069:0.096008338 11080:0.089692511 11084:0.086421557 11103:0.072119281 11105:0.06740424 11107:0.055154454 11143:0.13655443 11181:0.131249 11212:0.12614994 11343:0.11432655 11348:0.1138382 11416:0.085710928 11418:0.08703389 11428:0.060185038 11429:0.060185038 11431:0.034358721 11434:0.034358721 #
2.3218494745191886607926790020429 213:0.16271132 292:0.11187706 313:0.073719934 316:0.044429448 616:0.19777794 973:0.16271132 1048:0.12181173 1522:0.079470173 1616:0.03560143 1618:0.083450951 1620:0.052946303 3779:0.11022206 3793:0.11514142 3795:0.23271637 3797:0.10894372 3798:0.11296163 3799:0.10717139 3800:0.20485008 3801:0.09848199 3802:0.35597959 3805:0.34595749 3819:0.12514716 5062:0.1470989 8614:0.18603787 8941:0.16271132 8968:0.16091974 10456:0.081225537 10508:0.13415821 10511:0.12891749 10515:0.1268815 10517:0.13999408 10518:0.12431747 10524:0.23246835 10525:0.24243553 10527:0.14455131 10529:0.11648271 10531:0.10726202 10532:0.10344109 10533:0.11936746 10537:0.091913916 10538:0.086210623 10561:0.13809028 11427:0.03296705 11430:0.03296705 11432:0.047788039 11433:0.047788039 #
-0.065269449492769415765991425359971 267:0.15904783 273:0.15489432 289:0.141011 308:0.097875275 311:0.09707354 316:0.051558509 609:0.24831642 849:0.2271948 1006:0.19596185 1055:0.13375534 1417:0.24831642 1580:0.17402492 1606:0.087983042 1609:0.13160418 1616:0.1239419 1619:0.087947503 1620:0.061441962 1621:0.060424648 3056:0.26410881 3126:0.27160656 3747:0.18954228 3757:0.17591842 3802:0.059014197 3804:0.0804924 5011:0.14522804 5028:0.17792501 5063:0.076525338 8930:0.2271948 9091:0.15732434 9096:0.15817504 10389:0.18293269 10397:0.1806145 10413:0.16812974 10415:0.20070218 10438:0.13680544 10446:0.13239482 10459:0.089473419 10509:0.15412186 11427:0.038256876 11430:0.038256876 11432:0.055456012 11433:0.055456012 #
2.1232667401757416847374315693742 302:0.074974857 304:0.067871295 305:0.033476725 1023:0.11126791 1098:0.11335859 1099:0.11651769 1101:0.079018138 1104:0.10790619 1108:0.097122781 1110:0.098515913 3792:0.08682593 3794:0.081980206 3798:0.081496261 3799:0.077318884 3800:0.14778925 3801:0.14209981 3802:0.40357706 3803:0.069738038 3804:0.10008343 3805:0.29950958 3810:0.097462453 5057:0.063910998 5062:0.053062309 9116:0.089337848 9134:0.12238555 9137:0.12747465 9148:0.11448801 9168:0.10601813 9170:0.10847853 9176:0.098696776 9246:0.16419509 9817:0.14971572 9889:0.14772476 9949:0.13989767 9966:0.14423512 9984:0.14971572 10507:0.12896737 10509:0.095816769 10511:0.093007617 10512:0.18081866 10516:0.092327125 10517:0.20199768 10520:0.086929083 10521:0.087346882 10522:0.087665811 10529:0.084036551 10531:0.15476854 10532:0.07462766 10537:0.26524547 10538:0.06219672 10539:0.086723275 10549:0.10476689 10558:0.097122781 10563:0.097982541 10564:0.18385844 10571:0.095040128 11428:0.063570224 11429:0.063570224 11432:0.034476716 11433:0.034476716 #
2.628484007836638269850482174661 193:0.2128302 220:0.19462897 259:0.17668782 290:0.15160088 303:0.1204555 310:0.1049732 935:0.22727732 1603:0.138335 3792:0.14809942 3797:0.13406421 3798:0.13900858 3800:0.12604243 3802:0.25032124 3805:0.25543749 5039:0.13601041 5058:0.1088963 5064:0.082711548 8607:0.22569346 8755:0.24092373 9083:0.16803908 9113:0.16397914 10511:0.15864356 10521:0.14898801 10522:0.14953201 10523:0.33607817 10528:0.14334156 10531:0.26398948 10538:0.10608926 10551:0.1892291 10553:0.17828949 11427:0.040568665 11430:0.040568665 11432:0.058807109 11433:0.058807109 #
-0.58999999999999996891375531049562 292:0.10011257 306:0.080762386 313:0.06596788 316:0.039757445 973:0.14560133 1048:0.10900255 1615:0.087533139 1616:0.031857744 1620:0.047378708 3769:0.12552571 3792:0.10769369 3797:0.097487696 3798:0.10108309 3800:0.09165448 3801:0.088126063 3802:0.18202651 3803:0.1729978 3804:0.062068753 3805:0.18574689 3816:0.1338404 5024:0.10681531 5031:0.11213834 5056:0.091723301 5062:0.065815315 8341:0.18322897 8525:0.19893387 8941:0.14560133 8978:0.18569845 10455:0.082010739 10512:0.11213834 10523:0.24438652 10525:0.10847105 10528:0.10423392 10529:0.20846784 10531:0.28794849 10532:0.092563689 10536:0.12876868 10537:0.24674599 10538:0.1542902 10539:0.10756637 10541:0.13970968 10547:0.14399815 10551:0.13760203 10553:0.12964706 10554:0.16906811 10561:0.12356932 10563:0.24306339 10564:0.11402352 10569:0.15723357 10571:0.1178821 11427:0.029500382 11430:0.029500382 11432:0.042762861 11433:0.042762861 #
-0.58999999999999996891375531049562 305:0.08998251 306:0.17501828 312:0.15687139 1047:0.2550512 1603:0.21799338 3792:0.2333805 3793:0.22328186 3797:0.21126331 3802:0.19723269 3804:0.13450775 3805:0.13417593 5007:0.24139415 5054:0.19391075 8896:0.3426407 10513:0.24999635 10517:0.27147606 10518:0.24107602 10525:0.23506509 10532:0.20059262 10557:0.26778421 11427:0.063929588 11430:0.063929588 11432:0.092670403 11433:0.092670403 #
-0.58999999999999996891375531049562 113:0.15389508 289:0.093537122 298:0.081811376 301:0.079872034 305:0.14287515 306:0.069473952 307:0.069435157 311:0.064391993 312:0.0622705 313:0.056747325 316:0.06840083 964:0.13058217 966:0.13932014 976:0.13313219 991:0.13119285 1011:0.14216934 1047:0.10124322 1057:0.084310286 1530:0.13679424 1564:0.1221557 1616:0.02740488 1620:0.040756427 3569:0.15761845 3587:0.15761845 3792:0.27792296 3794:0.087470725 3800:0.078843623 3801:0.15161678 3802:0.19573006 3804:0.053393193 3805:0.10652296 3810:0.10398988 5007:0.095822021 5022:0.091991767 5028:0.11802337 5029:0.089857765 5039:0.085078925 5054:0.076973364 5059:0.063752092 5061:0.057596933 5062:0.05661609 7936:0.17112821 8371:0.15567911 8560:0.17519185 8648:0.14664195 8765:0.14216934 8786:0.14117858 8869:0.14023 8952:0.12998778 9025:0.11669233 9055:0.11311856 9063:0.11257491 9104:0.10014039 9110:0.09633442 9121:0.089283787 10430:0.10044996 10438:0.090747438 10517:0.10776312 10521:0.18639366 10522:0.093537122 10524:0.089473471 10528:0.089664795 10531:0.24770094 10537:0.14150497 10538:0.13272454 10539:0.092531458 10553:0.11152586 10558:0.10362746 11427:0.025377015 11430:0.025377015 11432:0.036785752 11433:0.036785752 #
-0.58999999999999996891375531049562 292:0.13998736 300:0.13309444 305:0.058060933 316:0.055592816 868:0.24043752 1048:0.15241821 1541:0.2122615 1616:0.044546667 1621:0.065152705 3489:0.26347923 3792:0.3011761 3793:0.14407192 3797:0.136317 3802:0.12726378 3803:0.12095138 3805:0.17315319 5057:0.11084515 5062:0.092029527 8915:0.27258429 9037:0.25015667 10457:0.098282211 10512:0.15680298 10513:0.16130938 10516:0.16012914 10518:0.15555355 10525:0.15167502 10527:0.18087137 10531:0.13421275 10537:0.11500826 10538:0.10787196 10539:0.15041001 10546:0.18255678 10557:0.17278694 10564:0.15943903 10565:0.21985961 10571:0.16483448 11427:0.04125037 11430:0.04125037 11432:0.05979529 11433:0.05979529 #
-0.58999999999999996891375531049562 112:0.16433479 276:0.11186954 305:0.04067982 312:0.070919335 635:0.1795103 1097:0.13364653 1106:0.13146943 1110:0.11971331 1112:0.12152723 1113:0.10692218 1116:0.15842378 1119:0.097254448 3789:0.10665914 3792:0.21101604 3793:0.10094257 3802:0.17833222 3805:0.12131808 3809:0.12060408 5016:0.1074566 5060:0.070100427 5062:0.064479582 8198:0.18460412 8650:0.1795103 8959:0.14490415 9108:0.11404904 9129:0.15240422 9138:0.1501295 9144:0.14804196 9158:0.15321013 9167:0.12851828 9177:0.10986246 9179:0.11761427 9236:0.22278363 9354:0.2124913 9712:0.19952451 9757:0.2124913 9910:0.1773016 9962:0.16309631 9964:0.1752698 10031:0.1795103 10521:0.10614108 10523:0.11971331 10531:0.18806966 10532:0.18137017 10538:0.07557942 10558:0.11802042 11428:0.077248454 11429:0.077248454 11432:0.04189498 11433:0.04189498 #
2.9722026780685064650811000319663 43:0.10387294 210:0.16520469 234:0.17377293 272:0.14816833 299:0.11400387 305:0.050982546 1079:0.19885601 1087:0.19885601 1107:0.30701262 1116:0.1985468 1117:0.12825681 1119:0.12188548 3791:0.13676979 3802:0.055874333 3804:0.076209784 3817:0.14101779 3818:0.13768664 4999:0.15672247 5019:0.13750115 5059:0.090995364 7325:0.26630765 7358:0.27920666 9077:0.15992422 9148:0.17435667 9150:0.17744774 9158:0.19201271 9167:0.16106732 9280:0.26630765 9771:0.27920666 10031:0.22497375 10538:0.094720952 11428:0.096812688 11429:0.096812688 11432:0.05250546 11433:0.05250546 #
4.1821896096856958635612500074785 43:0.10740758 245:0.17628016 296:0.12783764 306:0.1025367 310:0.096913792 986:0.19750223 1050:0.14295414 1453:0.22242659 1580:0.17037261 1581:0.16904779 1606:0.08613652 1612:0.11689316 1616:0.0404469 1619:0.086101726 1621:0.0591565 3296:0.2474975 3604:0.22242659 3738:0.18556429 3747:0.18556429 3752:0.16348594 3833:0.14142385 3854:0.057982076 3855:0.064958416 4992:0.14394803 4993:0.14275892 5018:0.13624637 5473:0.28870764 5721:0.28870764 7005:0.28870764 8669:0.23576453 10384:0.183486 10408:0.1694835 10445:0.13247848 10447:0.12808591 10459:0.087595612 11107:0.091739602 11427:0.037453968 11430:0.037453968 11431:0.057149608 11434:0.057149608 #
1.7959631029426226245249154089834 127:0.16576806 185:0.15659109 274:0.11837752 302:0.18912952 1060:0.17815143 1072:0.17057176 1087:0.16469251 1097:0.1387188 1101:0.099664494 1107:0.25426778 1113:0.11098018 1116:0.082218207 3850:0.094491266 3854:0.13932134 3855:0.052028108 4969:0.14590813 5048:0.10381543 5051:0.096630774 5052:0.10038887 5062:0.066926762 6108:0.2312389 6919:0.2312389 7186:0.21297626 7395:0.2312389 8351:0.19471364 8668:0.17815143 9120:0.1174843 9130:0.15230913 9140:0.14750543 9163:0.13610059 9168:0.13371921 9171:0.12816726 9821:0.20229332 9865:0.19161037 9941:0.17996922 10027:0.16469251 10935:0.17645101 11004:0.1617066 11091:0.10887126 11428:0.08018025 11429:0.08018025 11431:0.045773685 11434:0.045773685 #
2.9830717916466027439525987574598 278:0.14467481 308:0.09450984 316:0.049785674 1044:0.15329561 1078:0.20153634 1099:0.18097502 1107:0.31311539 3841:0.13391276 3854:0.285943 3855:0.064069472 4936:0.23977807 4973:0.13422474 4994:0.13985929 4995:0.16124867 5039:0.12384971 5052:0.12362282 8987:0.18446712 9027:0.19097793 9131:0.19479942 9163:0.16759965 9579:0.25502744 9788:0.24411052 9863:0.23977807 10001:0.2084658 11088:0.13632916 11093:0.17782253 11347:0.20280886 11411:0.19479942 11428:0.098737128 11429:0.098737128 11431:0.056367524 11434:0.056367524 #
3.2202370283142296436551532679005 91:0.13002139 260:0.093444146 264:0.093924075 277:0.091060653 294:0.080977984 295:0.078415036 303:0.068411559 305:0.032430205 309:0.12050477 310:0.059618536 315:0.044130381 316:0.031051628 423:0.14716756 513:0.14716756 804:0.13683034 814:0.13002139 873:0.13429751 1034:0.097841516 1036:0.10196794 1053:0.081235774 1058:0.049933575 1066:0.27945235 1093:0.11648231 1113:0.08523903 1116:0.12629643 1117:0.081584685 3824:0.10196794 3829:0.19229265 3839:0.10867799 3847:0.15520799 3853:0.064015619 3854:0.10700664 3855:0.039960518 3856:0.057211947 4542:0.15537266 4543:0.15537266 4545:0.15537266 4982:0.10811335 5049:0.06695126 5053:0.067036822 5057:0.061913077 5058:0.061846621 5062:0.051403522 5063:0.046088152 5064:0.046975236 8802:0.12214007 9017:0.1208749 9069:0.10102655 9074:0.099691801 9076:0.095611416 9091:0.094750166 9094:0.096510954 9113:0.093130395 9127:0.060130112 9150:0.11287523 9173:0.10196794 9258:0.16357778 9272:0.16357778 10714:0.15906218 10908:0.13972618 10931:0.13314083 10943:0.13314083 11006:0.12280362 11012:0.11749434 11018:0.11801998 11025:0.11415374 11058:0.10453293 11064:0.10034817 11072:0.10624405 11083:0.090506196 11091:0.083619267 11107:0.056435522 11108:0.060561344 11109:0.081672862 11138:0.13822651 11198:0.13552433 11295:0.12569945 11391:0.10537041 11421:0.11505327 11425:0.089440882 11428:0.061582953 11429:0.061582953 11431:0.035156768 11434:0.035156768 #
-0.58999999999999996891375531049562 43:0.091337465 216:0.16171019 217:0.16389106 305:0.044829927 306:0.087195359 310:0.08241374 312:0.078154452 1050:0.12156563 1113:0.11783026 1116:0.261879 3833:0.12026429 3854:0.24653456 3855:0.055239465 4940:0.20673205 4973:0.11572599 4992:0.12241082 4993:0.12139961 4995:0.13902551 4998:0.12399966 5000:0.12852454 5018:0.11586145 5056:0.099029347 5060:0.077251993 5061:0.1445775 7188:0.23416942 8088:0.20343722 8557:0.1953897 8694:0.17973521 8787:0.17843387 8985:0.15904401 9002:0.15229782 9115:0.12275618 9126:0.09851335 9131:0.16795233 9150:0.15603319 9173:0.14095549 9272:0.2261219 9901:0.20673205 11088:0.11754038 11093:0.15331516 11347:0.1748579 11411:0.16795233 11428:0.085129254 11429:0.085129254 11431:0.048598994 11434:0.048598994 #
-0.58999999999999996891375531049562 91:0.30665666 229:0.26923263 243:0.25899941 264:0.22152081 315:0.10408191 580:0.34206745 865:0.29646331 1590:0.21784765 1616:0.058683839 1620:0.087274365 3743:0.25984415 3854:0.084125385 3855:0.094247259 5010:0.22633775 5063:0.10869934 5064:0.11079153 8501:0.32954547 9053:0.27590314 9127:0.14181742 10457:0.1294727 11085:0.20741017 11427:0.054341439 11430:0.054341439 11431:0.082917564 11434:0.082917564 #
-0.58999999999999996891375531049562 43:0.23124284 44:0.25379428 308:0.10314892 310:0.10432514 950:0.22924922 1594:0.15719821 1616:0.043540016 1620:0.064752534 3766:0.16492678 3771:0.15885656 3833:0.15223902 3854:0.31208086 3855:0.069926016 4940:0.26169601 4973:0.14649414 4992:0.15495625 4993:0.1536762 4995:0.1759883 5013:0.14952867 5021:0.15583608 5052:0.1349231 5061:0.09150821 8586:0.23298015 8926:0.20470417 8961:0.21995863 8989:0.19824798 10458:0.094255209 11088:0.14879091 11093:0.19407716 11347:0.22134748 11411:0.21260591 11427:0.040318206 11430:0.040318206 11431:0.06152004 11434:0.06152004 #
-0.48546857142935151419038675157935 304:0.10707928 313:0.083909467 316:0.050570462 1056:0.12807578 1064:0.22284092 1110:0.15542673 1116:0.20568548 1117:0.13286823 1119:0.12626782 3789:0.13847816 3798:0.12857513 3799:0.12198457 3802:0.2315331 3803:0.11002441 3805:0.23626535 3809:0.15658322 3813:0.15018448 5024:0.13586636 5045:0.13272525 5063:0.07505884 8855:0.1999971 9125:0.1368217 9142:0.18450734 9144:0.19220652 9177:0.14263712 9624:0.26640162 9720:0.26640162 10038:0.18663432 10505:0.15116833 10507:0.20346943 10511:0.14673638 10518:0.14150056 10520:0.1371464 10528:0.1325829 10532:0.11773866 10548:0.20735116 11428:0.10029355 11429:0.10029355 11432:0.054393277 11433:0.054393277 #
